svm_type c_svc
kernel_type rbf
gamma 0.16666666666666666
nr_class 2
total_sv 2654
rho 18.45179751750008
label 1 -1
nr_sv 1325 1329
SV
1.0 1:0.627185 2:0.644635 3:0.0 4:0.0 5:0.00357766 6:0.00351506 
1.0 1:0.650826 2:0.645696 3:0.0 4:0.0 5:0.00363301 6:0.00370178 
1.0 1:0.643809 2:0.646632 3:0.0 4:0.0 5:0.00367618 6:0.00375357 
1.0 1:0.59204 2:0.642821 3:0.0 4:0.0 5:0.00342377 6:0.00338257 
1.0 1:0.619261 2:0.65838 3:0.0 4:0.0 5:0.00343191 6:0.00337767 
1.0 1:0.651241 2:0.676274 3:0.0 4:0.0 5:0.00346012 6:0.00327869 
1.0 1:0.645183 2:0.667799 3:0.0 4:0.0 5:0.00346438 6:0.0032518 
1.0 1:0.457279 2:0.586295 3:0.0 4:0.0 5:0.0 6:0.0 
1.0 1:0.515163 2:0.60176 3:0.0 4:0.0 5:0.0 6:0.0 
1.0 1:0.529347 2:0.647835 3:0.0 4:0.0 5:0.00347698 6:0.00349243 
1.0 1:0.541411 2:0.621534 3:0.0 4:0.0 5:0.00376841 6:0.0 
1.0 1:0.607142 2:0.630059 3:0.0 4:0.0 5:0.00384241 6:0.0 
1.0 1:0.662591 2:0.689266 3:0.0 4:0.0 5:0.00383779 6:0.00380409 
1.0 1:0.655113 2:0.645324 3:0.0 4:0.0 5:0.00373426 6:0.00373643 
1.0 1:0.670317 2:0.647185 3:0.0 4:0.0 5:0.00374107 6:0.00372101 
1.0 1:0.676666 2:0.666183 3:0.0 4:0.0 5:0.00373259 6:0.00371485 
1.0 1:0.672181 2:0.647618 3:0.0 4:0.0 5:0.00373558 6:0.00371522 
1.0 1:0.670929 2:0.667982 3:0.0 4:0.0 5:0.00373978 6:0.0036999 
1.0 1:0.672171 2:0.656082 3:0.0 4:0.0 5:0.00376533 6:0.00368401 
1.0 1:0.681058 2:0.661957 3:0.0 4:0.0 5:0.00376564 6:0.0036522 
1.0 1:0.671866 2:0.670403 3:0.0 4:0.0 5:0.00377002 6:0.00366295 
1.0 1:0.675963 2:0.684153 3:0.0 4:0.0 5:0.00376822 6:0.00363409 
1.0 1:0.680986 2:0.676757 3:0.0 4:0.0 5:0.0037847 6:0.00362233 
1.0 1:0.64974 2:0.64055 3:0.0 4:0.0 5:0.00363752 6:0.00351912 
1.0 1:0.652853 2:0.651825 3:0.0 4:0.0 5:0.00368548 6:0.00351428 
1.0 1:0.638851 2:0.654034 3:0.0 4:0.0 5:0.00371118 6:0.00350983 
1.0 1:0.648973 2:0.665051 3:0.0 4:0.0 5:0.0 6:0.00342821 
1.0 1:0.649765 2:0.658866 3:0.0 4:0.0 5:0.00353912 6:0.00344231 
1.0 1:0.641611 2:0.663538 3:0.0 4:0.0 5:0.00355548 6:0.00345921 
1.0 1:0.63874 2:0.67908 3:0.0 4:0.0 5:0.00357124 6:0.00348011 
1.0 1:0.647943 2:0.672155 3:0.0 4:0.0 5:0.00357174 6:0.00348073 
1.0 1:0.641701 2:0.682828 3:0.0 4:0.0 5:0.00357904 6:0.00347609 
1.0 1:0.581417 2:0.672244 3:0.0 4:0.0 5:0.0035823 6:0.00348016 
1.0 1:0.575955 2:0.665424 3:0.0 4:0.0 5:0.00358402 6:0.00348313 
1.0 1:0.579444 2:0.65554 3:0.0 4:0.0 5:0.00358463 6:0.00349604 
1.0 1:0.598284 2:0.68951 3:0.0 4:0.0 5:0.00357979 6:0.00350783 
1.0 1:0.587881 2:0.675067 3:0.0 4:0.0 5:0.0035595 6:0.0034909 
1.0 1:0.601802 2:0.686869 3:0.0 4:0.0 5:0.00355034 6:0.00348572 
1.0 1:0.613527 2:0.672679 3:0.0 4:0.0 5:0.00356562 6:0.00347893 
1.0 1:0.611797 2:0.683421 3:0.0 4:0.0 5:0.00357945 6:0.00346865 
1.0 1:0.626621 2:0.67939 3:0.0 4:0.0 5:0.00358779 6:0.00346087 
1.0 1:0.641198 2:0.675534 3:0.0 4:0.0 5:0.00356985 6:0.00345396 
1.0 1:0.629254 2:0.663291 3:0.0 4:0.0 5:0.00356797 6:0.00345305 
1.0 1:0.588581 2:0.626788 3:0.0 4:0.0 5:0.00360725 6:0.00351309 
1.0 1:0.565903 2:0.658187 3:0.0 4:0.0 5:0.00365766 6:0.00355858 
1.0 1:0.558649 2:0.67171 3:0.0 4:0.0 5:0.00368183 6:0.00359425 
1.0 1:0.613817 2:0.674277 3:0.0 4:0.0 5:0.0036842 6:0.00364501 
1.0 1:0.612966 2:0.636939 3:0.0 4:0.0 5:0.00369925 6:0.00368401 
1.0 1:0.600379 2:0.651196 3:0.0 4:0.0 5:0.00370304 6:0.00368081 
1.0 1:0.599249 2:0.631245 3:0.0 4:0.0 5:0.0 6:0.0 
1.0 1:0.646407 2:0.663343 3:0.0 4:0.0 5:0.0034762 6:0.0033235 
1.0 1:0.636966 2:0.662727 3:0.0 4:0.0 5:0.00344875 6:0.00329981 
1.0 1:0.670988 2:0.657476 3:0.0 4:0.0 5:0.00337754 6:0.00341714 
1.0 1:0.685806 2:0.653156 3:0.0 4:0.0 5:0.00345077 6:0.00347134 
1.0 1:0.660772 2:0.645888 3:0.0 4:0.0 5:0.0035173 6:0.00348813 
1.0 1:0.663459 2:0.646554 3:0.0 4:0.0 5:0.00352934 6:0.00351158 
1.0 1:0.670591 2:0.659422 3:0.0 4:0.0 5:0.00353007 6:0.00354208 
1.0 1:0.656293 2:0.663115 3:0.0 4:0.0 5:0.00350342 6:0.00353552 
1.0 1:0.65334 2:0.661577 3:0.0 4:0.0 5:0.00350605 6:0.00353821 
1.0 1:0.658279 2:0.667612 3:0.0 4:0.0 5:0.00350605 6:0.00350592 
1.0 1:0.661277 2:0.673654 3:0.0 4:0.0 5:0.00353608 6:0.00350355 
1.0 1:0.654269 2:0.668839 3:0.0 4:0.0 5:0.00353004 6:0.00350108 
1.0 1:0.647615 2:0.673518 3:0.0 4:0.0 5:0.00353355 6:0.00350996 
1.0 1:0.665919 2:0.691043 3:0.0 4:0.0 5:0.0035138 6:0.00352042 
1.0 1:0.665116 2:0.669233 3:0.0 4:0.0 5:0.00354261 6:0.00351439 
1.0 1:0.684496 2:0.651044 3:0.0 4:0.0 5:0.00351513 6:0.00347771 
1.0 1:0.65069 2:0.649025 3:0.0 4:0.0 5:0.00355743 6:0.00349002 
1.0 1:0.669507 2:0.648657 3:0.0 4:0.0 5:0.00354401 6:0.00348812 
1.0 1:0.673722 2:0.657438 3:0.0 4:0.0 5:0.00354078 6:0.00349013 
1.0 1:0.463735 2:0.372582 3:1.0 4:0.0 5:0.0 6:0.0 
1.0 1:0.548072 2:0.629688 3:0.0 4:0.0836919 5:0.0035708 6:0.00348113 
1.0 1:0.608996 2:0.668651 3:0.0 4:0.0836919 5:0.00363807 6:0.00358299 
1.0 1:0.608273 2:0.659355 3:0.0 4:0.0836919 5:0.00362698 6:0.00358174 
1.0 1:0.69014 2:0.655346 3:0.0 4:0.0836919 5:0.00374198 6:0.00361506 
1.0 1:0.66178 2:0.669645 3:0.0 4:0.0836919 5:0.00370238 6:0.0036525 
1.0 1:0.677972 2:0.663382 3:0.0 4:0.0836919 5:0.00364374 6:0.00363926 
1.0 1:0.69618 2:0.68367 3:0.0 4:0.0836919 5:0.00360247 6:0.00363033 
1.0 1:0.688025 2:0.667628 3:0.0 4:0.0836919 5:0.00363316 6:0.00357595 
1.0 1:0.695082 2:0.681 3:0.0 4:0.0836919 5:0.00369835 6:0.00356825 
1.0 1:0.701282 2:0.682827 3:0.0 4:0.0836919 5:0.00375004 6:0.00360067 
1.0 1:0.35125 2:0.363131 3:1.0 4:0.0836919 5:0.0 6:0.0 
1.0 1:0.381332 2:0.358487 3:1.0 4:0.0836919 5:0.0 6:0.0 
1.0 1:0.693655 2:0.670888 3:0.0 4:0.155057 5:0.0 6:0.0 
1.0 1:0.642908 2:0.66385 3:0.0 4:0.155057 5:0.00348871 6:0.00336602 
1.0 1:0.662886 2:0.665513 3:0.0 4:0.155057 5:0.00349089 6:0.00337001 
1.0 1:0.636081 2:0.678903 3:0.0 4:0.155057 5:0.00346629 6:0.00337891 
1.0 1:0.651928 2:0.679533 3:0.0 4:0.155057 5:0.00345887 6:0.00339338 
1.0 1:0.635575 2:0.683292 3:0.0 4:0.155057 5:0.00345628 6:0.00342459 
1.0 1:0.616612 2:0.65568 3:0.0 4:0.155057 5:0.00356787 6:0.00341354 
1.0 1:0.633084 2:0.649281 3:0.0 4:0.155057 5:0.00352989 6:0.00351356 
1.0 1:0.7067 2:0.65741 3:0.0 4:0.155057 5:0.00351267 6:0.00351341 
1.0 1:0.643024 2:0.646756 3:0.0 4:0.155057 5:0.00350723 6:0.00347443 
1.0 1:0.64792 2:0.660576 3:0.0 4:0.155057 5:0.00349174 6:0.00347124 
1.0 1:0.664747 2:0.67676 3:0.0 4:0.155057 5:0.00349509 6:0.00343839 
1.0 1:0.663373 2:0.657059 3:0.0 4:0.155057 5:0.00352397 6:0.00350521 
1.0 1:0.66397 2:0.666856 3:0.0 4:0.155057 5:0.00349991 6:0.00349694 
1.0 1:0.68272 2:0.666854 3:0.0 4:0.155057 5:0.00349126 6:0.00346692 
1.0 1:0.679109 2:0.659024 3:0.0 4:0.155057 5:0.00347315 6:0.00343474 
1.0 1:0.668094 2:0.660953 3:0.0 4:0.155057 5:0.00347534 6:0.00341835 
1.0 1:0.685426 2:0.670919 3:0.0 4:0.155057 5:0.00346901 6:0.00343766 
1.0 1:0.712684 2:0.670417 3:0.0 4:0.155057 5:0.00347665 6:0.00345724 
1.0 1:0.708984 2:0.669669 3:0.0 4:0.155057 5:0.00346789 6:0.00345422 
1.0 1:0.715336 2:0.668093 3:0.0 4:0.155057 5:0.00345846 6:0.00341086 
1.0 1:0.64075 2:0.666394 3:0.0 4:0.155057 5:0.00345601 6:0.00341688 
1.0 1:0.652825 2:0.656403 3:0.0 4:0.155057 5:0.00347771 6:0.00340588 
1.0 1:0.694119 2:0.655677 3:0.0 4:0.155057 5:0.00343843 6:0.00337048 
1.0 1:0.696584 2:0.654621 3:0.0 4:0.155057 5:0.00345904 6:0.0033787 
1.0 1:0.663199 2:0.675852 3:0.0 4:0.155057 5:0.00347166 6:0.00340763 
1.0 1:0.658509 2:0.661687 3:0.0 4:0.155057 5:0.00346901 6:0.00336859 
1.0 1:0.660015 2:0.648506 3:0.0 4:0.155057 5:0.00344118 6:0.00338285 
1.0 1:0.63441 2:0.662926 3:0.0 4:0.155057 5:0.00344012 6:0.00342335 
1.0 1:0.687043 2:0.66078 3:0.0 4:0.155057 5:0.00343068 6:0.00335822 
1.0 1:0.687507 2:0.682882 3:0.0 4:0.155057 5:0.00341544 6:0.00327662 
1.0 1:0.661913 2:0.684237 3:0.0 4:0.155057 5:0.00340128 6:0.0032276 
1.0 1:0.651798 2:0.673541 3:0.0 4:0.155057 5:0.00340959 6:0.00335072 
1.0 1:0.637367 2:0.667467 3:0.0 4:0.155057 5:0.00339712 6:0.00335936 
1.0 1:0.677484 2:0.655491 3:0.0 4:0.155057 5:0.00338704 6:0.00332264 
1.0 1:0.68001 2:0.652166 3:0.0 4:0.155057 5:0.00340617 6:0.00329607 
1.0 1:0.654523 2:0.655624 3:0.0 4:0.155057 5:0.00342477 6:0.00337162 
1.0 1:0.691574 2:0.657475 3:0.0 4:0.155057 5:0.00328385 6:0.00320508 
1.0 1:0.678618 2:0.651245 3:0.0 4:0.155057 5:0.00330348 6:0.00325265 
1.0 1:0.678109 2:0.671207 3:0.0 4:0.155057 5:0.00334109 6:0.0032462 
1.0 1:0.687564 2:0.65297 3:0.0 4:0.155057 5:0.00327697 6:0.0032217 
1.0 1:0.650101 2:0.647574 3:0.0 4:0.155057 5:0.00332861 6:0.00330051 
1.0 1:0.620939 2:0.649449 3:0.0 4:0.155057 5:0.00333242 6:0.00330603 
1.0 1:0.68 2:0.653796 3:0.0 4:0.155057 5:0.00328991 6:0.00331604 
1.0 1:0.639227 2:0.705519 3:0.0 4:0.155057 5:0.00330387 6:0.00322058 
1.0 1:0.668687 2:0.650174 3:0.0 4:0.155057 5:0.00329575 6:0.00315847 
1.0 1:0.671392 2:0.673787 3:0.0 4:0.155057 5:0.00329586 6:0.00315076 
1.0 1:0.694707 2:0.690949 3:0.0 4:0.155057 5:0.00329809 6:0.00318667 
1.0 1:0.703801 2:0.665027 3:0.0 4:0.155057 5:0.00327347 6:0.00320842 
1.0 1:0.690951 2:0.657281 3:0.0 4:0.155057 5:0.0032719 6:0.00325777 
1.0 1:0.690982 2:0.657225 3:0.0 4:0.155057 5:0.00324944 6:0.00327949 
1.0 1:0.666983 2:0.654245 3:0.0 4:0.155057 5:0.00325286 6:0.0033271 
1.0 1:0.697511 2:0.670199 3:0.0 4:0.155057 5:0.00324398 6:0.0033317 
1.0 1:0.615878 2:0.668848 3:0.0 4:0.155057 5:0.00325153 6:0.00333394 
1.0 1:0.695986 2:0.67625 3:0.0 4:0.155057 5:0.00326333 6:0.00333572 
1.0 1:0.708679 2:0.690736 3:0.0 4:0.155057 5:0.00325833 6:0.0033085 
1.0 1:0.701633 2:0.68179 3:0.0 4:0.155057 5:0.00327706 6:0.00327374 
1.0 1:0.708254 2:0.682273 3:0.0 4:0.155057 5:0.00329219 6:0.00327959 
1.0 1:0.685863 2:0.698869 3:0.0 4:0.155057 5:0.00336282 6:0.00318671 
1.0 1:0.675398 2:0.701505 3:0.0 4:0.155057 5:0.00337262 6:0.00319177 
1.0 1:0.690587 2:0.709116 3:0.0 4:0.155057 5:0.00337433 6:0.00318678 
1.0 1:0.704999 2:0.717401 3:0.0 4:0.155057 5:0.00337819 6:0.00321391 
1.0 1:0.697388 2:0.703879 3:0.0 4:0.155057 5:0.00337634 6:0.00326755 
1.0 1:0.706372 2:0.708253 3:0.0 4:0.155057 5:0.00335511 6:0.00333483 
1.0 1:0.61731 2:0.710197 3:0.0 4:0.155057 5:0.00332989 6:0.00335699 
1.0 1:0.62177 2:0.718471 3:0.0 4:0.155057 5:0.00331489 6:0.00337955 
1.0 1:0.705654 2:0.72239 3:0.0 4:0.155057 5:0.00328136 6:0.00340028 
1.0 1:0.650994 2:0.726274 3:0.0 4:0.155057 5:0.00323456 6:0.00339938 
1.0 1:0.646703 2:0.721345 3:0.0 4:0.155057 5:0.00323821 6:0.00337991 
1.0 1:0.675471 2:0.725093 3:0.0 4:0.155057 5:0.00328224 6:0.00334876 
1.0 1:0.677426 2:0.719754 3:0.0 4:0.155057 5:0.00331451 6:0.00328286 
1.0 1:0.70772 2:0.719469 3:0.0 4:0.155057 5:0.00332548 6:0.00326252 
1.0 1:0.670204 2:0.71962 3:0.0 4:0.155057 5:0.00334391 6:0.00322687 
1.0 1:0.668446 2:0.709196 3:0.0 4:0.155057 5:0.00337087 6:0.00324645 
1.0 1:0.689891 2:0.697809 3:0.0 4:0.155057 5:0.00337657 6:0.00324837 
1.0 1:0.657693 2:0.706638 3:0.0 4:0.155057 5:0.00338273 6:0.00326323 
1.0 1:0.685964 2:0.721042 3:0.0 4:0.155057 5:0.0033686 6:0.0032748 
1.0 1:0.66456 2:0.717921 3:0.0 4:0.155057 5:0.00336071 6:0.00332286 
1.0 1:0.680125 2:0.715841 3:0.0 4:0.155057 5:0.00332811 6:0.00335268 
1.0 1:0.680572 2:0.710924 3:0.0 4:0.155057 5:0.00333025 6:0.00338092 
1.0 1:0.683348 2:0.721205 3:0.0 4:0.155057 5:0.00329388 6:0.00336314 
1.0 1:0.700738 2:0.713413 3:0.0 4:0.155057 5:0.00328447 6:0.00336885 
1.0 1:0.691527 2:0.719461 3:0.0 4:0.155057 5:0.00326176 6:0.00336943 
1.0 1:0.676828 2:0.707443 3:0.0 4:0.155057 5:0.00326569 6:0.00338283 
1.0 1:0.698298 2:0.730209 3:0.0 4:0.155057 5:0.00326248 6:0.00338738 
1.0 1:0.695728 2:0.721845 3:0.0 4:0.155057 5:0.00327148 6:0.00338839 
1.0 1:0.695765 2:0.715006 3:0.0 4:0.155057 5:0.00325351 6:0.003389 
1.0 1:0.69258 2:0.718667 3:0.0 4:0.155057 5:0.00326038 6:0.00339388 
1.0 1:0.685025 2:0.723324 3:0.0 4:0.155057 5:0.00326761 6:0.00339005 
1.0 1:0.692759 2:0.724561 3:0.0 4:0.155057 5:0.00329193 6:0.00339404 
1.0 1:0.682759 2:0.724642 3:0.0 4:0.155057 5:0.00329852 6:0.00338987 
1.0 1:0.686315 2:0.714849 3:0.0 4:0.155057 5:0.00329946 6:0.00338997 
1.0 1:0.690045 2:0.730991 3:0.0 4:0.155057 5:0.00329822 6:0.00338429 
1.0 1:0.698183 2:0.730949 3:0.0 4:0.155057 5:0.00330909 6:0.00338717 
1.0 1:0.643803 2:0.710816 3:0.0 4:0.155057 5:0.00333505 6:0.00332972 
1.0 1:0.701513 2:0.723415 3:0.0 4:0.155057 5:0.00333789 6:0.00327515 
1.0 1:0.704075 2:0.706852 3:0.0 4:0.155057 5:0.003354 6:0.00320251 
1.0 1:0.699547 2:0.70717 3:0.0 4:0.155057 5:0.00336138 6:0.0031862 
1.0 1:0.659917 2:0.706322 3:0.0 4:0.155057 5:0.00337953 6:0.00315582 
1.0 1:0.701925 2:0.700444 3:0.0 4:0.155057 5:0.00335507 6:0.00317887 
1.0 1:0.67843 2:0.713487 3:0.0 4:0.155057 5:0.00334701 6:0.00318751 
1.0 1:0.677575 2:0.715567 3:0.0 4:0.155057 5:0.00329318 6:0.00324635 
1.0 1:0.703782 2:0.718803 3:0.0 4:0.155057 5:0.0032273 6:0.00331158 
1.0 1:0.697111 2:0.707595 3:0.0 4:0.155057 5:0.00321102 6:0.00335861 
1.0 1:0.635011 2:0.698199 3:0.0 4:0.155057 5:0.00321354 6:0.00335379 
1.0 1:0.651701 2:0.705906 3:0.0 4:0.155057 5:0.00323451 6:0.00328006 
1.0 1:0.713978 2:0.718003 3:0.0 4:0.155057 5:0.00321934 6:0.00321538 
1.0 1:0.655541 2:0.723869 3:0.0 4:0.155057 5:0.00328269 6:0.003178 
1.0 1:0.666503 2:0.715658 3:0.0 4:0.155057 5:0.00332847 6:0.00319757 
1.0 1:0.691554 2:0.722795 3:0.0 4:0.155057 5:0.00334924 6:0.00323886 
1.0 1:0.648877 2:0.709815 3:0.0 4:0.155057 5:0.00333716 6:0.00329606 
1.0 1:0.669137 2:0.721936 3:0.0 4:0.155057 5:0.00327168 6:0.00334385 
1.0 1:0.668601 2:0.727011 3:0.0 4:0.155057 5:0.00321137 6:0.00335851 
1.0 1:0.702718 2:0.701077 3:0.0 4:0.155057 5:0.00317217 6:0.0033339 
1.0 1:0.689354 2:0.704538 3:0.0 4:0.155057 5:0.00316277 6:0.00329754 
1.0 1:0.689361 2:0.72111 3:0.0 4:0.155057 5:0.00316378 6:0.00322792 
1.0 1:0.707214 2:0.703785 3:0.0 4:0.155057 5:0.00316804 6:0.00319297 
1.0 1:0.698381 2:0.702525 3:0.0 4:0.155057 5:0.00320142 6:0.00314443 
1.0 1:0.679991 2:0.719153 3:0.0 4:0.155057 5:0.00322314 6:0.0031331 
1.0 1:0.68743 2:0.688651 3:0.0 4:0.155057 5:0.00330354 6:0.00312731 
1.0 1:0.680705 2:0.667245 3:0.0 4:0.155057 5:0.00335167 6:0.0031771 
1.0 1:0.619966 2:0.676801 3:0.0 4:0.155057 5:0.00334713 6:0.00326029 
1.0 1:0.702956 2:0.71626 3:0.0 4:0.155057 5:0.00334774 6:0.00332903 
1.0 1:0.700366 2:0.714938 3:0.0 4:0.155057 5:0.00332238 6:0.00336199 
1.0 1:0.69549 2:0.697954 3:0.0 4:0.155057 5:0.0032927 6:0.00336114 
1.0 1:0.678 2:0.698478 3:0.0 4:0.155057 5:0.00327517 6:0.00336122 
1.0 1:0.705051 2:0.699443 3:0.0 4:0.155057 5:0.00326477 6:0.00336683 
1.0 1:0.685593 2:0.685333 3:0.0 4:0.155057 5:0.00328629 6:0.00336653 
1.0 1:0.702908 2:0.722108 3:0.0 4:0.155057 5:0.00328523 6:0.00336684 
1.0 1:0.711847 2:0.694485 3:0.0 4:0.155057 5:0.0033221 6:0.00337266 
1.0 1:0.691918 2:0.708154 3:0.0 4:0.155057 5:0.00333861 6:0.00334802 
1.0 1:0.710975 2:0.717172 3:0.0 4:0.155057 5:0.0033436 6:0.00331332 
1.0 1:0.707375 2:0.705617 3:0.0 4:0.155057 5:0.0033317 6:0.00327093 
1.0 1:0.667219 2:0.708183 3:0.0 4:0.155057 5:0.00332115 6:0.0032506 
1.0 1:0.686804 2:0.711255 3:0.0 4:0.155057 5:0.00331177 6:0.00323093 
1.0 1:0.698213 2:0.719677 3:0.0 4:0.155057 5:0.00327052 6:0.00320866 
1.0 1:0.715158 2:0.679999 3:0.0 4:0.155057 5:0.00321957 6:0.00319327 
1.0 1:0.639653 2:0.670305 3:0.0 4:0.155057 5:0.00316363 6:0.00314578 
1.0 1:0.665069 2:0.667044 3:0.0 4:0.155057 5:0.00315582 6:0.00314562 
1.0 1:0.657886 2:0.69041 3:0.0 4:0.155057 5:0.00314655 6:0.00314657 
1.0 1:0.659377 2:0.691809 3:0.0 4:0.155057 5:0.00316524 6:0.00318089 
1.0 1:0.655132 2:0.672791 3:0.0 4:0.155057 5:0.00323188 6:0.00322925 
1.0 1:0.666376 2:0.720605 3:0.0 4:0.155057 5:0.00328214 6:0.00330039 
1.0 1:0.668184 2:0.712507 3:0.0 4:0.155057 5:0.00327916 6:0.0033421 
1.0 1:0.649187 2:0.702887 3:0.0 4:0.155057 5:0.00317046 6:0.00325274 
1.0 1:0.64885 2:0.67305 3:0.0 4:0.155057 5:0.0032358 6:0.00324173 
1.0 1:0.648046 2:0.705289 3:0.0 4:0.155057 5:0.00327199 6:0.00331017 
1.0 1:0.685194 2:0.688624 3:0.0 4:0.155057 5:0.0032821 6:0.00328948 
1.0 1:0.686018 2:0.681059 3:0.0 4:0.155057 5:0.00322721 6:0.00322058 
1.0 1:0.661562 2:0.686346 3:0.0 4:0.155057 5:0.00322265 6:0.00317004 
1.0 1:0.628931 2:0.685483 3:0.0 4:0.155057 5:0.00328264 6:0.00324092 
1.0 1:0.611282 2:0.673149 3:0.0 4:0.155057 5:0.00330299 6:0.00330832 
1.0 1:0.67746 2:0.682483 3:0.0 4:0.155057 5:0.00328501 6:0.00328664 
1.0 1:0.545729 2:0.668855 3:0.0 4:0.155057 5:0.00321759 6:0.0032331 
1.0 1:0.606317 2:0.662085 3:0.0 4:0.155057 5:0.00322544 6:0.00321405 
1.0 1:0.625522 2:0.668099 3:0.0 4:0.155057 5:0.00314989 6:0.00319622 
1.0 1:0.661593 2:0.655367 3:0.0 4:0.155057 5:0.00323055 6:0.00327197 
1.0 1:0.660323 2:0.652281 3:0.0 4:0.155057 5:0.00323202 6:0.00326952 
1.0 1:0.662027 2:0.666066 3:0.0 4:0.155057 5:0.00323546 6:0.00323259 
1.0 1:0.636298 2:0.679357 3:0.0 4:0.155057 5:0.0031554 6:0.00321912 
1.0 1:0.628867 2:0.679793 3:0.0 4:0.155057 5:0.00322281 6:0.00323866 
1.0 1:0.700143 2:0.691092 3:0.0 4:0.155057 5:0.0032219 6:0.00321681 
1.0 1:0.635195 2:0.6739 3:0.0 4:0.155057 5:0.00323327 6:0.00316804 
1.0 1:0.655429 2:0.690467 3:0.0 4:0.155057 5:0.00320948 6:0.00322276 
1.0 1:0.641875 2:0.690486 3:0.0 4:0.155057 5:0.00323905 6:0.00323769 
1.0 1:0.649012 2:0.710879 3:0.0 4:0.155057 5:0.00322337 6:0.00324016 
1.0 1:0.627185 2:0.701158 3:0.0 4:0.155057 5:0.00326125 6:0.00334154 
1.0 1:0.658625 2:0.704952 3:0.0 4:0.155057 5:0.00328772 6:0.00330653 
1.0 1:0.658404 2:0.717635 3:0.0 4:0.155057 5:0.00325996 6:0.00324956 
1.0 1:0.647136 2:0.69075 3:0.0 4:0.155057 5:0.00319163 6:0.00322018 
1.0 1:0.697514 2:0.683779 3:0.0 4:0.155057 5:0.00334091 6:0.00336651 
1.0 1:0.661974 2:0.701909 3:0.0 4:0.155057 5:0.0033862 6:0.00328038 
1.0 1:0.692513 2:0.694521 3:0.0 4:0.155057 5:0.00337817 6:0.00326434 
1.0 1:0.67157 2:0.665875 3:0.0 4:0.155057 5:0.00335289 6:0.00321483 
1.0 1:0.697842 2:0.673598 3:0.0 4:0.155057 5:0.0032988 6:0.00318211 
1.0 1:0.670086 2:0.674914 3:0.0 4:0.155057 5:0.00325805 6:0.00317858 
1.0 1:0.646073 2:0.689324 3:0.0 4:0.155057 5:0.00322835 6:0.00317791 
1.0 1:0.694126 2:0.693584 3:0.0 4:0.155057 5:0.00325935 6:0.00317923 
1.0 1:0.6817 2:0.690847 3:0.0 4:0.155057 5:0.00331062 6:0.00318304 
1.0 1:0.688817 2:0.687636 3:0.0 4:0.155057 5:0.00332613 6:0.00318876 
1.0 1:0.673617 2:0.683064 3:0.0 4:0.155057 5:0.00335532 6:0.00325805 
1.0 1:0.63386 2:0.678785 3:0.0 4:0.155057 5:0.00333605 6:0.00326683 
1.0 1:0.712264 2:0.684054 3:0.0 4:0.155057 5:0.00329857 6:0.00324713 
1.0 1:0.644006 2:0.70266 3:0.0 4:0.155057 5:0.00332637 6:0.00320952 
1.0 1:0.650889 2:0.708697 3:0.0 4:0.155057 5:0.00331698 6:0.00328589 
1.0 1:0.701927 2:0.704239 3:0.0 4:0.155057 5:0.00327376 6:0.00329348 
1.0 1:0.648968 2:0.714507 3:0.0 4:0.155057 5:0.00326901 6:0.00326401 
1.0 1:0.726965 2:0.712686 3:0.0 4:0.155057 5:0.00330056 6:0.00325851 
1.0 1:0.639745 2:0.707226 3:0.0 4:0.155057 5:0.00331435 6:0.0032399 
1.0 1:0.649616 2:0.707024 3:0.0 4:0.155057 5:0.00328331 6:0.00329398 
1.0 1:0.668997 2:0.719206 3:0.0 4:0.155057 5:0.00322102 6:0.00332031 
1.0 1:0.688398 2:0.709511 3:0.0 4:0.155057 5:0.00323965 6:0.00326214 
1.0 1:0.686988 2:0.731392 3:0.0 4:0.155057 5:0.00331243 6:0.00319266 
1.0 1:0.677744 2:0.725475 3:0.0 4:0.155057 5:0.00333403 6:0.00323344 
1.0 1:0.680431 2:0.728293 3:0.0 4:0.155057 5:0.00327702 6:0.00330107 
1.0 1:0.655993 2:0.723226 3:0.0 4:0.155057 5:0.00321035 6:0.00326245 
1.0 1:0.656067 2:0.710833 3:0.0 4:0.155057 5:0.00328164 6:0.00321867 
1.0 1:0.678742 2:0.686498 3:0.0 4:0.155057 5:0.0033354 6:0.00321697 
1.0 1:0.654328 2:0.703496 3:0.0 4:0.155057 5:0.00332473 6:0.00329662 
1.0 1:0.613758 2:0.712824 3:0.0 4:0.155057 5:0.00325054 6:0.00334402 
1.0 1:0.669305 2:0.666551 3:0.0 4:0.155057 5:0.00317354 6:0.0033655 
1.0 1:0.683291 2:0.681619 3:0.0 4:0.155057 5:0.00322913 6:0.00330316 
1.0 1:0.672503 2:0.684838 3:0.0 4:0.155057 5:0.00322891 6:0.00332135 
1.0 1:0.616846 2:0.6924 3:0.0 4:0.155057 5:0.0032515 6:0.00333816 
1.0 1:0.684176 2:0.675994 3:0.0 4:0.155057 5:0.00329274 6:0.00335796 
1.0 1:0.695188 2:0.692948 3:0.0 4:0.155057 5:0.00334669 6:0.00336145 
1.0 1:0.708757 2:0.686602 3:0.0 4:0.155057 5:0.00333266 6:0.00329793 
1.0 1:0.615874 2:0.666021 3:0.0 4:0.155057 5:0.00330822 6:0.00320517 
1.0 1:0.657927 2:0.672617 3:0.0 4:0.155057 5:0.0033233 6:0.0031413 
1.0 1:0.659407 2:0.688956 3:0.0 4:0.155057 5:0.00333096 6:0.00312434 
1.0 1:0.608608 2:0.706812 3:0.0 4:0.155057 5:0.00317534 6:0.00315855 
1.0 1:0.681407 2:0.725269 3:0.0 4:0.155057 5:0.0031621 6:0.00324296 
1.0 1:0.628134 2:0.707398 3:0.0 4:0.155057 5:0.00322703 6:0.00331243 
1.0 1:0.61504 2:0.690943 3:0.0 4:0.155057 5:0.00333842 6:0.00332033 
1.0 1:0.627639 2:0.68712 3:0.0 4:0.155057 5:0.00343527 6:0.0033904 
1.0 1:0.649526 2:0.648508 3:0.0 4:0.155057 5:0.00339223 6:0.00327071 
1.0 1:0.648304 2:0.652928 3:0.0 4:0.155057 5:0.00337125 6:0.00335268 
1.0 1:0.669751 2:0.650238 3:0.0 4:0.155057 5:0.00334184 6:0.00326095 
1.0 1:0.656497 2:0.652 3:0.0 4:0.155057 5:0.00338054 6:0.00324536 
1.0 1:0.72399 2:0.656711 3:0.0 4:0.155057 5:0.00332598 6:0.00334751 
1.0 1:0.722029 2:0.673115 3:0.0 4:0.155057 5:0.00328922 6:0.00328947 
1.0 1:0.732052 2:0.682172 3:0.0 4:0.155057 5:0.00332081 6:0.0032078 
1.0 1:0.724328 2:0.667764 3:0.0 4:0.155057 5:0.00336862 6:0.00319762 
1.0 1:0.712234 2:0.663611 3:0.0 4:0.155057 5:0.00337294 6:0.0032459 
1.0 1:0.688819 2:0.65299 3:0.0 4:0.155057 5:0.00331639 6:0.00333279 
1.0 1:0.626508 2:0.651549 3:0.0 4:0.155057 5:0.0 6:0.0 
1.0 1:0.687572 2:0.668053 3:0.0 4:0.155057 5:0.00314522 6:0.00322054 
1.0 1:0.685392 2:0.674302 3:0.0 4:0.155057 5:0.00321545 6:0.00320288 
1.0 1:0.679143 2:0.665485 3:0.0 4:0.155057 5:0.00313797 6:0.00316266 
1.0 1:0.705741 2:0.67038 3:0.0 4:0.155057 5:0.00314481 6:0.00314397 
1.0 1:0.691642 2:0.685846 3:0.0 4:0.155057 5:0.00309305 6:0.00313718 
1.0 1:0.6935 2:0.671004 3:0.0 4:0.155057 5:0.00311292 6:0.00310831 
1.0 1:0.673356 2:0.659438 3:0.0 4:0.155057 5:0.00316009 6:0.0030744 
1.0 1:0.652797 2:0.678643 3:0.0 4:0.155057 5:0.0031538 6:0.00305598 
1.0 1:0.694379 2:0.67293 3:0.0 4:0.155057 5:0.0031197 6:0.00307662 
1.0 1:0.65917 2:0.695791 3:0.0 4:0.155057 5:0.00311064 6:0.0030773 
1.0 1:0.635578 2:0.652994 3:0.0 4:0.155057 5:0.00317696 6:0.00312981 
1.0 1:0.644495 2:0.673427 3:0.0 4:0.155057 5:0.00320957 6:0.00319206 
1.0 1:0.633654 2:0.679708 3:0.0 4:0.155057 5:0.00322614 6:0.00325178 
1.0 1:0.617417 2:0.670681 3:0.0 4:0.155057 5:0.00312086 6:0.00331831 
1.0 1:0.641799 2:0.675011 3:0.0 4:0.155057 5:0.00311622 6:0.00332129 
1.0 1:0.655591 2:0.678473 3:0.0 4:0.155057 5:0.00310678 6:0.00329789 
1.0 1:0.664169 2:0.666511 3:0.0 4:0.155057 5:0.00310228 6:0.00330764 
1.0 1:0.636774 2:0.679734 3:0.0 4:0.155057 5:0.00310188 6:0.00329886 
1.0 1:0.667689 2:0.683359 3:0.0 4:0.155057 5:0.00310377 6:0.00330166 
1.0 1:0.644097 2:0.685139 3:0.0 4:0.155057 5:0.00309082 6:0.003301 
1.0 1:0.660957 2:0.676745 3:0.0 4:0.155057 5:0.00309154 6:0.00330873 
1.0 1:0.6519 2:0.673425 3:0.0 4:0.155057 5:0.00310272 6:0.00329453 
1.0 1:0.649583 2:0.70855 3:0.0 4:0.155057 5:0.00311032 6:0.00328796 
1.0 1:0.659484 2:0.702595 3:0.0 4:0.155057 5:0.00309582 6:0.00325853 
1.0 1:0.674783 2:0.706931 3:0.0 4:0.155057 5:0.00309233 6:0.00324027 
1.0 1:0.667978 2:0.702805 3:0.0 4:0.155057 5:0.00312082 6:0.00323484 
1.0 1:0.68898 2:0.700789 3:0.0 4:0.155057 5:0.00316839 6:0.00321454 
1.0 1:0.691011 2:0.694642 3:0.0 4:0.155057 5:0.00322103 6:0.0031723 
1.0 1:0.727958 2:0.694152 3:0.0 4:0.155057 5:0.00326832 6:0.00318917 
1.0 1:0.723151 2:0.700261 3:0.0 4:0.155057 5:0.0033131 6:0.00318539 
1.0 1:0.719921 2:0.702312 3:0.0 4:0.155057 5:0.00332797 6:0.00322831 
1.0 1:0.668537 2:0.678448 3:0.0 4:0.155057 5:0.00326029 6:0.00324002 
1.0 1:0.629512 2:0.691136 3:0.0 4:0.155057 5:0.00336362 6:0.00327872 
1.0 1:0.66777 2:0.685939 3:0.0 4:0.155057 5:0.00335482 6:0.0032978 
1.0 1:0.616743 2:0.695644 3:0.0 4:0.155057 5:0.00337348 6:0.00332119 
1.0 1:0.63167 2:0.688881 3:0.0 4:0.155057 5:0.0033715 6:0.00333894 
1.0 1:0.654251 2:0.698136 3:0.0 4:0.155057 5:0.00336809 6:0.00331517 
1.0 1:0.639075 2:0.686583 3:0.0 4:0.155057 5:0.0033458 6:0.00331782 
1.0 1:0.676175 2:0.694812 3:0.0 4:0.155057 5:0.00332199 6:0.00329352 
1.0 1:0.654947 2:0.686429 3:0.0 4:0.155057 5:0.00328254 6:0.00324163 
1.0 1:0.660622 2:0.693618 3:0.0 4:0.155057 5:0.00323339 6:0.00318147 
1.0 1:0.664607 2:0.703969 3:0.0 4:0.155057 5:0.00317857 6:0.00312326 
1.0 1:0.7021 2:0.705046 3:0.0 4:0.155057 5:0.00312675 6:0.00311171 
1.0 1:0.660999 2:0.687527 3:0.0 4:0.155057 5:0.00312964 6:0.00311424 
1.0 1:0.697408 2:0.6932 3:0.0 4:0.155057 5:0.00319323 6:0.003157 
1.0 1:0.716634 2:0.670914 3:0.0 4:0.155057 5:0.00321452 6:0.00317847 
1.0 1:0.645789 2:0.689405 3:0.0 4:0.155057 5:0.003264 6:0.00325909 
1.0 1:0.706278 2:0.714061 3:0.0 4:0.155057 5:0.0 6:0.0 
1.0 1:0.709777 2:0.708922 3:0.0 4:0.155057 5:0.00320195 6:0.00330873 
1.0 1:0.720839 2:0.707511 3:0.0 4:0.155057 5:0.00334509 6:0.00332666 
1.0 1:0.715386 2:0.728219 3:0.0 4:0.155057 5:0.00334189 6:0.00333441 
1.0 1:0.647133 2:0.708215 3:0.0 4:0.155057 5:0.00320347 6:0.00333756 
1.0 1:0.633467 2:0.724978 3:0.0 4:0.155057 5:0.00317621 6:0.00334944 
1.0 1:0.668449 2:0.734441 3:0.0 4:0.155057 5:0.00317009 6:0.00336534 
1.0 1:0.690806 2:0.658127 3:0.0 4:0.155057 5:0.00315895 6:0.00336679 
1.0 1:0.683661 2:0.662629 3:0.0 4:0.155057 5:0.00318768 6:0.00336309 
1.0 1:0.679057 2:0.675357 3:0.0 4:0.155057 5:0.00321418 6:0.00336496 
1.0 1:0.695346 2:0.67908 3:0.0 4:0.155057 5:0.00327547 6:0.00335644 
1.0 1:0.707428 2:0.686826 3:0.0 4:0.155057 5:0.00332711 6:0.00333477 
1.0 1:0.68944 2:0.676598 3:0.0 4:0.155057 5:0.00337172 6:0.00337851 
1.0 1:0.653406 2:0.69091 3:0.0 4:0.155057 5:0.00348857 6:0.00354604 
1.0 1:0.658789 2:0.695937 3:0.0 4:0.155057 5:0.00360791 6:0.0035099 
1.0 1:0.58992 2:0.682454 3:0.0 4:0.155057 5:0.00334859 6:0.00333286 
1.0 1:0.566769 2:0.685662 3:0.0 4:0.155057 5:0.00328062 6:0.00332522 
1.0 1:0.5852 2:0.684389 3:0.0 4:0.155057 5:0.00331665 6:0.00336837 
1.0 1:0.618738 2:0.67923 3:0.0 4:0.155057 5:0.00330922 6:0.0033471 
1.0 1:0.631144 2:0.69272 3:0.0 4:0.155057 5:0.00330956 6:0.00331415 
1.0 1:0.7009 2:0.715308 3:0.0 4:0.155057 5:0.00331969 6:0.00330996 
1.0 1:0.578103 2:0.699208 3:0.0 4:0.155057 5:0.00331616 6:0.00331776 
1.0 1:0.697641 2:0.721248 3:0.0 4:0.155057 5:0.00325953 6:0.00337455 
1.0 1:0.656292 2:0.720364 3:0.0 4:0.155057 5:0.00318736 6:0.00335407 
1.0 1:0.632762 2:0.71911 3:0.0 4:0.155057 5:0.0032445 6:0.00329054 
1.0 1:0.668553 2:0.713557 3:0.0 4:0.155057 5:0.00329604 6:0.00328633 
1.0 1:0.672374 2:0.719776 3:0.0 4:0.155057 5:0.0032861 6:0.00331055 
1.0 1:0.560451 2:0.704822 3:0.0 4:0.155057 5:0.00324293 6:0.0033656 
1.0 1:0.699924 2:0.738105 3:0.0 4:0.155057 5:0.00323437 6:0.00334303 
1.0 1:0.738969 2:0.735479 3:0.0 4:0.155057 5:0.0032799 6:0.00327868 
1.0 1:0.686685 2:0.733801 3:0.0 4:0.155057 5:0.00331419 6:0.00323145 
1.0 1:0.707461 2:0.666332 3:0.0 4:0.155057 5:0.00329387 6:0.00326416 
1.0 1:0.57147 2:0.64236 3:0.0 4:0.155057 5:0.00326217 6:0.0 
1.0 1:0.609417 2:0.667725 3:0.0 4:0.155057 5:0.00330403 6:0.00324399 
1.0 1:0.650239 2:0.685366 3:0.0 4:0.155057 5:0.00337499 6:0.00330996 
1.0 1:0.660469 2:0.690532 3:0.0 4:0.155057 5:0.00337512 6:0.00335134 
1.0 1:0.656578 2:0.719987 3:0.0 4:0.155057 5:0.00337159 6:0.00336006 
1.0 1:0.657043 2:0.65265 3:0.0 4:0.155057 5:0.0033728 6:0.00335826 
1.0 1:0.629097 2:0.726462 3:0.0 4:0.155057 5:0.00337214 6:0.0033534 
1.0 1:0.710473 2:0.730573 3:0.0 4:0.155057 5:0.00338098 6:0.00335637 
1.0 1:0.577954 2:0.648236 3:0.0 4:0.155057 5:0.00335287 6:0.00337486 
1.0 1:0.639737 2:0.652928 3:0.0 4:0.155057 5:0.00333151 6:0.00337476 
1.0 1:0.657438 2:0.675255 3:0.0 4:0.155057 5:0.00334605 6:0.00337158 
1.0 1:0.638337 2:0.722359 3:0.0 4:0.155057 5:0.00337453 6:0.0033606 
1.0 1:0.648905 2:0.728941 3:0.0 4:0.155057 5:0.00338925 6:0.00336778 
1.0 1:0.682191 2:0.729735 3:0.0 4:0.155057 5:0.0033453 6:0.00336797 
1.0 1:0.665688 2:0.724061 3:0.0 4:0.155057 5:0.0033555 6:0.00337367 
1.0 1:0.664713 2:0.702417 3:0.0 4:0.155057 5:0.00337987 6:0.00337837 
1.0 1:0.627425 2:0.746248 3:0.0 4:0.155057 5:0.00341174 6:0.00339384 
1.0 1:0.620027 2:0.67587 3:0.0 4:0.155057 5:0.00340921 6:0.00339013 
1.0 1:0.668248 2:0.756078 3:0.0 4:0.155057 5:0.0034175 6:0.00338183 
1.0 1:0.6732 2:0.684897 3:0.0 4:0.155057 5:0.00343643 6:0.00337915 
1.0 1:0.722516 2:0.67963 3:0.0 4:0.155057 5:0.00345279 6:0.00337269 
1.0 1:0.717306 2:0.675582 3:0.0 4:0.155057 5:0.00346136 6:0.00336775 
1.0 1:0.726822 2:0.685553 3:0.0 4:0.155057 5:0.00346262 6:0.00337581 
1.0 1:0.720717 2:0.700043 3:0.0 4:0.155057 5:0.00345374 6:0.00337222 
1.0 1:0.718931 2:0.712188 3:0.0 4:0.155057 5:0.00345255 6:0.00331614 
1.0 1:0.72834 2:0.704949 3:0.0 4:0.155057 5:0.00344887 6:0.00329374 
1.0 1:0.719111 2:0.725892 3:0.0 4:0.155057 5:0.00344547 6:0.00331437 
1.0 1:0.680645 2:0.690572 3:0.0 4:0.155057 5:0.00342647 6:0.00331063 
1.0 1:0.653135 2:0.651627 3:0.0 4:0.155057 5:0.00341874 6:0.00327875 
1.0 1:0.495161 2:0.48797 3:1.0 4:0.155057 5:0.0 6:0.0 
1.0 1:0.495809 2:0.488569 3:1.0 4:0.155057 5:0.0 6:0.0 
1.0 1:0.635659 2:0.697528 3:0.0 4:0.137843 5:0.00338004 6:0.00315469 
1.0 1:0.679619 2:0.723005 3:0.0 4:0.137843 5:0.00337436 6:0.00310214 
1.0 1:0.676839 2:0.726027 3:0.0 4:0.137843 5:0.00337159 6:0.00314601 
1.0 1:0.627907 2:0.753904 3:0.0 4:0.137843 5:0.00335257 6:0.00317498 
1.0 1:0.626652 2:0.74192 3:0.0 4:0.137843 5:0.00335613 6:0.00324584 
1.0 1:0.604482 2:0.749953 3:0.0 4:0.137843 5:0.00337598 6:0.00324309 
1.0 1:0.645507 2:0.750701 3:0.0 4:0.137843 5:0.00339551 6:0.00329183 
1.0 1:0.625047 2:0.760918 3:0.0 4:0.137843 5:0.00341256 6:0.00326778 
1.0 1:0.673141 2:0.737449 3:0.0 4:0.137843 5:0.0034203 6:0.00330715 
1.0 1:0.630439 2:0.766657 3:0.0 4:0.137843 5:0.0034215 6:0.00331965 
1.0 1:0.692635 2:0.66596 3:0.0 4:0.137843 5:0.00342156 6:0.00334482 
1.0 1:0.652004 2:0.676049 3:0.0 4:0.137843 5:0.00344966 6:0.00332193 
1.0 1:0.697439 2:0.669724 3:0.0 4:0.137843 5:0.00345731 6:0.00329964 
1.0 1:0.69735 2:0.69055 3:0.0 4:0.137843 5:0.00346281 6:0.0032903 
1.0 1:0.705072 2:0.679873 3:0.0 4:0.137843 5:0.00343696 6:0.00329514 
1.0 1:0.70755 2:0.674415 3:0.0 4:0.137843 5:0.00342747 6:0.00328967 
1.0 1:0.724595 2:0.693257 3:0.0 4:0.137843 5:0.00343118 6:0.00327394 
1.0 1:0.719406 2:0.689922 3:0.0 4:0.137843 5:0.00344312 6:0.00325715 
1.0 1:0.725394 2:0.684513 3:0.0 4:0.137843 5:0.0034537 6:0.00326378 
1.0 1:0.730102 2:0.702543 3:0.0 4:0.137843 5:0.0034515 6:0.00330725 
1.0 1:0.745847 2:0.704153 3:0.0 4:0.137843 5:0.00344908 6:0.00335791 
1.0 1:0.732466 2:0.710096 3:0.0 4:0.137843 5:0.00344976 6:0.00337935 
1.0 1:0.735753 2:0.700857 3:0.0 4:0.137843 5:0.00344727 6:0.00338677 
1.0 1:0.726659 2:0.707658 3:0.0 4:0.137843 5:0.00344949 6:0.00338879 
1.0 1:0.719477 2:0.716597 3:0.0 4:0.137843 5:0.00346202 6:0.00339285 
1.0 1:0.732328 2:0.726637 3:0.0 4:0.137843 5:0.00347739 6:0.00339683 
1.0 1:0.719815 2:0.721259 3:0.0 4:0.137843 5:0.0034975 6:0.00340172 
1.0 1:0.747312 2:0.726085 3:0.0 4:0.137843 5:0.00351076 6:0.00340685 
1.0 1:0.748029 2:0.728206 3:0.0 4:0.137843 5:0.00353966 6:0.00339127 
1.0 1:0.741879 2:0.731366 3:0.0 4:0.137843 5:0.00354524 6:0.00337175 
1.0 1:0.746893 2:0.72843 3:0.0 4:0.137843 5:0.00354129 6:0.00335961 
1.0 1:0.74543 2:0.72348 3:0.0 4:0.137843 5:0.003492 6:0.0033271 
1.0 1:0.745778 2:0.717704 3:0.0 4:0.137843 5:0.00346644 6:0.00333406 
1.0 1:0.734585 2:0.726317 3:0.0 4:0.137843 5:0.00344581 6:0.00330918 
1.0 1:0.742845 2:0.737855 3:0.0 4:0.137843 5:0.00344394 6:0.00326875 
1.0 1:0.731843 2:0.736687 3:0.0 4:0.137843 5:0.00344374 6:0.00323667 
1.0 1:0.745101 2:0.733082 3:0.0 4:0.137843 5:0.00344093 6:0.00321922 
1.0 1:0.747876 2:0.750317 3:0.0 4:0.137843 5:0.00343541 6:0.00325279 
1.0 1:0.735278 2:0.723979 3:0.0 4:0.137843 5:0.00343426 6:0.00329991 
1.0 1:0.731364 2:0.741479 3:0.0 4:0.137843 5:0.00343112 6:0.00334267 
1.0 1:0.734939 2:0.741101 3:0.0 4:0.137843 5:0.00343079 6:0.00332918 
1.0 1:0.740358 2:0.745928 3:0.0 4:0.137843 5:0.00342797 6:0.00331519 
1.0 1:0.664944 2:0.746802 3:0.0 4:0.137843 5:0.00342939 6:0.00332635 
1.0 1:0.694258 2:0.732523 3:0.0 4:0.137843 5:0.0034257 6:0.00336371 
1.0 1:0.673679 2:0.743365 3:0.0 4:0.137843 5:0.00341773 6:0.00336637 
1.0 1:0.688708 2:0.748158 3:0.0 4:0.137843 5:0.00341511 6:0.00336113 
1.0 1:0.739228 2:0.714268 3:0.0 4:0.137843 5:0.0034136 6:0.00335225 
1.0 1:0.743494 2:0.745236 3:0.0 4:0.137843 5:0.00341354 6:0.00334696 
1.0 1:0.732629 2:0.749259 3:0.0 4:0.137843 5:0.00340255 6:0.00334343 
1.0 1:0.750315 2:0.696963 3:0.0 4:0.137843 5:0.00339139 6:0.00330021 
1.0 1:0.680267 2:0.743712 3:0.0 4:0.137843 5:0.00339707 6:0.00326782 
1.0 1:0.702214 2:0.703175 3:0.0 4:0.137843 5:0.00340355 6:0.00322135 
1.0 1:0.746061 2:0.707653 3:0.0 4:0.137843 5:0.00341054 6:0.00321147 
1.0 1:0.746057 2:0.700276 3:0.0 4:0.137843 5:0.00340616 6:0.00317505 
1.0 1:0.738921 2:0.742997 3:0.0 4:0.137843 5:0.00338743 6:0.00315571 
1.0 1:0.727497 2:0.715122 3:0.0 4:0.137843 5:0.00337753 6:0.00315538 
1.0 1:0.728242 2:0.730063 3:0.0 4:0.137843 5:0.00334306 6:0.00324417 
1.0 1:0.731757 2:0.73823 3:0.0 4:0.137843 5:0.00330524 6:0.00330651 
1.0 1:0.723216 2:0.715117 3:0.0 4:0.137843 5:0.00326674 6:0.00332508 
1.0 1:0.636425 2:0.697595 3:0.0 4:0.137843 5:0.00327882 6:0.0033138 
1.0 1:0.681819 2:0.682181 3:0.0 4:0.137843 5:0.0 6:0.0 
1.0 1:0.701979 2:0.675911 3:0.0 4:0.137843 5:0.00318667 6:0.00329271 
1.0 1:0.698818 2:0.697396 3:0.0 4:0.137843 5:0.00324319 6:0.00327725 
1.0 1:0.705747 2:0.703081 3:0.0 4:0.137843 5:0.00328438 6:0.00323149 
1.0 1:0.73464 2:0.718225 3:0.0 4:0.137843 5:0.00332906 6:0.00317729 
1.0 1:0.743044 2:0.71876 3:0.0 4:0.137843 5:0.00334154 6:0.00316116 
1.0 1:0.658375 2:0.722692 3:0.0 4:0.137843 5:0.0033702 6:0.0031659 
1.0 1:0.637629 2:0.733624 3:0.0 4:0.137843 5:0.00337051 6:0.00315428 
1.0 1:0.605011 2:0.725073 3:0.0 4:0.137843 5:0.00337275 6:0.00315998 
1.0 1:0.660795 2:0.737246 3:0.0 4:0.137843 5:0.00335146 6:0.0031595 
1.0 1:0.649901 2:0.747708 3:0.0 4:0.137843 5:0.00330053 6:0.00318628 
1.0 1:0.700729 2:0.740808 3:0.0 4:0.137843 5:0.00324686 6:0.00324122 
1.0 1:0.700343 2:0.711578 3:0.0 4:0.137843 5:0.00319613 6:0.00324285 
1.0 1:0.713521 2:0.710616 3:0.0 4:0.137843 5:0.00318001 6:0.00328752 
1.0 1:0.707565 2:0.714917 3:0.0 4:0.137843 5:0.00316883 6:0.00329253 
1.0 1:0.704333 2:0.748474 3:0.0 4:0.137843 5:0.00324136 6:0.00335663 
1.0 1:0.71051 2:0.740569 3:0.0 4:0.137843 5:0.00330415 6:0.0033607 
1.0 1:0.726167 2:0.742465 3:0.0 4:0.137843 5:0.00336107 6:0.00335294 
1.0 1:0.714466 2:0.747167 3:0.0 4:0.137843 5:0.00335853 6:0.00333349 
1.0 1:0.721815 2:0.730617 3:0.0 4:0.137843 5:0.00335579 6:0.00330148 
1.0 1:0.727427 2:0.731747 3:0.0 4:0.137843 5:0.00335204 6:0.00328482 
1.0 1:0.641647 2:0.738111 3:0.0 4:0.137843 5:0.00336431 6:0.00326687 
1.0 1:0.736422 2:0.735936 3:0.0 4:0.137843 5:0.00335619 6:0.00322346 
1.0 1:0.718116 2:0.741957 3:0.0 4:0.137843 5:0.00335865 6:0.00317987 
1.0 1:0.743512 2:0.73498 3:0.0 4:0.137843 5:0.00335872 6:0.00315565 
1.0 1:0.739145 2:0.749431 3:0.0 4:0.137843 5:0.0033615 6:0.00316061 
1.0 1:0.738924 2:0.753962 3:0.0 4:0.137843 5:0.00336904 6:0.00318502 
1.0 1:0.72832 2:0.742757 3:0.0 4:0.137843 5:0.00336202 6:0.00320096 
1.0 1:0.730561 2:0.7426 3:0.0 4:0.137843 5:0.003365 6:0.00321093 
1.0 1:0.745503 2:0.740413 3:0.0 4:0.137843 5:0.00337134 6:0.0031871 
1.0 1:0.752796 2:0.758886 3:0.0 4:0.137843 5:0.00336576 6:0.00318171 
1.0 1:0.754078 2:0.756748 3:0.0 4:0.137843 5:0.00337283 6:0.00318475 
1.0 1:0.746888 2:0.758087 3:0.0 4:0.137843 5:0.00337115 6:0.00318689 
1.0 1:0.75242 2:0.756358 3:0.0 4:0.137843 5:0.00337005 6:0.00321254 
1.0 1:0.746696 2:0.76627 3:0.0 4:0.137843 5:0.00337223 6:0.00324844 
1.0 1:0.754725 2:0.767072 3:0.0 4:0.137843 5:0.00335467 6:0.0032786 
1.0 1:0.757681 2:0.751873 3:0.0 4:0.137843 5:0.00336444 6:0.00324718 
1.0 1:0.741095 2:0.757907 3:0.0 4:0.137843 5:0.00336188 6:0.0032142 
1.0 1:0.687571 2:0.734514 3:0.0 4:0.137843 5:0.00336728 6:0.00323835 
1.0 1:0.692861 2:0.766274 3:0.0 4:0.137843 5:0.00336522 6:0.00321101 
1.0 1:0.725102 2:0.764434 3:0.0 4:0.137843 5:0.00336515 6:0.00318691 
1.0 1:0.744673 2:0.759811 3:0.0 4:0.137843 5:0.00337688 6:0.00313656 
1.0 1:0.768088 2:0.749874 3:0.0 4:0.137843 5:0.00337643 6:0.00314001 
1.0 1:0.730093 2:0.757608 3:0.0 4:0.137843 5:0.0033299 6:0.0031653 
1.0 1:0.71727 2:0.746152 3:0.0 4:0.137843 5:0.00330573 6:0.00323222 
1.0 1:0.726844 2:0.75223 3:0.0 4:0.137843 5:0.00330279 6:0.00328191 
1.0 1:0.660739 2:0.765699 3:0.0 4:0.137843 5:0.00326971 6:0.0032546 
1.0 1:0.692506 2:0.753694 3:0.0 4:0.137843 5:0.00327452 6:0.00319426 
1.0 1:0.68402 2:0.765668 3:0.0 4:0.137843 5:0.00328139 6:0.00317115 
1.0 1:0.692684 2:0.755629 3:0.0 4:0.137843 5:0.00328104 6:0.00321072 
1.0 1:0.726905 2:0.728342 3:0.0 4:0.137843 5:0.00324773 6:0.00322598 
1.0 1:0.750594 2:0.750665 3:0.0 4:0.137843 5:0.00319294 6:0.00323937 
1.0 1:0.739752 2:0.764585 3:0.0 4:0.137843 5:0.00323787 6:0.00318795 
1.0 1:0.738336 2:0.753702 3:0.0 4:0.137843 5:0.00331191 6:0.00319116 
1.0 1:0.741156 2:0.754304 3:0.0 4:0.137843 5:0.00335571 6:0.00318957 
1.0 1:0.733835 2:0.743386 3:0.0 4:0.137843 5:0.00330572 6:0.00326292 
1.0 1:0.692667 2:0.751979 3:0.0 4:0.137843 5:0.00323594 6:0.00331638 
1.0 1:0.724035 2:0.755524 3:0.0 4:0.137843 5:0.00316826 6:0.00326024 
1.0 1:0.75201 2:0.763526 3:0.0 4:0.137843 5:0.0031442 6:0.00319077 
1.0 1:0.711958 2:0.767692 3:0.0 4:0.137843 5:0.00322106 6:0.00313389 
1.0 1:0.686422 2:0.743948 3:0.0 4:0.137843 5:0.00328938 6:0.00318648 
1.0 1:0.734185 2:0.762605 3:0.0 4:0.137843 5:0.00334681 6:0.00325303 
1.0 1:0.75806 2:0.760028 3:0.0 4:0.137843 5:0.00328897 6:0.00323743 
1.0 1:0.74113 2:0.76663 3:0.0 4:0.137843 5:0.00322071 6:0.0031871 
1.0 1:0.734864 2:0.759266 3:0.0 4:0.137843 5:0.00317289 6:0.00314175 
1.0 1:0.743144 2:0.735175 3:0.0 4:0.137843 5:0.00323764 6:0.0031646 
1.0 1:0.730954 2:0.752506 3:0.0 4:0.137843 5:0.00325631 6:0.00317126 
1.0 1:0.725278 2:0.759521 3:0.0 4:0.137843 5:0.00322527 6:0.00314946 
1.0 1:0.688957 2:0.750753 3:0.0 4:0.137843 5:0.00316658 6:0.00311766 
1.0 1:0.717029 2:0.768227 3:0.0 4:0.137843 5:0.0031885 6:0.00317473 
1.0 1:0.756278 2:0.762275 3:0.0 4:0.137843 5:0.00318317 6:0.00317651 
1.0 1:0.772185 2:0.750138 3:0.0 4:0.137843 5:0.00321248 6:0.0031655 
1.0 1:0.7325 2:0.748222 3:0.0 4:0.137843 5:0.00322711 6:0.00311142 
1.0 1:0.708628 2:0.74207 3:0.0 4:0.137843 5:0.00322115 6:0.00315428 
1.0 1:0.722651 2:0.75785 3:0.0 4:0.137843 5:0.00319949 6:0.00319861 
1.0 1:0.737996 2:0.715143 3:0.0 4:0.137843 5:0.00323054 6:0.00319544 
1.0 1:0.756919 2:0.735555 3:0.0 4:0.137843 5:0.00328511 6:0.00319725 
1.0 1:0.586343 2:0.726625 3:0.0 4:0.137843 5:0.00330844 6:0.00317522 
1.0 1:0.685021 2:0.7446 3:0.0 4:0.137843 5:0.00324042 6:0.00318626 
1.0 1:0.715536 2:0.753026 3:0.0 4:0.137843 5:0.00324003 6:0.00315081 
1.0 1:0.750024 2:0.750833 3:0.0 4:0.137843 5:0.00321288 6:0.00322309 
1.0 1:0.742638 2:0.758454 3:0.0 4:0.137843 5:0.0032625 6:0.00327985 
1.0 1:0.748247 2:0.742244 3:0.0 4:0.137843 5:0.00326445 6:0.00324863 
1.0 1:0.759082 2:0.726799 3:0.0 4:0.137843 5:0.00329913 6:0.00318011 
1.0 1:0.724437 2:0.752365 3:0.0 4:0.137843 5:0.00332017 6:0.00317224 
1.0 1:0.719541 2:0.757528 3:0.0 4:0.137843 5:0.00325347 6:0.00323764 
1.0 1:0.733941 2:0.745072 3:0.0 4:0.137843 5:0.00321356 6:0.00324558 
1.0 1:0.725243 2:0.7493 3:0.0 4:0.137843 5:0.0032455 6:0.00319056 
1.0 1:0.660774 2:0.741129 3:0.0 4:0.137843 5:0.00327227 6:0.00313671 
1.0 1:0.725187 2:0.758441 3:0.0 4:0.137843 5:0.00325138 6:0.00319744 
1.0 1:0.67015 2:0.748562 3:0.0 4:0.137843 5:0.00317724 6:0.00323083 
1.0 1:0.728999 2:0.775839 3:0.0 4:0.137843 5:0.00318913 6:0.00321996 
1.0 1:0.671856 2:0.758721 3:0.0 4:0.137843 5:0.00327088 6:0.00315309 
1.0 1:0.708252 2:0.763083 3:0.0 4:0.137843 5:0.00333573 6:0.0031474 
1.0 1:0.716289 2:0.759078 3:0.0 4:0.137843 5:0.00330655 6:0.00320769 
1.0 1:0.712462 2:0.750295 3:0.0 4:0.137843 5:0.00323711 6:0.00325798 
1.0 1:0.736392 2:0.740359 3:0.0 4:0.137843 5:0.00317028 6:0.00330839 
1.0 1:0.734949 2:0.748513 3:0.0 4:0.137843 5:0.00319908 6:0.00326573 
1.0 1:0.700497 2:0.751468 3:0.0 4:0.137843 5:0.00326149 6:0.00322524 
1.0 1:0.719978 2:0.753792 3:0.0 4:0.137843 5:0.00333142 6:0.00316275 
1.0 1:0.718885 2:0.748087 3:0.0 4:0.137843 5:0.00334393 6:0.00314782 
1.0 1:0.670051 2:0.731448 3:0.0 4:0.137843 5:0.00335617 6:0.00315384 
1.0 1:0.72865 2:0.742961 3:0.0 4:0.137843 5:0.00334908 6:0.0031986 
1.0 1:0.731608 2:0.76165 3:0.0 4:0.137843 5:0.00332178 6:0.00325317 
1.0 1:0.731017 2:0.760393 3:0.0 4:0.137843 5:0.00326423 6:0.00331318 
1.0 1:0.705266 2:0.767788 3:0.0 4:0.137843 5:0.00319345 6:0.00334335 
1.0 1:0.74369 2:0.744614 3:0.0 4:0.137843 5:0.00316019 6:0.00330723 
1.0 1:0.663946 2:0.756338 3:0.0 4:0.137843 5:0.00322205 6:0.00325635 
1.0 1:0.73113 2:0.74854 3:0.0 4:0.137843 5:0.00330248 6:0.0031884 
1.0 1:0.702563 2:0.655803 3:0.0 4:0.137843 5:0.00335375 6:0.00318555 
1.0 1:0.724288 2:0.775957 3:0.0 4:0.137843 5:0.0032699 6:0.00326288 
1.0 1:0.68733 2:0.767359 3:0.0 4:0.137843 5:0.00323061 6:0.00330831 
1.0 1:0.707878 2:0.758404 3:0.0 4:0.137843 5:0.00324587 6:0.00335489 
1.0 1:0.690854 2:0.720392 3:0.0 4:0.137843 5:0.00327221 6:0.00336671 
1.0 1:0.743279 2:0.762112 3:0.0 4:0.137843 5:0.00331556 6:0.00337543 
1.0 1:0.699552 2:0.739434 3:0.0 4:0.137843 5:0.00332819 6:0.00337716 
1.0 1:0.736711 2:0.731981 3:0.0 4:0.137843 5:0.00333636 6:0.00337864 
1.0 1:0.735431 2:0.694392 3:0.0 4:0.137843 5:0.00334086 6:0.00337433 
1.0 1:0.727506 2:0.703221 3:0.0 4:0.137843 5:0.0033377 6:0.00337273 
1.0 1:0.73797 2:0.718746 3:0.0 4:0.137843 5:0.00335567 6:0.00337477 
1.0 1:0.744307 2:0.719647 3:0.0 4:0.137843 5:0.00335546 6:0.00337039 
1.0 1:0.756965 2:0.73581 3:0.0 4:0.137843 5:0.00335893 6:0.00337425 
1.0 1:0.7526 2:0.739772 3:0.0 4:0.137843 5:0.00336059 6:0.00334166 
1.0 1:0.737021 2:0.724138 3:0.0 4:0.137843 5:0.00336427 6:0.00334768 
1.0 1:0.740134 2:0.735869 3:0.0 4:0.137843 5:0.0033706 6:0.0032854 
1.0 1:0.724158 2:0.740848 3:0.0 4:0.137843 5:0.00337298 6:0.00329306 
1.0 1:0.731621 2:0.748881 3:0.0 4:0.137843 5:0.00337603 6:0.00324251 
1.0 1:0.730066 2:0.719239 3:0.0 4:0.137843 5:0.00336754 6:0.0032579 
1.0 1:0.716115 2:0.727422 3:0.0 4:0.137843 5:0.00334137 6:0.00323505 
1.0 1:0.74387 2:0.732341 3:0.0 4:0.137843 5:0.00332313 6:0.0032424 
1.0 1:0.75377 2:0.722392 3:0.0 4:0.137843 5:0.00332523 6:0.00324087 
1.0 1:0.743513 2:0.720771 3:0.0 4:0.137843 5:0.00333479 6:0.00327714 
1.0 1:0.72033 2:0.754318 3:0.0 4:0.137843 5:0.00331365 6:0.00331809 
1.0 1:0.735541 2:0.765597 3:0.0 4:0.137843 5:0.00329234 6:0.00336333 
1.0 1:0.731159 2:0.750147 3:0.0 4:0.137843 5:0.00327763 6:0.00337529 
1.0 1:0.743251 2:0.754304 3:0.0 4:0.137843 5:0.00330214 6:0.00337807 
1.0 1:0.751176 2:0.751296 3:0.0 4:0.137843 5:0.00333376 6:0.00336959 
1.0 1:0.74566 2:0.769542 3:0.0 4:0.137843 5:0.00334914 6:0.00336639 
1.0 1:0.732193 2:0.760703 3:0.0 4:0.137843 5:0.00331896 6:0.00331728 
1.0 1:0.750381 2:0.756381 3:0.0 4:0.137843 5:0.00327501 6:0.00326794 
1.0 1:0.723169 2:0.774051 3:0.0 4:0.137843 5:0.00323904 6:0.00320357 
1.0 1:0.72634 2:0.762026 3:0.0 4:0.137843 5:0.00325902 6:0.00320975 
1.0 1:0.733749 2:0.773626 3:0.0 4:0.137843 5:0.00330882 6:0.00326299 
1.0 1:0.725405 2:0.72896 3:0.0 4:0.137843 5:0.00336105 6:0.00330932 
1.0 1:0.740281 2:0.752905 3:0.0 4:0.137843 5:0.00338063 6:0.0033213 
1.0 1:0.740901 2:0.754873 3:0.0 4:0.137843 5:0.00338519 6:0.0032852 
1.0 1:0.738208 2:0.749972 3:0.0 4:0.137843 5:0.00338672 6:0.00331239 
1.0 1:0.66895 2:0.656275 3:0.0 4:0.137843 5:0.00337705 6:0.00329002 
1.0 1:0.685289 2:0.772423 3:0.0 4:0.137843 5:0.00333961 6:0.00328721 
1.0 1:0.758992 2:0.762798 3:0.0 4:0.137843 5:0.00325843 6:0.00330372 
1.0 1:0.759512 2:0.765245 3:0.0 4:0.137843 5:0.00325593 6:0.00332985 
1.0 1:0.75117 2:0.778242 3:0.0 4:0.137843 5:0.00329042 6:0.0033534 
1.0 1:0.686579 2:0.764639 3:0.0 4:0.137843 5:0.00332604 6:0.00336537 
1.0 1:0.722141 2:0.758521 3:0.0 4:0.137843 5:0.00336525 6:0.00337063 
1.0 1:0.75637 2:0.779249 3:0.0 4:0.137843 5:0.00339446 6:0.00336116 
1.0 1:0.684807 2:0.748037 3:0.0 4:0.137843 5:0.00340409 6:0.00335255 
1.0 1:0.643571 2:0.764121 3:0.0 4:0.137843 5:0.00340404 6:0.00332966 
1.0 1:0.751273 2:0.770509 3:0.0 4:0.137843 5:0.00338031 6:0.00326424 
1.0 1:0.740873 2:0.75992 3:0.0 4:0.137843 5:0.00332724 6:0.00328217 
1.0 1:0.756154 2:0.786522 3:0.0 4:0.137843 5:0.00321377 6:0.00331782 
1.0 1:0.748023 2:0.785912 3:0.0 4:0.137843 5:0.00323476 6:0.00332623 
1.0 1:0.756243 2:0.771229 3:0.0 4:0.137843 5:0.00325532 6:0.00335842 
1.0 1:0.728924 2:0.777193 3:0.0 4:0.137843 5:0.00330662 6:0.00336506 
1.0 1:0.74927 2:0.767722 3:0.0 4:0.137843 5:0.00334694 6:0.00337316 
1.0 1:0.755717 2:0.77694 3:0.0 4:0.137843 5:0.00338042 6:0.00338229 
1.0 1:0.722721 2:0.770733 3:0.0 4:0.137843 5:0.00339014 6:0.00338418 
1.0 1:0.65145 2:0.765755 3:0.0 4:0.137843 5:0.00339515 6:0.00338825 
1.0 1:0.683452 2:0.752956 3:0.0 4:0.137843 5:0.00339851 6:0.00338858 
1.0 1:0.709087 2:0.672277 3:0.0 4:0.137843 5:0.00340008 6:0.00339173 
1.0 1:0.696475 2:0.742038 3:0.0 4:0.137843 5:0.00340152 6:0.00338426 
1.0 1:0.728688 2:0.740103 3:0.0 4:0.137843 5:0.00339911 6:0.0033779 
1.0 1:0.596917 2:0.680497 3:0.0 4:0.137843 5:0.00334898 6:0.00332241 
1.0 1:0.729861 2:0.669302 3:0.0 4:0.137843 5:0.0 6:0.0 
1.0 1:0.645069 2:0.670839 3:0.0 4:0.137843 5:0.00334975 6:0.00334424 
1.0 1:0.736137 2:0.717692 3:0.0 4:0.137843 5:0.00335032 6:0.00336985 
1.0 1:0.660127 2:0.710063 3:0.0 4:0.137843 5:0.00334873 6:0.00337789 
1.0 1:0.65416 2:0.678014 3:0.0 4:0.137843 5:0.00335164 6:0.00338316 
1.0 1:0.659239 2:0.726811 3:0.0 4:0.137843 5:0.00336267 6:0.00338645 
1.0 1:0.684842 2:0.738824 3:0.0 4:0.137843 5:0.00336887 6:0.00339035 
1.0 1:0.687759 2:0.653464 3:0.0 4:0.137843 5:0.00336937 6:0.00338722 
1.0 1:0.700302 2:0.718946 3:0.0 4:0.137843 5:0.00336891 6:0.00336009 
1.0 1:0.700642 2:0.753373 3:0.0 4:0.137843 5:0.00336013 6:0.00334193 
1.0 1:0.735519 2:0.731765 3:0.0 4:0.137843 5:0.00335044 6:0.0033373 
1.0 1:0.745208 2:0.756021 3:0.0 4:0.137843 5:0.00334223 6:0.00334713 
1.0 1:0.698974 2:0.760523 3:0.0 4:0.137843 5:0.00332518 6:0.00334689 
1.0 1:0.74896 2:0.663479 3:0.0 4:0.137843 5:0.00328842 6:0.00331863 
1.0 1:0.591933 2:0.655353 3:0.0 4:0.137843 5:0.00327275 6:0.0032785 
1.0 1:0.602134 2:0.651776 3:0.0 4:0.137843 5:0.00325813 6:0.00327656 
1.0 1:0.729257 2:0.753567 3:0.0 4:0.137843 5:0.00328717 6:0.00331343 
1.0 1:0.745109 2:0.766352 3:0.0 4:0.137843 5:0.00330714 6:0.00337132 
1.0 1:0.748881 2:0.664747 3:0.0 4:0.137843 5:0.00335088 6:0.00339214 
1.0 1:0.750745 2:0.676701 3:0.0 4:0.137843 5:0.003363 6:0.00338433 
1.0 1:0.729536 2:0.67457 3:0.0 4:0.137843 5:0.00336762 6:0.00335822 
1.0 1:0.715108 2:0.760532 3:0.0 4:0.137843 5:0.00336682 6:0.0033283 
1.0 1:0.740941 2:0.754961 3:0.0 4:0.137843 5:0.00327755 6:0.00327576 
1.0 1:0.628825 2:0.690792 3:0.0 4:0.137843 5:0.0031962 6:0.00327597 
1.0 1:0.768664 2:0.677721 3:0.0 4:0.137843 5:0.00315661 6:0.0032973 
1.0 1:0.687948 2:0.668207 3:0.0 4:0.137843 5:0.00315308 6:0.00329859 
1.0 1:0.742659 2:0.668625 3:0.0 4:0.137843 5:0.00317995 6:0.00328411 
1.0 1:0.734024 2:0.734721 3:0.0 4:0.137843 5:0.00322939 6:0.00330059 
1.0 1:0.73142 2:0.734582 3:0.0 4:0.137843 5:0.00329647 6:0.00331203 
1.0 1:0.692665 2:0.681934 3:0.0 4:0.137843 5:0.00333627 6:0.00332735 
1.0 1:0.734485 2:0.693995 3:0.0 4:0.137843 5:0.00333949 6:0.00331046 
1.0 1:0.74699 2:0.685066 3:0.0 4:0.137843 5:0.00334386 6:0.00333991 
1.0 1:0.750777 2:0.742496 3:0.0 4:0.137843 5:0.00334102 6:0.00329942 
1.0 1:0.740059 2:0.749447 3:0.0 4:0.137843 5:0.00333535 6:0.00324785 
1.0 1:0.752947 2:0.695307 3:0.0 4:0.137843 5:0.00332673 6:0.00320339 
1.0 1:0.753736 2:0.715963 3:0.0 4:0.137843 5:0.00332655 6:0.00321776 
1.0 1:0.75283 2:0.724005 3:0.0 4:0.137843 5:0.00332881 6:0.00319864 
1.0 1:0.738652 2:0.701965 3:0.0 4:0.137843 5:0.00333791 6:0.00318324 
1.0 1:0.72802 2:0.692994 3:0.0 4:0.137843 5:0.00333433 6:0.00313133 
1.0 1:0.744561 2:0.72642 3:0.0 4:0.137843 5:0.00332566 6:0.00313052 
1.0 1:0.764103 2:0.741533 3:0.0 4:0.137843 5:0.00330795 6:0.00312337 
1.0 1:0.741648 2:0.751766 3:0.0 4:0.137843 5:0.00330525 6:0.00312221 
1.0 1:0.749852 2:0.688762 3:0.0 4:0.137843 5:0.00330415 6:0.00310824 
1.0 1:0.748666 2:0.733012 3:0.0 4:0.137843 5:0.00330578 6:0.00311574 
1.0 1:0.746561 2:0.737892 3:0.0 4:0.137843 5:0.00330518 6:0.003163 
1.0 1:0.693599 2:0.694488 3:0.0 4:0.137843 5:0.00331015 6:0.00316762 
1.0 1:0.76408 2:0.718547 3:0.0 4:0.137843 5:0.00329244 6:0.00321857 
1.0 1:0.761318 2:0.71612 3:0.0 4:0.137843 5:0.00328624 6:0.00321693 
1.0 1:0.755989 2:0.718679 3:0.0 4:0.137843 5:0.00324114 6:0.00321369 
1.0 1:0.750517 2:0.701603 3:0.0 4:0.137843 5:0.00319916 6:0.00324781 
1.0 1:0.765292 2:0.713053 3:0.0 4:0.137843 5:0.0031475 6:0.00328667 
1.0 1:0.751774 2:0.712669 3:0.0 4:0.137843 5:0.00312938 6:0.00326591 
1.0 1:0.766785 2:0.716185 3:0.0 4:0.137843 5:0.00309761 6:0.0032656 
1.0 1:0.733761 2:0.710058 3:0.0 4:0.137843 5:0.00309299 6:0.00325935 
1.0 1:0.752421 2:0.715472 3:0.0 4:0.137843 5:0.00309099 6:0.00329683 
1.0 1:0.758939 2:0.702028 3:0.0 4:0.137843 5:0.0030835 6:0.00319406 
1.0 1:0.759992 2:0.675981 3:0.0 4:0.137843 5:0.00308354 6:0.00316255 
1.0 1:0.737762 2:0.670828 3:0.0 4:0.137843 5:0.0031074 6:0.00316561 
1.0 1:0.756355 2:0.679081 3:0.0 4:0.137843 5:0.00318787 6:0.00316871 
1.0 1:0.709527 2:0.665538 3:0.0 4:0.137843 5:0.00319718 6:0.00320538 
1.0 1:0.744236 2:0.724146 3:0.0 4:0.137843 5:0.00315139 6:0.00325684 
1.0 1:0.733426 2:0.677478 3:0.0 4:0.137843 5:0.00309675 6:0.00324437 
1.0 1:0.760326 2:0.753547 3:0.0 4:0.137843 5:0.00308973 6:0.00320137 
1.0 1:0.759798 2:0.735476 3:0.0 4:0.137843 5:0.00309 6:0.00318912 
1.0 1:0.755188 2:0.713764 3:0.0 4:0.137843 5:0.00309942 6:0.0031898 
1.0 1:0.760211 2:0.725089 3:0.0 4:0.137843 5:0.00317267 6:0.0031864 
1.0 1:0.747902 2:0.751592 3:0.0 4:0.137843 5:0.00322301 6:0.00314991 
1.0 1:0.765283 2:0.712095 3:0.0 4:0.137843 5:0.00323122 6:0.00317431 
1.0 1:0.753538 2:0.723579 3:0.0 4:0.137843 5:0.00317272 6:0.00320988 
1.0 1:0.744024 2:0.709562 3:0.0 4:0.137843 5:0.00311643 6:0.00328238 
1.0 1:0.748345 2:0.739741 3:0.0 4:0.137843 5:0.00309002 6:0.00323857 
1.0 1:0.734145 2:0.694336 3:0.0 4:0.137843 5:0.00307989 6:0.0032119 
1.0 1:0.735084 2:0.727342 3:0.0 4:0.137843 5:0.00307623 6:0.00314163 
1.0 1:0.747697 2:0.731732 3:0.0 4:0.137843 5:0.00309596 6:0.00314659 
1.0 1:0.730928 2:0.735088 3:0.0 4:0.137843 5:0.00312769 6:0.00314408 
1.0 1:0.735325 2:0.735486 3:0.0 4:0.137843 5:0.00317896 6:0.00314132 
1.0 1:0.727415 2:0.712599 3:0.0 4:0.137843 5:0.00315911 6:0.00310987 
1.0 1:0.709306 2:0.739564 3:0.0 4:0.137843 5:0.00312644 6:0.00313758 
1.0 1:0.661048 2:0.72828 3:0.0 4:0.137843 5:0.00308617 6:0.00321459 
1.0 1:0.644944 2:0.650098 3:0.0 4:0.137843 5:0.00309229 6:0.00327038 
1.0 1:0.286175 2:0.466481 3:0.0 4:0.137843 5:0.0 6:0.0 
1.0 1:0.685448 2:0.654663 3:0.0 4:0.137843 5:0.0031045 6:0.0 
1.0 1:0.623428 2:0.643402 3:0.0 4:0.137843 5:0.00313867 6:0.00306766 
1.0 1:0.608863 2:0.669165 3:0.0 4:0.137843 5:0.0032084 6:0.00307218 
1.0 1:0.591182 2:0.633723 3:0.0 4:0.137843 5:0.00309117 6:0.00318713 
1.0 1:0.669408 2:0.652166 3:0.0 4:0.137843 5:0.0030767 6:0.00326268 
1.0 1:0.663548 2:0.661898 3:0.0 4:0.137843 5:0.00307749 6:0.00311809 
1.0 1:0.66422 2:0.67801 3:0.0 4:0.137843 5:0.00315103 6:0.00310645 
1.0 1:0.613378 2:0.693432 3:0.0 4:0.137843 5:0.0031566 6:0.00312728 
1.0 1:0.688416 2:0.689092 3:0.0 4:0.137843 5:0.00314958 6:0.00320966 
1.0 1:0.672211 2:0.707177 3:0.0 4:0.137843 5:0.00312405 6:0.00339453 
1.0 1:0.623322 2:0.692646 3:0.0 4:0.137843 5:0.00362716 6:0.00353574 
1.0 1:0.619509 2:0.677084 3:0.0 4:0.137843 5:0.00352521 6:0.00347801 
1.0 1:0.666716 2:0.690311 3:0.0 4:0.137843 5:0.0031739 6:0.00327245 
1.0 1:0.698616 2:0.691635 3:0.0 4:0.137843 5:0.00314248 6:0.00318649 
1.0 1:0.709722 2:0.711735 3:0.0 4:0.137843 5:0.00315874 6:0.00318568 
1.0 1:0.681461 2:0.723946 3:0.0 4:0.137843 5:0.00318701 6:0.00316409 
1.0 1:0.682815 2:0.728419 3:0.0 4:0.137843 5:0.00313668 6:0.00312432 
1.0 1:0.688144 2:0.72215 3:0.0 4:0.137843 5:0.00311716 6:0.00315298 
1.0 1:0.700654 2:0.716205 3:0.0 4:0.137843 5:0.00313138 6:0.00316979 
1.0 1:0.723175 2:0.714534 3:0.0 4:0.137843 5:0.00312899 6:0.00321033 
1.0 1:0.739835 2:0.728504 3:0.0 4:0.137843 5:0.00312071 6:0.00319828 
1.0 1:0.740057 2:0.71375 3:0.0 4:0.137843 5:0.00306663 6:0.00318783 
1.0 1:0.740748 2:0.779249 3:0.0 4:0.137843 5:0.00309101 6:0.00315189 
1.0 1:0.752411 2:0.751689 3:0.0 4:0.137843 5:0.0031473 6:0.00314531 
1.0 1:0.759875 2:0.716989 3:0.0 4:0.137843 5:0.00317608 6:0.00320202 
1.0 1:0.753061 2:0.728899 3:0.0 4:0.137843 5:0.00315599 6:0.00325649 
1.0 1:0.746851 2:0.720776 3:0.0 4:0.137843 5:0.0031078 6:0.00332897 
1.0 1:0.750989 2:0.768336 3:0.0 4:0.137843 5:0.0030847 6:0.00333129 
1.0 1:0.726394 2:0.771173 3:0.0 4:0.137843 5:0.00308648 6:0.00332928 
1.0 1:0.727019 2:0.713282 3:0.0 4:0.137843 5:0.00309164 6:0.00330763 
1.0 1:0.737965 2:0.721739 3:0.0 4:0.137843 5:0.00309617 6:0.00326624 
1.0 1:0.705295 2:0.716946 3:0.0 4:0.137843 5:0.00310237 6:0.00323986 
1.0 1:0.690028 2:0.716173 3:0.0 4:0.137843 5:0.00311082 6:0.00319528 
1.0 1:0.738788 2:0.694056 3:0.0 4:0.137843 5:0.00317893 6:0.00317916 
1.0 1:0.631848 2:0.753417 3:0.0 4:0.137843 5:0.00322204 6:0.00317139 
1.0 1:0.759442 2:0.68501 3:0.0 4:0.137843 5:0.00322731 6:0.00319172 
1.0 1:0.749312 2:0.708618 3:0.0 4:0.137843 5:0.00319345 6:0.00319336 
1.0 1:0.748861 2:0.757241 3:0.0 4:0.137843 5:0.0031379 6:0.00318147 
1.0 1:0.750424 2:0.708215 3:0.0 4:0.137843 5:0.0031687 6:0.00317655 
1.0 1:0.735189 2:0.713789 3:0.0 4:0.137843 5:0.00317672 6:0.00318164 
1.0 1:0.684007 2:0.743855 3:0.0 4:0.137843 5:0.00319333 6:0.00323657 
1.0 1:0.771726 2:0.682976 3:0.0 4:0.137843 5:0.00314461 6:0.00328366 
1.0 1:0.761925 2:0.766611 3:0.0 4:0.137843 5:0.00312393 6:0.00328854 
1.0 1:0.76877 2:0.68767 3:0.0 4:0.137843 5:0.00314427 6:0.00323524 
1.0 1:0.766081 2:0.759939 3:0.0 4:0.137843 5:0.00319189 6:0.00317083 
1.0 1:0.760577 2:0.747086 3:0.0 4:0.137843 5:0.00322915 6:0.00314544 
1.0 1:0.692516 2:0.683566 3:0.0 4:0.137843 5:0.00322701 6:0.00313763 
1.0 1:0.732624 2:0.676761 3:0.0 4:0.137843 5:0.00318711 6:0.00315796 
1.0 1:0.719109 2:0.709851 3:0.0 4:0.137843 5:0.00316495 6:0.00316254 
1.0 1:0.716948 2:0.6826 3:0.0 4:0.137843 5:0.00311233 6:0.00317602 
1.0 1:0.714489 2:0.760679 3:0.0 4:0.137843 5:0.00310723 6:0.00319696 
1.0 1:0.719143 2:0.731741 3:0.0 4:0.137843 5:0.00308251 6:0.00322828 
1.0 1:0.730876 2:0.759688 3:0.0 4:0.137843 5:0.00307749 6:0.00323005 
1.0 1:0.686511 2:0.750614 3:0.0 4:0.137843 5:0.00307068 6:0.00321479 
1.0 1:0.717882 2:0.745181 3:0.0 4:0.137843 5:0.00307789 6:0.00324261 
1.0 1:0.72318 2:0.728032 3:0.0 4:0.137843 5:0.00308942 6:0.00326411 
1.0 1:0.685698 2:0.738612 3:0.0 4:0.137843 5:0.0031018 6:0.00330054 
1.0 1:0.687032 2:0.754042 3:0.0 4:0.137843 5:0.00309488 6:0.00330743 
1.0 1:0.772601 2:0.752863 3:0.0 4:0.137843 5:0.00309147 6:0.00330585 
1.0 1:0.68871 2:0.71531 3:0.0 4:0.137843 5:0.00308738 6:0.00328429 
1.0 1:0.70895 2:0.729785 3:0.0 4:0.137843 5:0.00309101 6:0.00324134 
1.0 1:0.764547 2:0.71297 3:0.0 4:0.137843 5:0.00310811 6:0.00319936 
1.0 1:0.716147 2:0.716187 3:0.0 4:0.137843 5:0.00312387 6:0.0031776 
1.0 1:0.748191 2:0.730719 3:0.0 4:0.137843 5:0.00319794 6:0.00317228 
1.0 1:0.742909 2:0.732335 3:0.0 4:0.137843 5:0.00326009 6:0.00323435 
1.0 1:0.761474 2:0.719776 3:0.0 4:0.137843 5:0.00332231 6:0.00323002 
1.0 1:0.765652 2:0.717891 3:0.0 4:0.137843 5:0.0032837 6:0.00323276 
1.0 1:0.760722 2:0.726799 3:0.0 4:0.137843 5:0.00322631 6:0.00318069 
1.0 1:0.760081 2:0.722128 3:0.0 4:0.137843 5:0.00317661 6:0.0031833 
1.0 1:0.669938 2:0.717868 3:0.0 4:0.137843 5:0.00316988 6:0.00320351 
1.0 1:0.764757 2:0.726296 3:0.0 4:0.137843 5:0.00317365 6:0.00322321 
1.0 1:0.719275 2:0.726088 3:0.0 4:0.137843 5:0.00318009 6:0.00323989 
1.0 1:0.751549 2:0.721684 3:0.0 4:0.137843 5:0.00319466 6:0.00328606 
1.0 1:0.714777 2:0.713006 3:0.0 4:0.137843 5:0.0032019 6:0.00331574 
1.0 1:0.71977 2:0.728911 3:0.0 4:0.137843 5:0.00326026 6:0.00336485 
1.0 1:0.729131 2:0.728736 3:0.0 4:0.137843 5:0.00325341 6:0.00334552 
1.0 1:0.73752 2:0.723514 3:0.0 4:0.137843 5:0.00325262 6:0.00332593 
1.0 1:0.660926 2:0.739082 3:0.0 4:0.137843 5:0.0032086 6:0.00333254 
1.0 1:0.757196 2:0.744398 3:0.0 4:0.137843 5:0.00322759 6:0.00332285 
1.0 1:0.742893 2:0.743954 3:0.0 4:0.137843 5:0.00324379 6:0.00332363 
1.0 1:0.724501 2:0.761173 3:0.0 4:0.137843 5:0.00327664 6:0.00328571 
1.0 1:0.737397 2:0.739233 3:0.0 4:0.137843 5:0.003284 6:0.00332687 
1.0 1:0.677383 2:0.66842 3:0.0 4:0.137843 5:0.00328671 6:0.00335288 
1.0 1:0.725322 2:0.660266 3:0.0 4:0.137843 5:0.0 6:0.00340658 
1.0 1:0.697291 2:0.668491 3:0.0 4:0.137843 5:0.00334783 6:0.00328779 
1.0 1:0.714636 2:0.689185 3:0.0 4:0.137843 5:0.0033957 6:0.00326529 
1.0 1:0.717986 2:0.701837 3:0.0 4:0.137843 5:0.00338358 6:0.00325987 
1.0 1:0.70391 2:0.730467 3:0.0 4:0.137843 5:0.00338771 6:0.00326209 
1.0 1:0.682322 2:0.726402 3:0.0 4:0.137843 5:0.00338204 6:0.00328834 
1.0 1:0.658125 2:0.711032 3:0.0 4:0.137843 5:0.00340306 6:0.0033215 
1.0 1:0.702517 2:0.739441 3:0.0 4:0.137843 5:0.00339691 6:0.0033598 
1.0 1:0.713944 2:0.760082 3:0.0 4:0.137843 5:0.00340395 6:0.00337322 
1.0 1:0.70105 2:0.75026 3:0.0 4:0.137843 5:0.00339947 6:0.00336074 
1.0 1:0.692405 2:0.744108 3:0.0 4:0.137843 5:0.00340549 6:0.00337786 
1.0 1:0.683757 2:0.754211 3:0.0 4:0.137843 5:0.00339836 6:0.00338494 
1.0 1:0.721801 2:0.757781 3:0.0 4:0.137843 5:0.00339698 6:0.00339592 
1.0 1:0.723524 2:0.767781 3:0.0 4:0.137843 5:0.0033836 6:0.00339647 
1.0 1:0.591627 2:0.750039 3:0.0 4:0.137843 5:0.00338895 6:0.00340093 
1.0 1:0.655833 2:0.764581 3:0.0 4:0.137843 5:0.00333693 6:0.00340263 
1.0 1:0.612279 2:0.770687 3:0.0 4:0.137843 5:0.00327625 6:0.00340927 
1.0 1:0.683698 2:0.668381 3:0.0 4:0.137843 5:0.00321409 6:0.00341114 
1.0 1:0.702777 2:0.670959 3:0.0 4:0.137843 5:0.00319582 6:0.00339583 
1.0 1:0.740284 2:0.66589 3:0.0 4:0.137843 5:0.00321799 6:0.00335916 
1.0 1:0.731791 2:0.686298 3:0.0 4:0.137843 5:0.00330296 6:0.00332839 
1.0 1:0.736676 2:0.672195 3:0.0 4:0.137843 5:0.00335181 6:0.0033182 
1.0 1:0.767794 2:0.726403 3:0.0 4:0.137843 5:0.00324738 6:0.00337292 
1.0 1:0.732357 2:0.715333 3:0.0 4:0.137843 5:0.00319227 6:0.00333389 
1.0 1:0.750926 2:0.734074 3:0.0 4:0.137843 5:0.00327933 6:0.0033193 
1.0 1:0.663597 2:0.723124 3:0.0 4:0.137843 5:0.00332267 6:0.00330024 
1.0 1:0.687064 2:0.655528 3:0.0 4:0.137843 5:0.00331134 6:0.0033364 
1.0 1:0.751757 2:0.715663 3:0.0 4:0.137843 5:0.00326082 6:0.00334471 
1.0 1:0.695347 2:0.718193 3:0.0 4:0.137843 5:0.00320738 6:0.00334556 
1.0 1:0.705748 2:0.704764 3:0.0 4:0.137843 5:0.00316171 6:0.00330901 
1.0 1:0.646658 2:0.70892 3:0.0 4:0.137843 5:0.00316352 6:0.00325871 
1.0 1:0.690396 2:0.67967 3:0.0 4:0.137843 5:0.00326195 6:0.00329423 
1.0 1:0.704892 2:0.728271 3:0.0 4:0.137843 5:0.00329845 6:0.00332742 
1.0 1:0.712462 2:0.705434 3:0.0 4:0.137843 5:0.00326472 6:0.0033434 
1.0 1:0.697533 2:0.708954 3:0.0 4:0.137843 5:0.00320564 6:0.00330282 
1.0 1:0.717957 2:0.705391 3:0.0 4:0.137843 5:0.00318399 6:0.0032312 
1.0 1:0.653926 2:0.721021 3:0.0 4:0.137843 5:0.00318846 6:0.0031948 
1.0 1:0.723985 2:0.707303 3:0.0 4:0.137843 5:0.00323058 6:0.00322751 
1.0 1:0.699884 2:0.730716 3:0.0 4:0.137843 5:0.00325664 6:0.00327009 
1.0 1:0.755804 2:0.672303 3:0.0 4:0.137843 5:0.00324858 6:0.00328526 
1.0 1:0.692846 2:0.727436 3:0.0 4:0.137843 5:0.00320251 6:0.0032665 
1.0 1:0.75248 2:0.716287 3:0.0 4:0.137843 5:0.00316016 6:0.00323105 
1.0 1:0.653866 2:0.697577 3:0.0 4:0.137843 5:0.00315289 6:0.00324257 
1.0 1:0.73763 2:0.67108 3:0.0 4:0.137843 5:0.00316223 6:0.00328934 
1.0 1:0.704815 2:0.658767 3:0.0 4:0.137843 5:0.00321132 6:0.00332956 
1.0 1:0.654846 2:0.754668 3:0.0 4:0.137843 5:0.00325671 6:0.00334135 
1.0 1:0.715474 2:0.679923 3:0.0 4:0.137843 5:0.00326191 6:0.00332978 
1.0 1:0.726835 2:0.721124 3:0.0 4:0.137843 5:0.00320046 6:0.00329946 
1.0 1:0.703627 2:0.709484 3:0.0 4:0.137843 5:0.00314263 6:0.0032241 
1.0 1:0.741194 2:0.737103 3:0.0 4:0.137843 5:0.00313384 6:0.00317444 
1.0 1:0.728829 2:0.694098 3:0.0 4:0.137843 5:0.00312711 6:0.0031415 
1.0 1:0.734443 2:0.704286 3:0.0 4:0.137843 5:0.00312117 6:0.00320493 
1.0 1:0.705398 2:0.701661 3:0.0 4:0.137843 5:0.00311219 6:0.00325548 
1.0 1:0.742151 2:0.659628 3:0.0 4:0.137843 5:0.00315847 6:0.00331822 
1.0 1:0.751968 2:0.65977 3:0.0 4:0.137843 5:0.00321367 6:0.00332761 
1.0 1:0.744801 2:0.687714 3:0.0 4:0.137843 5:0.0032775 6:0.0033242 
1.0 1:0.654209 2:0.686272 3:0.0 4:0.137843 5:0.00324041 6:0.00328235 
1.0 1:0.680016 2:0.670691 3:0.0 4:0.137843 5:0.00318872 6:0.00321214 
1.0 1:0.662544 2:0.669225 3:0.0 4:0.137843 5:0.00313841 6:0.00314799 
1.0 1:0.664519 2:0.683237 3:0.0 4:0.137843 5:0.00312079 6:0.00312786 
1.0 1:0.667319 2:0.682818 3:0.0 4:0.137843 5:0.0031092 6:0.00312707 
1.0 1:0.649262 2:0.689702 3:0.0 4:0.137843 5:0.00309647 6:0.00319966 
1.0 1:0.680223 2:0.730267 3:0.0 4:0.137843 5:0.00314323 6:0.00325902 
1.0 1:0.712864 2:0.751523 3:0.0 4:0.137843 5:0.00319231 6:0.00332712 
1.0 1:0.729468 2:0.771668 3:0.0 4:0.137843 5:0.00314417 6:0.00332061 
1.0 1:0.710762 2:0.777095 3:0.0 4:0.137843 5:0.00312759 6:0.00323885 
1.0 1:0.702337 2:0.779465 3:0.0 4:0.137843 5:0.00310876 6:0.00316683 
1.0 1:0.699085 2:0.773353 3:0.0 4:0.137843 5:0.00310817 6:0.00311597 
1.0 1:0.743727 2:0.782384 3:0.0 4:0.137843 5:0.00309203 6:0.00315227 
1.0 1:0.74922 2:0.760202 3:0.0 4:0.137843 5:0.00311442 6:0.00315286 
1.0 1:0.757607 2:0.767966 3:0.0 4:0.137843 5:0.00314314 6:0.00316672 
1.0 1:0.731339 2:0.767232 3:0.0 4:0.137843 5:0.00322692 6:0.00316961 
1.0 1:0.705066 2:0.762896 3:0.0 4:0.137843 5:0.00327682 6:0.00324146 
1.0 1:0.72948 2:0.753294 3:0.0 4:0.137843 5:0.00331328 6:0.0032777 
1.0 1:0.76458 2:0.761848 3:0.0 4:0.137843 5:0.00326526 6:0.00329299 
1.0 1:0.594379 2:0.750909 3:0.0 4:0.137843 5:0.00320249 6:0.00323023 
1.0 1:0.765342 2:0.756803 3:0.0 4:0.137843 5:0.00312473 6:0.00316904 
1.0 1:0.689543 2:0.74253 3:0.0 4:0.137843 5:0.00310416 6:0.00311378 
1.0 1:0.622076 2:0.749727 3:0.0 4:0.137843 5:0.00309982 6:0.00311781 
1.0 1:0.753022 2:0.74701 3:0.0 4:0.137843 5:0.00310395 6:0.00315097 
1.0 1:0.716181 2:0.733865 3:0.0 4:0.137843 5:0.00316879 6:0.00323871 
1.0 1:0.646389 2:0.709575 3:0.0 4:0.137843 5:0.00322348 6:0.00329675 
1.0 1:0.72449 2:0.732403 3:0.0 4:0.137843 5:0.0032656 6:0.00332151 
1.0 1:0.665119 2:0.676264 3:0.0 4:0.137843 5:0.00320552 6:0.00326007 
1.0 1:0.711847 2:0.747759 3:0.0 4:0.137843 5:0.003133 6:0.00317354 
1.0 1:0.712905 2:0.722687 3:0.0 4:0.137843 5:0.00309835 6:0.0030988 
1.0 1:0.760599 2:0.699563 3:0.0 4:0.137843 5:0.00314435 6:0.0031481 
1.0 1:0.732168 2:0.71859 3:0.0 4:0.137843 5:0.00323123 6:0.00323406 
1.0 1:0.722442 2:0.741873 3:0.0 4:0.137843 5:0.0032981 6:0.00332343 
1.0 1:0.740323 2:0.700032 3:0.0 4:0.137843 5:0.00328487 6:0.00328633 
1.0 1:0.741901 2:0.756973 3:0.0 4:0.137843 5:0.00325501 6:0.0032535 
1.0 1:0.747572 2:0.668482 3:0.0 4:0.137843 5:0.00320937 6:0.00316696 
1.0 1:0.731045 2:0.732985 3:0.0 4:0.137843 5:0.00313991 6:0.00313477 
1.0 1:0.754974 2:0.70185 3:0.0 4:0.137843 5:0.00314638 6:0.00308773 
1.0 1:0.726251 2:0.716692 3:0.0 4:0.137843 5:0.00312825 6:0.003127 
1.0 1:0.755756 2:0.729414 3:0.0 4:0.137843 5:0.00312933 6:0.00316392 
1.0 1:0.739126 2:0.755964 3:0.0 4:0.137843 5:0.00310175 6:0.00318038 
1.0 1:0.759102 2:0.749083 3:0.0 4:0.137843 5:0.00309361 6:0.00316697 
1.0 1:0.77523 2:0.759652 3:0.0 4:0.137843 5:0.00309825 6:0.00317996 
1.0 1:0.752351 2:0.693669 3:0.0 4:0.137843 5:0.0030848 6:0.00316419 
1.0 1:0.768517 2:0.675389 3:0.0 4:0.137843 5:0.00308538 6:0.00315579 
1.0 1:0.765489 2:0.75277 3:0.0 4:0.137843 5:0.00312235 6:0.00319805 
1.0 1:0.722416 2:0.754703 3:0.0 4:0.137843 5:0.003196 6:0.00325511 
1.0 1:0.68821 2:0.692456 3:0.0 4:0.137843 5:0.0032092 6:0.00327713 
1.0 1:0.678053 2:0.680726 3:0.0 4:0.137843 5:0.00316661 6:0.00321186 
1.0 1:0.77174 2:0.709928 3:0.0 4:0.137843 5:0.00310807 6:0.00313835 
1.0 1:0.692481 2:0.690436 3:0.0 4:0.137843 5:0.0031151 6:0.00319954 
1.0 1:0.636804 2:0.70789 3:0.0 4:0.137843 5:0.00318272 6:0.0032528 
1.0 1:0.660631 2:0.660832 3:0.0 4:0.137843 5:0.00318138 6:0.00325078 
1.0 1:0.672851 2:0.6897 3:0.0 4:0.137843 5:0.00314897 6:0.00317913 
1.0 1:0.740355 2:0.736722 3:0.0 4:0.137843 5:0.00309476 6:0.00320323 
1.0 1:0.701203 2:0.738156 3:0.0 4:0.137843 5:0.00318588 6:0.00325959 
1.0 1:0.742853 2:0.746953 3:0.0 4:0.137843 5:0.00321788 6:0.00326838 
1.0 1:0.673117 2:0.69083 3:0.0 4:0.137843 5:0.00322103 6:0.00319112 
1.0 1:0.770219 2:0.701151 3:0.0 4:0.137843 5:0.00313189 6:0.00316857 
1.0 1:0.645268 2:0.719872 3:0.0 4:0.137843 5:0.00309267 6:0.00322363 
1.0 1:0.768503 2:0.705365 3:0.0 4:0.137843 5:0.00308709 6:0.00329371 
1.0 1:0.753933 2:0.713585 3:0.0 4:0.137843 5:0.00308752 6:0.00332285 
1.0 1:0.768448 2:0.692139 3:0.0 4:0.137843 5:0.00309249 6:0.00332551 
1.0 1:0.778118 2:0.696675 3:0.0 4:0.137843 5:0.00311543 6:0.00332779 
1.0 1:0.781138 2:0.701419 3:0.0 4:0.137843 5:0.00312244 6:0.00332144 
1.0 1:0.788 2:0.693767 3:0.0 4:0.137843 5:0.00313744 6:0.00332771 
1.0 1:0.70509 2:0.686356 3:0.0 4:0.137843 5:0.00313786 6:0.00332637 
1.0 1:0.760964 2:0.710258 3:0.0 4:0.137843 5:0.00317445 6:0.0033143 
1.0 1:0.735067 2:0.704714 3:0.0 4:0.137843 5:0.00320391 6:0.00329976 
1.0 1:0.702763 2:0.716238 3:0.0 4:0.137843 5:0.00324875 6:0.0032316 
1.0 1:0.685807 2:0.694335 3:0.0 4:0.137843 5:0.00326672 6:0.00316851 
1.0 1:0.757299 2:0.7121 3:0.0 4:0.137843 5:0.00325931 6:0.0031114 
1.0 1:0.748976 2:0.692224 3:0.0 4:0.137843 5:0.00318914 6:0.00311765 
1.0 1:0.717216 2:0.709255 3:0.0 4:0.137843 5:0.00312514 6:0.00317243 
1.0 1:0.771162 2:0.738612 3:0.0 4:0.137843 5:0.00307908 6:0.00324402 
1.0 1:0.761674 2:0.745813 3:0.0 4:0.137843 5:0.00307116 6:0.00329539 
1.0 1:0.746454 2:0.750647 3:0.0 4:0.137843 5:0.00310256 6:0.0033316 
1.0 1:0.703516 2:0.748771 3:0.0 4:0.137843 5:0.00315919 6:0.00334074 
1.0 1:0.713494 2:0.748175 3:0.0 4:0.137843 5:0.00323231 6:0.00335781 
1.0 1:0.731062 2:0.69969 3:0.0 4:0.137843 5:0.00325838 6:0.00332651 
1.0 1:0.742931 2:0.724209 3:0.0 4:0.137843 5:0.00325022 6:0.00326576 
1.0 1:0.722084 2:0.718412 3:0.0 4:0.137843 5:0.00323679 6:0.00318171 
1.0 1:0.763149 2:0.678685 3:0.0 4:0.137843 5:0.00317793 6:0.0031418 
1.0 1:0.691828 2:0.707084 3:0.0 4:0.137843 5:0.00314709 6:0.00312397 
1.0 1:0.725668 2:0.709036 3:0.0 4:0.137843 5:0.00310668 6:0.00318422 
1.0 1:0.732849 2:0.704048 3:0.0 4:0.137843 5:0.00308588 6:0.00327011 
1.0 1:0.752146 2:0.710641 3:0.0 4:0.137843 5:0.00306337 6:0.00333555 
1.0 1:0.750851 2:0.677083 3:0.0 4:0.137843 5:0.00306244 6:0.0033501 
1.0 1:0.760926 2:0.722636 3:0.0 4:0.137843 5:0.00312111 6:0.00335173 
1.0 1:0.769138 2:0.738199 3:0.0 4:0.137843 5:0.00321215 6:0.003333 
1.0 1:0.749555 2:0.755832 3:0.0 4:0.137843 5:0.00327316 6:0.00326015 
1.0 1:0.753078 2:0.690897 3:0.0 4:0.137843 5:0.00328359 6:0.0031904 
1.0 1:0.772031 2:0.688512 3:0.0 4:0.137843 5:0.00326792 6:0.00314826 
1.0 1:0.760412 2:0.742806 3:0.0 4:0.137843 5:0.00317982 6:0.00319322 
1.0 1:0.725416 2:0.70569 3:0.0 4:0.137843 5:0.00315486 6:0.00327277 
1.0 1:0.768385 2:0.693959 3:0.0 4:0.137843 5:0.00311054 6:0.00333544 
1.0 1:0.755039 2:0.72023 3:0.0 4:0.137843 5:0.00310235 6:0.0033565 
1.0 1:0.771294 2:0.709101 3:0.0 4:0.137843 5:0.00310576 6:0.0033638 
1.0 1:0.729327 2:0.716014 3:0.0 4:0.137843 5:0.00313746 6:0.00336454 
1.0 1:0.643774 2:0.710491 3:0.0 4:0.137843 5:0.00317871 6:0.00333019 
1.0 1:0.785518 2:0.709293 3:0.0 4:0.137843 5:0.00323683 6:0.00324203 
1.0 1:0.719248 2:0.706443 3:0.0 4:0.137843 5:0.00326598 6:0.00316171 
1.0 1:0.686856 2:0.677936 3:0.0 4:0.137843 5:0.00323252 6:0.00312443 
1.0 1:0.741758 2:0.699697 3:0.0 4:0.137843 5:0.00321809 6:0.00314646 
1.0 1:0.761099 2:0.72855 3:0.0 4:0.137843 5:0.00317373 6:0.00318479 
1.0 1:0.758589 2:0.723917 3:0.0 4:0.137843 5:0.00315625 6:0.00326394 
1.0 1:0.754561 2:0.722664 3:0.0 4:0.137843 5:0.00311478 6:0.00330915 
1.0 1:0.770226 2:0.730225 3:0.0 4:0.137843 5:0.00311626 6:0.00334882 
1.0 1:0.717052 2:0.723152 3:0.0 4:0.137843 5:0.00314657 6:0.00335728 
1.0 1:0.763811 2:0.729788 3:0.0 4:0.137843 5:0.00318471 6:0.0033717 
1.0 1:0.770614 2:0.736071 3:0.0 4:0.137843 5:0.0032258 6:0.00334145 
1.0 1:0.719366 2:0.748574 3:0.0 4:0.137843 5:0.00325342 6:0.0033034 
1.0 1:0.732351 2:0.742753 3:0.0 4:0.137843 5:0.00328541 6:0.00326976 
1.0 1:0.668705 2:0.735797 3:0.0 4:0.137843 5:0.00326712 6:0.00320343 
1.0 1:0.690248 2:0.699853 3:0.0 4:0.137843 5:0.00322302 6:0.00317199 
1.0 1:0.648808 2:0.708449 3:0.0 4:0.137843 5:0.00316046 6:0.0031921 
1.0 1:0.651862 2:0.676003 3:0.0 4:0.137843 5:0.00312081 6:0.00322759 
1.0 1:0.705298 2:0.679827 3:0.0 4:0.137843 5:0.00311608 6:0.00329241 
1.0 1:0.713429 2:0.688597 3:0.0 4:0.137843 5:0.00311914 6:0.0033026 
1.0 1:0.719446 2:0.687441 3:0.0 4:0.137843 5:0.00312144 6:0.00334142 
1.0 1:0.734204 2:0.696082 3:0.0 4:0.137843 5:0.00310278 6:0.00336233 
1.0 1:0.740721 2:0.704307 3:0.0 4:0.137843 5:0.00309573 6:0.0033634 
1.0 1:0.681169 2:0.716786 3:0.0 4:0.137843 5:0.00310927 6:0.00335832 
1.0 1:0.721995 2:0.743807 3:0.0 4:0.137843 5:0.00314964 6:0.00334785 
1.0 1:0.758588 2:0.757126 3:0.0 4:0.137843 5:0.0032208 6:0.00333731 
1.0 1:0.756321 2:0.763675 3:0.0 4:0.137843 5:0.00328234 6:0.00330617 
1.0 1:0.75265 2:0.754454 3:0.0 4:0.137843 5:0.00331651 6:0.00323237 
1.0 1:0.76689 2:0.731621 3:0.0 4:0.137843 5:0.00330896 6:0.00322729 
1.0 1:0.767157 2:0.735641 3:0.0 4:0.137843 5:0.00329794 6:0.00323359 
1.0 1:0.765181 2:0.74126 3:0.0 4:0.137843 5:0.00323891 6:0.00323616 
1.0 1:0.741257 2:0.754252 3:0.0 4:0.137843 5:0.00317606 6:0.0031875 
1.0 1:0.760359 2:0.694039 3:0.0 4:0.137843 5:0.00312064 6:0.00314077 
1.0 1:0.773625 2:0.721383 3:0.0 4:0.137843 5:0.0031024 6:0.00319334 
1.0 1:0.752985 2:0.737673 3:0.0 4:0.137843 5:0.00311076 6:0.00323405 
1.0 1:0.75859 2:0.73307 3:0.0 4:0.137843 5:0.00309163 6:0.00330284 
1.0 1:0.763468 2:0.744345 3:0.0 4:0.137843 5:0.00309088 6:0.00333141 
1.0 1:0.77497 2:0.746349 3:0.0 4:0.137843 5:0.0030891 6:0.0033378 
1.0 1:0.758742 2:0.757479 3:0.0 4:0.137843 5:0.00309846 6:0.00333845 
1.0 1:0.772757 2:0.723023 3:0.0 4:0.137843 5:0.00311946 6:0.00333717 
1.0 1:0.745535 2:0.746815 3:0.0 4:0.137843 5:0.003144 6:0.00334914 
1.0 1:0.753649 2:0.720319 3:0.0 4:0.137843 5:0.0031516 6:0.00333292 
1.0 1:0.76986 2:0.751094 3:0.0 4:0.137843 5:0.00314699 6:0.00333188 
1.0 1:0.770193 2:0.670668 3:0.0 4:0.137843 5:0.00314307 6:0.00333063 
1.0 1:0.760129 2:0.704367 3:0.0 4:0.137843 5:0.00318259 6:0.00332279 
1.0 1:0.700743 2:0.698434 3:0.0 4:0.137843 5:0.00322042 6:0.00329961 
1.0 1:0.770092 2:0.686131 3:0.0 4:0.137843 5:0.00321259 6:0.00329629 
1.0 1:0.683909 2:0.704117 3:0.0 4:0.137843 5:0.00319247 6:0.00331433 
1.0 1:0.672207 2:0.707594 3:0.0 4:0.137843 5:0.00319782 6:0.00333829 
1.0 1:0.691998 2:0.707031 3:0.0 4:0.137843 5:0.00322418 6:0.00333527 
1.0 1:0.704435 2:0.698675 3:0.0 4:0.137843 5:0.00324138 6:0.00332957 
1.0 1:0.775169 2:0.718722 3:0.0 4:0.137843 5:0.00321057 6:0.00333331 
1.0 1:0.70998 2:0.670113 3:0.0 4:0.137843 5:0.00316816 6:0.00333757 
1.0 1:0.767185 2:0.759243 3:0.0 4:0.137843 5:0.00319546 6:0.00333156 
1.0 1:0.737223 2:0.760038 3:0.0 4:0.137843 5:0.00320609 6:0.00331698 
1.0 1:0.656882 2:0.714146 3:0.0 4:0.137843 5:0.00323346 6:0.0033018 
1.0 1:0.655759 2:0.71494 3:0.0 4:0.137843 5:0.00322069 6:0.00328839 
1.0 1:0.711488 2:0.677588 3:0.0 4:0.137843 5:0.00321796 6:0.00327078 
1.0 1:0.732316 2:0.713016 3:0.0 4:0.137843 5:0.00319566 6:0.00325278 
1.0 1:0.714334 2:0.74085 3:0.0 4:0.137843 5:0.00314744 6:0.00326467 
1.0 1:0.653721 2:0.747426 3:0.0 4:0.137843 5:0.0031594 6:0.00329905 
1.0 1:0.670458 2:0.719396 3:0.0 4:0.137843 5:0.00316078 6:0.00331897 
1.0 1:0.719547 2:0.744151 3:0.0 4:0.137843 5:0.00317498 6:0.00333664 
1.0 1:0.692657 2:0.756077 3:0.0 4:0.137843 5:0.00315227 6:0.00333705 
1.0 1:0.747633 2:0.746878 3:0.0 4:0.137843 5:0.00317649 6:0.00335443 
1.0 1:0.676179 2:0.751312 3:0.0 4:0.137843 5:0.00320541 6:0.00335375 
1.0 1:0.747041 2:0.767641 3:0.0 4:0.137843 5:0.00321711 6:0.00334536 
1.0 1:0.72022 2:0.757288 3:0.0 4:0.137843 5:0.0032178 6:0.0033496 
1.0 1:0.716864 2:0.758086 3:0.0 4:0.137843 5:0.00322196 6:0.00335422 
1.0 1:0.696956 2:0.755779 3:0.0 4:0.137843 5:0.00324454 6:0.00335789 
1.0 1:0.725706 2:0.763432 3:0.0 4:0.137843 5:0.00322389 6:0.00336363 
1.0 1:0.760488 2:0.757489 3:0.0 4:0.137843 5:0.00319584 6:0.00332817 
1.0 1:0.739937 2:0.750166 3:0.0 4:0.137843 5:0.00317133 6:0.00333407 
1.0 1:0.7687 2:0.745888 3:0.0 4:0.137843 5:0.00317454 6:0.00330729 
1.0 1:0.754346 2:0.721997 3:0.0 4:0.137843 5:0.00316817 6:0.0033342 
1.0 1:0.754261 2:0.765346 3:0.0 4:0.137843 5:0.00315182 6:0.00331623 
1.0 1:0.746035 2:0.732575 3:0.0 4:0.137843 5:0.00315515 6:0.00332422 
1.0 1:0.773961 2:0.689949 3:0.0 4:0.137843 5:0.00314441 6:0.0033335 
1.0 1:0.761031 2:0.684937 3:0.0 4:0.137843 5:0.00315025 6:0.00335071 
1.0 1:0.751086 2:0.670785 3:0.0 4:0.137843 5:0.00315122 6:0.00337483 
1.0 1:0.774933 2:0.696055 3:0.0 4:0.137843 5:0.00314863 6:0.00337715 
1.0 1:0.776966 2:0.687423 3:0.0 4:0.137843 5:0.00316072 6:0.00337175 
1.0 1:0.767902 2:0.707067 3:0.0 4:0.137843 5:0.0032279 6:0.00337149 
1.0 1:0.729738 2:0.699612 3:0.0 4:0.137843 5:0.00328715 6:0.0033638 
1.0 1:0.737719 2:0.697821 3:0.0 4:0.137843 5:0.00332916 6:0.00335587 
1.0 1:0.79023 2:0.712799 3:0.0 4:0.137843 5:0.00334113 6:0.00335258 
1.0 1:0.783293 2:0.706259 3:0.0 4:0.137843 5:0.00334925 6:0.00332664 
1.0 1:0.752728 2:0.717661 3:0.0 4:0.137843 5:0.00335587 6:0.0033289 
1.0 1:0.770182 2:0.704533 3:0.0 4:0.137843 5:0.00335777 6:0.003283 
1.0 1:0.784576 2:0.714524 3:0.0 4:0.137843 5:0.00335534 6:0.00327455 
1.0 1:0.761506 2:0.718871 3:0.0 4:0.137843 5:0.00331599 6:0.00326991 
1.0 1:0.777138 2:0.723692 3:0.0 4:0.137843 5:0.00324262 6:0.00332094 
1.0 1:0.775912 2:0.718562 3:0.0 4:0.137843 5:0.0031721 6:0.00335768 
1.0 1:0.623259 2:0.712192 3:0.0 4:0.137843 5:0.00316827 6:0.00335167 
1.0 1:0.634013 2:0.718909 3:0.0 4:0.137843 5:0.00320748 6:0.00334367 
1.0 1:0.640464 2:0.71307 3:0.0 4:0.137843 5:0.00327001 6:0.00334195 
1.0 1:0.729894 2:0.709896 3:0.0 4:0.137843 5:0.00331827 6:0.00334995 
1.0 1:0.715554 2:0.723135 3:0.0 4:0.137843 5:0.00335176 6:0.00330172 
1.0 1:0.705088 2:0.711336 3:0.0 4:0.137843 5:0.00331536 6:0.00325831 
1.0 1:0.650779 2:0.70792 3:0.0 4:0.137843 5:0.00327613 6:0.00325999 
1.0 1:0.704 2:0.656643 3:0.0 4:0.137843 5:0.00320113 6:0.00332623 
1.0 1:0.715309 2:0.686839 3:0.0 4:0.137843 5:0.00318811 6:0.00337095 
1.0 1:0.748851 2:0.689759 3:0.0 4:0.137843 5:0.00322395 6:0.00335193 
1.0 1:0.720311 2:0.712893 3:0.0 4:0.137843 5:0.00329422 6:0.00332262 
1.0 1:0.695715 2:0.72428 3:0.0 4:0.137843 5:0.00329814 6:0.00324933 
1.0 1:0.714756 2:0.69499 3:0.0 4:0.137843 5:0.00323998 6:0.003224 
1.0 1:0.758451 2:0.705313 3:0.0 4:0.137843 5:0.00315421 6:0.00325908 
1.0 1:0.711321 2:0.70265 3:0.0 4:0.137843 5:0.00321766 6:0.00333458 
1.0 1:0.729206 2:0.668878 3:0.0 4:0.137843 5:0.00327708 6:0.00338008 
1.0 1:0.717822 2:0.704044 3:0.0 4:0.137843 5:0.00334241 6:0.00334141 
1.0 1:0.75093 2:0.686203 3:0.0 4:0.137843 5:0.00330854 6:0.00326804 
1.0 1:0.772593 2:0.688655 3:0.0 4:0.137843 5:0.0032365 6:0.00320089 
1.0 1:0.78437 2:0.669408 3:0.0 4:0.137843 5:0.00317125 6:0.00323181 
1.0 1:0.784812 2:0.679335 3:0.0 4:0.137843 5:0.00320079 6:0.0033131 
1.0 1:0.675568 2:0.685165 3:0.0 4:0.137843 5:0.00327559 6:0.00334768 
1.0 1:0.772628 2:0.691478 3:0.0 4:0.137843 5:0.00333953 6:0.00332255 
1.0 1:0.769942 2:0.693976 3:0.0 4:0.137843 5:0.00329804 6:0.00324751 
1.0 1:0.779646 2:0.69566 3:0.0 4:0.137843 5:0.00324276 6:0.00323443 
1.0 1:0.765624 2:0.722468 3:0.0 4:0.137843 5:0.00318223 6:0.00328314 
1.0 1:0.777069 2:0.712715 3:0.0 4:0.137843 5:0.00313517 6:0.00334812 
1.0 1:0.759211 2:0.690356 3:0.0 4:0.137843 5:0.00315065 6:0.00336273 
1.0 1:0.758482 2:0.688987 3:0.0 4:0.137843 5:0.00323444 6:0.00335467 
1.0 1:0.717815 2:0.705778 3:0.0 4:0.137843 5:0.00329197 6:0.00330792 
1.0 1:0.723426 2:0.708108 3:0.0 4:0.137843 5:0.00330033 6:0.00323546 
1.0 1:0.756792 2:0.686495 3:0.0 4:0.137843 5:0.00324942 6:0.00318872 
1.0 1:0.765081 2:0.730223 3:0.0 4:0.137843 5:0.00319166 6:0.00325107 
1.0 1:0.770501 2:0.741972 3:0.0 4:0.137843 5:0.00318822 6:0.00331739 
1.0 1:0.783502 2:0.731883 3:0.0 4:0.137843 5:0.00325418 6:0.00337323 
1.0 1:0.666214 2:0.750851 3:0.0 4:0.137843 5:0.00333979 6:0.00332912 
1.0 1:0.566407 2:0.715027 3:0.0 4:0.137843 5:0.00334124 6:0.00325141 
1.0 1:0.743654 2:0.711563 3:0.0 4:0.137843 5:0.00328542 6:0.00317957 
1.0 1:0.762051 2:0.710137 3:0.0 4:0.137843 5:0.00322963 6:0.0032321 
1.0 1:0.765235 2:0.703965 3:0.0 4:0.137843 5:0.00316451 6:0.0033057 
1.0 1:0.766747 2:0.709444 3:0.0 4:0.137843 5:0.00315209 6:0.00335661 
1.0 1:0.704828 2:0.711081 3:0.0 4:0.137843 5:0.00313312 6:0.00334344 
1.0 1:0.778532 2:0.719049 3:0.0 4:0.137843 5:0.00320159 6:0.00331057 
1.0 1:0.779721 2:0.710622 3:0.0 4:0.137843 5:0.00327501 6:0.0032264 
1.0 1:0.726623 2:0.708923 3:0.0 4:0.137843 5:0.00335823 6:0.00316513 
1.0 1:0.736785 2:0.667416 3:0.0 4:0.137843 5:0.00336328 6:0.00318108 
1.0 1:0.707772 2:0.703596 3:0.0 4:0.137843 5:0.00331625 6:0.00327495 
1.0 1:0.746514 2:0.71651 3:0.0 4:0.137843 5:0.00323953 6:0.00334266 
1.0 1:0.755364 2:0.717396 3:0.0 4:0.137843 5:0.00315112 6:0.00335331 
1.0 1:0.763598 2:0.731149 3:0.0 4:0.137843 5:0.00313158 6:0.00334525 
1.0 1:0.750564 2:0.698162 3:0.0 4:0.137843 5:0.00321212 6:0.00328755 
1.0 1:0.737644 2:0.697463 3:0.0 4:0.137843 5:0.00329728 6:0.0032278 
1.0 1:0.722273 2:0.696499 3:0.0 4:0.137843 5:0.00333194 6:0.00322584 
1.0 1:0.690497 2:0.724441 3:0.0 4:0.137843 5:0.00320451 6:0.00330487 
1.0 1:0.773416 2:0.738449 3:0.0 4:0.137843 5:0.00313642 6:0.00329182 
1.0 1:0.740525 2:0.698534 3:0.0 4:0.137843 5:0.00317985 6:0.0032779 
1.0 1:0.742268 2:0.705554 3:0.0 4:0.137843 5:0.00327945 6:0.00326593 
1.0 1:0.714127 2:0.704526 3:0.0 4:0.137843 5:0.00327907 6:0.00325731 
1.0 1:0.765101 2:0.71186 3:0.0 4:0.137843 5:0.00325083 6:0.00330603 
1.0 1:0.710991 2:0.737309 3:0.0 4:0.137843 5:0.00318902 6:0.00332235 
1.0 1:0.725405 2:0.677228 3:0.0 4:0.137843 5:0.00318795 6:0.00330217 
1.0 1:0.746019 2:0.700703 3:0.0 4:0.137843 5:0.00323803 6:0.00323748 
1.0 1:0.678393 2:0.699706 3:0.0 4:0.137843 5:0.00328792 6:0.00324977 
1.0 1:0.757534 2:0.663143 3:0.0 4:0.137843 5:0.00325187 6:0.00326897 
1.0 1:0.730162 2:0.71137 3:0.0 4:0.137843 5:0.00318101 6:0.00329775 
1.0 1:0.738191 2:0.741286 3:0.0 4:0.137843 5:0.00318831 6:0.00322227 
1.0 1:0.718209 2:0.721142 3:0.0 4:0.137843 5:0.00325068 6:0.00324352 
1.0 1:0.620734 2:0.679908 3:0.0 4:0.137843 5:0.00326722 6:0.00323826 
1.0 1:0.671642 2:0.704607 3:0.0 4:0.137843 5:0.00321724 6:0.00332 
1.0 1:0.726686 2:0.695983 3:0.0 4:0.137843 5:0.00321822 6:0.00326226 
1.0 1:0.733597 2:0.712739 3:0.0 4:0.137843 5:0.00317245 6:0.00319712 
1.0 1:0.777245 2:0.66509 3:0.0 4:0.137843 5:0.00311344 6:0.00316961 
1.0 1:0.730259 2:0.686058 3:0.0 4:0.137843 5:0.00314468 6:0.0032075 
1.0 1:0.715951 2:0.677828 3:0.0 4:0.137843 5:0.0032101 6:0.00327663 
1.0 1:0.703016 2:0.653404 3:0.0 4:0.137843 5:0.00320751 6:0.00324814 
1.0 1:0.75531 2:0.694735 3:0.0 4:0.137843 5:0.00315724 6:0.00318337 
1.0 1:0.769783 2:0.71106 3:0.0 4:0.137843 5:0.00311337 6:0.0031154 
1.0 1:0.739973 2:0.678465 3:0.0 4:0.137843 5:0.0031832 6:0.00314309 
1.0 1:0.560408 2:0.672608 3:0.0 4:0.137843 5:0.00323772 6:0.00321835 
1.0 1:0.540829 2:0.626474 3:0.0 4:0.137843 5:0.00318341 6:0.00327305 
1.0 1:0.546063 2:0.678935 3:0.0 4:0.137843 5:0.00315223 6:0.00320329 
1.0 1:0.59129 2:0.679092 3:0.0 4:0.137843 5:0.00317132 6:0.00317727 
1.0 1:0.755523 2:0.670376 3:0.0 4:0.137843 5:0.00326195 6:0.00321412 
1.0 1:0.724051 2:0.681086 3:0.0 4:0.137843 5:0.00329514 6:0.00326344 
1.0 1:0.634076 2:0.683007 3:0.0 4:0.137843 5:0.00330326 6:0.00332111 
1.0 1:0.702337 2:0.683015 3:0.0 4:0.137843 5:0.00332183 6:0.00332864 
1.0 1:0.537529 2:0.633425 3:0.0 4:0.137843 5:0.00332474 6:0.00334765 
1.0 1:0.719526 2:0.725181 3:0.0 4:0.137843 5:0.0033191 6:0.00335064 
1.0 1:0.672317 2:0.737291 3:0.0 4:0.137843 5:0.00326003 6:0.00333852 
1.0 1:0.608627 2:0.662087 3:0.0 4:0.137843 5:0.00311627 6:0.00320038 
1.0 1:0.612606 2:0.651869 3:0.0 4:0.137843 5:0.00309641 6:0.00311136 
1.0 1:0.650801 2:0.70373 3:0.0 4:0.137843 5:0.00309214 6:0.00309054 
1.0 1:0.640523 2:0.667741 3:0.0 4:0.137843 5:0.00314343 6:0.00314249 
1.0 1:0.713321 2:0.656274 3:0.0 4:0.137843 5:0.00321374 6:0.00322249 
1.0 1:0.64201 2:0.648263 3:0.0 4:0.137843 5:0.0 6:0.0 
1.0 1:0.602039 2:0.646958 3:0.0 4:0.137843 5:0.00312056 6:0.0 
1.0 1:0.622436 2:0.652196 3:0.0 4:0.137843 5:0.00313171 6:0.00308634 
1.0 1:0.645928 2:0.734029 3:0.0 4:0.137843 5:0.00312094 6:0.00309325 
1.0 1:0.628726 2:0.682368 3:0.0 4:0.137843 5:0.0031222 6:0.00311339 
1.0 1:0.66855 2:0.651397 3:0.0 4:0.137843 5:0.00310443 6:0.00313859 
1.0 1:0.674786 2:0.706841 3:0.0 4:0.137843 5:0.00309965 6:0.00318455 
1.0 1:0.681505 2:0.682173 3:0.0 4:0.137843 5:0.00309416 6:0.00315789 
1.0 1:0.643618 2:0.733851 3:0.0 4:0.137843 5:0.00308649 6:0.00312495 
1.0 1:0.626094 2:0.736236 3:0.0 4:0.137843 5:0.00308822 6:0.00311371 
1.0 1:0.653003 2:0.669578 3:0.0 4:0.137843 5:0.00309079 6:0.00310199 
1.0 1:0.698779 2:0.680403 3:0.0 4:0.137843 5:0.00310428 6:0.00308533 
1.0 1:0.683375 2:0.687483 3:0.0 4:0.137843 5:0.00309473 6:0.00308742 
1.0 1:0.646955 2:0.693981 3:0.0 4:0.137843 5:0.00309283 6:0.00308559 
1.0 1:0.684306 2:0.707408 3:0.0 4:0.137843 5:0.00310031 6:0.00310677 
1.0 1:0.706887 2:0.69828 3:0.0 4:0.137843 5:0.00314897 6:0.00316686 
1.0 1:0.639979 2:0.717446 3:0.0 4:0.137843 5:0.00323736 6:0.00323882 
1.0 1:0.624066 2:0.686639 3:0.0 4:0.137843 5:0.00324219 6:0.00329794 
1.0 1:0.668038 2:0.680935 3:0.0 4:0.137843 5:0.00318171 6:0.00324418 
1.0 1:0.679087 2:0.698197 3:0.0 4:0.137843 5:0.00311254 6:0.00315921 
1.0 1:0.668858 2:0.702061 3:0.0 4:0.137843 5:0.00309082 6:0.00307894 
1.0 1:0.661688 2:0.720751 3:0.0 4:0.137843 5:0.00309221 6:0.00308337 
1.0 1:0.672803 2:0.675895 3:0.0 4:0.137843 5:0.00316901 6:0.00315608 
1.0 1:0.668924 2:0.706554 3:0.0 4:0.137843 5:0.00320877 6:0.00319046 
1.0 1:0.681397 2:0.702308 3:0.0 4:0.137843 5:0.00318765 6:0.00318218 
1.0 1:0.722489 2:0.682813 3:0.0 4:0.137843 5:0.00314274 6:0.00313225 
1.0 1:0.677702 2:0.663431 3:0.0 4:0.137843 5:0.00310967 6:0.00309614 
1.0 1:0.722438 2:0.6596 3:0.0 4:0.137843 5:0.00309489 6:0.00312172 
1.0 1:0.703159 2:0.704362 3:0.0 4:0.137843 5:0.00311427 6:0.00317842 
1.0 1:0.73725 2:0.681773 3:0.0 4:0.137843 5:0.00323311 6:0.00325825 
1.0 1:0.730729 2:0.669266 3:0.0 4:0.137843 5:0.00327817 6:0.00321489 
1.0 1:0.731896 2:0.668311 3:0.0 4:0.137843 5:0.00326196 6:0.00317126 
1.0 1:0.738192 2:0.665232 3:0.0 4:0.137843 5:0.00323504 6:0.00309836 
1.0 1:0.749771 2:0.679187 3:0.0 4:0.137843 5:0.00319948 6:0.00310603 
1.0 1:0.713843 2:0.669221 3:0.0 4:0.137843 5:0.00317015 6:0.00309588 
1.0 1:0.723841 2:0.67972 3:0.0 4:0.137843 5:0.00313271 6:0.00309483 
1.0 1:0.744177 2:0.686448 3:0.0 4:0.137843 5:0.00312112 6:0.00306627 
1.0 1:0.730826 2:0.675681 3:0.0 4:0.137843 5:0.0030958 6:0.0030627 
1.0 1:0.731027 2:0.679189 3:0.0 4:0.137843 5:0.00308644 6:0.00307453 
1.0 1:0.743323 2:0.681045 3:0.0 4:0.137843 5:0.00307781 6:0.00308011 
1.0 1:0.745848 2:0.680679 3:0.0 4:0.137843 5:0.0030826 6:0.00308571 
1.0 1:0.739825 2:0.679842 3:0.0 4:0.137843 5:0.00309183 6:0.00307432 
1.0 1:0.746961 2:0.666173 3:0.0 4:0.137843 5:0.00309368 6:0.00307311 
1.0 1:0.746495 2:0.721236 3:0.0 4:0.137843 5:0.00309624 6:0.00305887 
1.0 1:0.734651 2:0.678674 3:0.0 4:0.137843 5:0.00308919 6:0.00306268 
1.0 1:0.721537 2:0.728421 3:0.0 4:0.137843 5:0.00309797 6:0.00306274 
1.0 1:0.711392 2:0.70303 3:0.0 4:0.137843 5:0.00315789 6:0.00307128 
1.0 1:0.741233 2:0.704908 3:0.0 4:0.137843 5:0.00322347 6:0.0030733 
1.0 1:0.691542 2:0.660629 3:0.0 4:0.137843 5:0.00326534 6:0.00307438 
1.0 1:0.698474 2:0.665299 3:0.0 4:0.137843 5:0.00321227 6:0.00307434 
1.0 1:0.697142 2:0.723456 3:0.0 4:0.137843 5:0.00309033 6:0.00307236 
1.0 1:0.712228 2:0.729765 3:0.0 4:0.137843 5:0.00308739 6:0.00306806 
1.0 1:0.712342 2:0.720762 3:0.0 4:0.137843 5:0.00308858 6:0.0030674 
1.0 1:0.711399 2:0.723298 3:0.0 4:0.137843 5:0.00307383 6:0.00306746 
1.0 1:0.715373 2:0.741558 3:0.0 4:0.137843 5:0.00307073 6:0.00306088 
1.0 1:0.723578 2:0.755221 3:0.0 4:0.137843 5:0.00307342 6:0.00306085 
1.0 1:0.725344 2:0.752165 3:0.0 4:0.137843 5:0.00306199 6:0.00306571 
1.0 1:0.721788 2:0.758701 3:0.0 4:0.137843 5:0.0030701 6:0.00306706 
1.0 1:0.729709 2:0.749537 3:0.0 4:0.137843 5:0.00308196 6:0.00307214 
1.0 1:0.702998 2:0.750942 3:0.0 4:0.137843 5:0.00311291 6:0.0030757 
1.0 1:0.702348 2:0.744351 3:0.0 4:0.137843 5:0.00312839 6:0.00307843 
1.0 1:0.720642 2:0.747815 3:0.0 4:0.137843 5:0.00314999 6:0.00307076 
1.0 1:0.725867 2:0.744621 3:0.0 4:0.137843 5:0.00314319 6:0.00308299 
1.0 1:0.714776 2:0.742381 3:0.0 4:0.137843 5:0.00314774 6:0.00307866 
1.0 1:0.698911 2:0.745482 3:0.0 4:0.137843 5:0.00314403 6:0.00307568 
1.0 1:0.729944 2:0.739272 3:0.0 4:0.137843 5:0.00311758 6:0.00307363 
1.0 1:0.717633 2:0.740048 3:0.0 4:0.137843 5:0.00310238 6:0.00307655 
1.0 1:0.722566 2:0.769388 3:0.0 4:0.137843 5:0.00309449 6:0.00309107 
1.0 1:0.668049 2:0.770237 3:0.0 4:0.137843 5:0.00309589 6:0.00308794 
1.0 1:0.675577 2:0.737976 3:0.0 4:0.137843 5:0.00309309 6:0.00308874 
1.0 1:0.734129 2:0.761657 3:0.0 4:0.137843 5:0.00308351 6:0.00308652 
1.0 1:0.735442 2:0.749886 3:0.0 4:0.137843 5:0.00309594 6:0.00308122 
1.0 1:0.746016 2:0.754238 3:0.0 4:0.137843 5:0.00309043 6:0.00308155 
1.0 1:0.688178 2:0.751466 3:0.0 4:0.137843 5:0.00308486 6:0.00307439 
1.0 1:0.646138 2:0.767721 3:0.0 4:0.137843 5:0.00309081 6:0.00307841 
1.0 1:0.667874 2:0.782596 3:0.0 4:0.137843 5:0.00309742 6:0.00307764 
1.0 1:0.703532 2:0.755649 3:0.0 4:0.137843 5:0.0030995 6:0.00308649 
1.0 1:0.725159 2:0.733435 3:0.0 4:0.137843 5:0.00309476 6:0.00310928 
1.0 1:0.748943 2:0.734392 3:0.0 4:0.137843 5:0.0030981 6:0.00312769 
1.0 1:0.766958 2:0.713171 3:0.0 4:0.137843 5:0.00309124 6:0.00323246 
1.0 1:0.753769 2:0.715146 3:0.0 4:0.137843 5:0.00308891 6:0.00324793 
1.0 1:0.68812 2:0.691245 3:0.0 4:0.137843 5:0.00310837 6:0.00318056 
1.0 1:0.586802 2:0.681996 3:0.0 4:0.137843 5:0.0 6:0.0 
1.0 1:0.60914 2:0.653193 3:0.0 4:0.137843 5:0.0 6:0.0 
1.0 1:0.630012 2:0.694 3:0.0 4:0.137843 5:0.00314344 6:0.00319403 
1.0 1:0.629579 2:0.710127 3:0.0 4:0.137843 5:0.00315247 6:0.00324578 
1.0 1:0.719641 2:0.709321 3:0.0 4:0.137843 5:0.00310979 6:0.00325385 
1.0 1:0.680909 2:0.726786 3:0.0 4:0.137843 5:0.00310718 6:0.00316685 
1.0 1:0.67019 2:0.733734 3:0.0 4:0.137843 5:0.00316048 6:0.00317573 
1.0 1:0.641555 2:0.722133 3:0.0 4:0.137843 5:0.00315892 6:0.00319499 
1.0 1:0.601351 2:0.728405 3:0.0 4:0.137843 5:0.0031561 6:0.00320006 
1.0 1:0.619752 2:0.743924 3:0.0 4:0.137843 5:0.00314634 6:0.00314164 
1.0 1:0.674201 2:0.736803 3:0.0 4:0.137843 5:0.00314623 6:0.00320638 
1.0 1:0.634498 2:0.720476 3:0.0 4:0.137843 5:0.00314827 6:0.00324542 
1.0 1:0.725735 2:0.723389 3:0.0 4:0.137843 5:0.00311141 6:0.0032404 
1.0 1:0.643542 2:0.746997 3:0.0 4:0.137843 5:0.00311447 6:0.00319466 
1.0 1:0.62317 2:0.728686 3:0.0 4:0.137843 5:0.00316302 6:0.00325516 
1.0 1:0.665661 2:0.734318 3:0.0 4:0.137843 5:0.00316025 6:0.00331632 
1.0 1:0.721901 2:0.659478 3:0.0 4:0.137843 5:0.00317503 6:0.00319498 
1.0 1:0.755792 2:0.663792 3:0.0 4:0.137843 5:0.00322374 6:0.00332098 
1.0 1:0.767623 2:0.671406 3:0.0 4:0.137843 5:0.00316186 6:0.00328815 
1.0 1:0.706143 2:0.693886 3:0.0 4:0.137843 5:0.00311564 6:0.00325097 
1.0 1:0.737611 2:0.685458 3:0.0 4:0.137843 5:0.00310946 6:0.00319205 
1.0 1:0.785619 2:0.693134 3:0.0 4:0.137843 5:0.00311482 6:0.00314835 
1.0 1:0.766239 2:0.68489 3:0.0 4:0.137843 5:0.00314259 6:0.00312312 
1.0 1:0.750367 2:0.686094 3:0.0 4:0.137843 5:0.00323315 6:0.0031342 
1.0 1:0.764452 2:0.716833 3:0.0 4:0.137843 5:0.00327058 6:0.00315728 
1.0 1:0.779972 2:0.735262 3:0.0 4:0.137843 5:0.00324788 6:0.00321135 
1.0 1:0.759769 2:0.727803 3:0.0 4:0.137843 5:0.00318201 6:0.0032525 
1.0 1:0.730465 2:0.710425 3:0.0 4:0.137843 5:0.003119 6:0.00330196 
1.0 1:0.788529 2:0.725232 3:0.0 4:0.137843 5:0.00310782 6:0.0032682 
1.0 1:0.764163 2:0.720233 3:0.0 4:0.137843 5:0.00311136 6:0.00318932 
1.0 1:0.764511 2:0.730373 3:0.0 4:0.137843 5:0.00310253 6:0.00313663 
1.0 1:0.802963 2:0.701396 3:0.0 4:0.137843 5:0.00310357 6:0.00326265 
1.0 1:0.720501 2:0.661615 3:0.0 4:0.137843 5:0.00309825 6:0.00327023 
1.0 1:0.69683 2:0.66072 3:0.0 4:0.137843 5:0.00309245 6:0.0031914 
1.0 1:0.778973 2:0.71177 3:0.0 4:0.137843 5:0.00310077 6:0.0032542 
1.0 1:0.671992 2:0.714022 3:0.0 4:0.137843 5:0.00312766 6:0.00330198 
1.0 1:0.750665 2:0.703853 3:0.0 4:0.137843 5:0.00315093 6:0.00332102 
1.0 1:0.683715 2:0.708901 3:0.0 4:0.137843 5:0.00315953 6:0.00332863 
1.0 1:0.685819 2:0.658725 3:0.0 4:0.137843 5:0.00320558 6:0.00328345 
1.0 1:0.725138 2:0.675213 3:0.0 4:0.137843 5:0.00322353 6:0.00321543 
1.0 1:0.726189 2:0.661883 3:0.0 4:0.137843 5:0.00328143 6:0.00318023 
1.0 1:0.706749 2:0.717117 3:0.0 4:0.137843 5:0.00322126 6:0.0031412 
1.0 1:0.659255 2:0.701806 3:0.0 4:0.137843 5:0.00318919 6:0.00320301 
1.0 1:0.749655 2:0.739969 3:0.0 4:0.137843 5:0.00318279 6:0.00324313 
1.0 1:0.749444 2:0.720379 3:0.0 4:0.137843 5:0.00317088 6:0.0032903 
1.0 1:0.767892 2:0.738178 3:0.0 4:0.137843 5:0.00316297 6:0.00324673 
1.0 1:0.674107 2:0.738019 3:0.0 4:0.137843 5:0.00313761 6:0.00320521 
1.0 1:0.71226 2:0.757644 3:0.0 4:0.137843 5:0.00313508 6:0.00320142 
1.0 1:0.666472 2:0.730703 3:0.0 4:0.137843 5:0.00313099 6:0.00320259 
1.0 1:0.744177 2:0.730757 3:0.0 4:0.137843 5:0.00313643 6:0.00321743 
1.0 1:0.686228 2:0.737499 3:0.0 4:0.137843 5:0.00314745 6:0.00322209 
1.0 1:0.72682 2:0.722052 3:0.0 4:0.137843 5:0.00315403 6:0.00324716 
1.0 1:0.728313 2:0.720218 3:0.0 4:0.137843 5:0.00315248 6:0.00326449 
1.0 1:0.719201 2:0.725839 3:0.0 4:0.137843 5:0.00315356 6:0.00326918 
1.0 1:0.733393 2:0.725956 3:0.0 4:0.137843 5:0.003151 6:0.00327188 
1.0 1:0.723338 2:0.702407 3:0.0 4:0.137843 5:0.00314896 6:0.00326566 
1.0 1:0.735394 2:0.708545 3:0.0 4:0.137843 5:0.00317558 6:0.00323169 
1.0 1:0.730034 2:0.7302 3:0.0 4:0.137843 5:0.00321044 6:0.00321069 
1.0 1:0.693837 2:0.736893 3:0.0 4:0.137843 5:0.00324695 6:0.00323806 
1.0 1:0.744361 2:0.702154 3:0.0 4:0.137843 5:0.00326586 6:0.00333014 
1.0 1:0.728124 2:0.717197 3:0.0 4:0.137843 5:0.00329666 6:0.00338717 
1.0 1:0.733213 2:0.725083 3:0.0 4:0.137843 5:0.00333542 6:0.00339834 
1.0 1:0.675441 2:0.73164 3:0.0 4:0.137843 5:0.00335221 6:0.00334372 
1.0 1:0.693966 2:0.740905 3:0.0 4:0.137843 5:0.00330153 6:0.00333542 
1.0 1:0.70719 2:0.745545 3:0.0 4:0.137843 5:0.0032216 6:0.00333282 
1.0 1:0.755031 2:0.737423 3:0.0 4:0.137843 5:0.00324981 6:0.00339505 
1.0 1:0.670726 2:0.714611 3:0.0 4:0.137843 5:0.00332082 6:0.00335772 
1.0 1:0.657859 2:0.742011 3:0.0 4:0.137843 5:0.0033578 6:0.00335986 
1.0 1:0.683378 2:0.716925 3:0.0 4:0.137843 5:0.00334458 6:0.00334892 
1.0 1:0.766801 2:0.731286 3:0.0 4:0.137843 5:0.00333358 6:0.00336814 
1.0 1:0.758126 2:0.71164 3:0.0 4:0.137843 5:0.00333881 6:0.00336182 
1.0 1:0.510486 2:0.617426 3:0.0 4:0.137843 5:0.0 6:0.0 
1.0 1:0.664329 2:0.662802 3:0.0 4:0.137843 5:0.00338261 6:0.0 
1.0 1:0.685708 2:0.660015 3:0.0 4:0.137843 5:0.00335448 6:0.00338915 
1.0 1:0.657688 2:0.68035 3:0.0 4:0.137843 5:0.00335252 6:0.00338842 
1.0 1:0.674451 2:0.676958 3:0.0 4:0.137843 5:0.00337467 6:0.00336192 
1.0 1:0.760375 2:0.691344 3:0.0 4:0.137843 5:0.00352459 6:0.00342711 
1.0 1:0.692335 2:0.707485 3:0.0 4:0.137843 5:0.00370517 6:0.00363221 
1.0 1:0.675906 2:0.721152 3:0.0 4:0.137843 5:0.0036139 6:0.00344932 
1.0 1:0.748066 2:0.734472 3:0.0 4:0.137843 5:0.00348318 6:0.0034214 
1.0 1:0.747016 2:0.74104 3:0.0 4:0.137843 5:0.0033549 6:0.00341016 
1.0 1:0.725824 2:0.769232 3:0.0 4:0.137843 5:0.00333009 6:0.00340747 
1.0 1:0.733065 2:0.758652 3:0.0 4:0.137843 5:0.00334005 6:0.00334208 
1.0 1:0.673815 2:0.786808 3:0.0 4:0.137843 5:0.00329545 6:0.00334641 
1.0 1:0.727095 2:0.787533 3:0.0 4:0.137843 5:0.00335533 6:0.00332455 
1.0 1:0.757304 2:0.806551 3:0.0 4:0.137843 5:0.00332038 6:0.00337661 
1.0 1:0.757304 2:0.806551 3:0.0 4:0.137843 5:0.00332038 6:0.00337661 
-1.0 1:0.0 2:0.0 3:0.0 4:0.356281 5:0.0 6:0.0 
-1.0 1:0.0 2:0.0 3:0.0 4:0.356281 5:0.0 6:0.0 
-1.0 1:0.772073 2:0.800068 3:0.0 4:0.116257 5:0.0 6:0.0 
-1.0 1:0.74943 2:0.800068 3:0.0 4:0.116257 5:0.0 6:0.0 
-1.0 1:0.759464 2:0.800068 3:0.0 4:0.116257 5:0.0 6:0.0 
-1.0 1:0.750976 2:0.800068 3:0.0 4:0.116257 5:0.0 6:0.0 
-1.0 1:0.759714 2:0.800068 3:0.0 4:0.116257 5:0.00395522 6:0.00334474 
-1.0 1:0.757339 2:0.800068 3:0.0 4:0.116257 5:0.00409504 6:0.00352778 
-1.0 1:0.740829 2:0.800068 3:0.0 4:0.130858 5:0.00427712 6:0.00385282 
-1.0 1:0.736202 2:0.800068 3:0.0 4:0.130858 5:0.00434365 6:0.00374576 
-1.0 1:0.747094 2:0.800068 3:0.0 4:0.130858 5:0.00438147 6:0.00375326 
-1.0 1:0.75107 2:0.800068 3:0.0 4:0.130858 5:0.00436426 6:0.00376558 
-1.0 1:0.763425 2:0.800068 3:0.0 4:0.130858 5:0.00431945 6:0.00381158 
-1.0 1:0.764874 2:0.800068 3:0.0 4:0.130858 5:0.00427839 6:0.00379807 
-1.0 1:0.759454 2:0.800068 3:0.0 4:0.130858 5:0.00425279 6:0.00376098 
-1.0 1:0.774023 2:0.800068 3:0.0 4:0.130858 5:0.00419147 6:0.00374625 
-1.0 1:0.764292 2:0.800068 3:0.0 4:0.130858 5:0.00415365 6:0.00375641 
-1.0 1:0.759772 2:0.800068 3:0.0 4:0.130858 5:0.00414725 6:0.00374204 
-1.0 1:0.762667 2:0.800068 3:0.0 4:0.130858 5:0.00416244 6:0.00363452 
-1.0 1:0.773812 2:0.800068 3:0.0 4:0.130858 5:0.00403999 6:0.00353755 
-1.0 1:0.777184 2:0.800068 3:0.0 4:0.130858 5:0.00400806 6:0.00357075 
-1.0 1:0.753546 2:0.800068 3:0.0 4:0.130858 5:0.00432538 6:0.00372054 
-1.0 1:0.732627 2:0.800068 3:0.0 4:0.145872 5:0.00433071 6:0.00371373 
-1.0 1:0.750732 2:0.800068 3:0.0 4:0.145872 5:0.00430101 6:0.00371733 
-1.0 1:0.764006 2:0.800068 3:0.0 4:0.145872 5:0.00429096 6:0.00370234 
-1.0 1:0.77447 2:0.800068 3:0.0 4:0.145872 5:0.00429597 6:0.00374701 
-1.0 1:0.763363 2:0.800068 3:0.0 4:0.145872 5:0.00397905 6:0.00358216 
-1.0 1:0.741201 2:0.800068 3:0.0 4:0.145872 5:0.00396607 6:0.00358499 
-1.0 1:0.772806 2:0.800068 3:0.0 4:0.145872 5:0.00397092 6:0.00355035 
-1.0 1:0.770787 2:0.800068 3:0.0 4:0.145872 5:0.00404607 6:0.00365969 
-1.0 1:0.741136 2:0.800068 3:0.0 4:0.145872 5:0.00406286 6:0.00370247 
-1.0 1:0.744911 2:0.800068 3:0.0 4:0.145872 5:0.0040482 6:0.00366529 
-1.0 1:0.761162 2:0.800068 3:0.0 4:0.145872 5:0.00401264 6:0.00362916 
-1.0 1:0.775782 2:0.800068 3:0.0 4:0.145872 5:0.00406045 6:0.00347241 
-1.0 1:0.74721 2:0.800068 3:0.0 4:0.145872 5:0.00412806 6:0.00351162 
-1.0 1:0.753849 2:0.800068 3:0.0 4:0.145872 5:0.0041378 6:0.00362641 
-1.0 1:0.749273 2:0.800068 3:0.0 4:0.145872 5:0.00472799 6:0.00430865 
-1.0 1:0.738068 2:0.800068 3:0.0 4:0.145872 5:0.00433219 6:0.00367422 
-1.0 1:0.735437 2:0.800068 3:0.0 4:0.145872 5:0.00434581 6:0.00364452 
-1.0 1:0.75102 2:0.800068 3:0.0 4:0.145872 5:0.00434849 6:0.00363679 
-1.0 1:0.758903 2:0.800068 3:0.0 4:0.145872 5:0.00435505 6:0.00367961 
-1.0 1:0.771337 2:0.800068 3:0.0 4:0.145872 5:0.00425856 6:0.00372486 
-1.0 1:0.74613 2:0.800068 3:0.0 4:0.158938 5:0.0 6:0.00378146 
-1.0 1:0.749455 2:0.800068 3:0.0 4:0.164506 5:0.00422908 6:0.00360626 
-1.0 1:0.756043 2:0.800068 3:0.0 4:0.164506 5:0.0042585 6:0.00366383 
-1.0 1:0.756691 2:0.800068 3:0.0 4:0.164506 5:0.00418104 6:0.00367166 
-1.0 1:0.757836 2:0.800068 3:0.0 4:0.164506 5:0.00425213 6:0.00367738 
-1.0 1:0.738603 2:0.800068 3:0.0 4:0.147484 5:0.00500858 6:0.00386141 
-1.0 1:0.75482 2:0.800068 3:0.0 4:0.147484 5:0.00523508 6:0.003861 
-1.0 1:0.746962 2:0.800068 3:0.0 4:0.147484 5:0.00549999 6:0.00381911 
-1.0 1:0.762115 2:0.800068 3:0.0 4:0.147484 5:0.0 6:0.00382008 
-1.0 1:0.748889 2:0.800068 3:0.0 4:0.147484 5:0.0 6:0.00414243 
-1.0 1:0.758793 2:0.800068 3:0.0 4:0.147484 5:0.00600819 6:0.00412154 
-1.0 1:0.745358 2:0.800068 3:0.0 4:0.147484 5:0.0 6:0.00378773 
-1.0 1:0.753943 2:0.800068 3:0.0 4:0.147484 5:0.00431653 6:0.00369934 
-1.0 1:0.770099 2:0.800068 3:0.0 4:0.147484 5:0.00422019 6:0.00363776 
-1.0 1:0.743451 2:0.800068 3:0.0 4:0.147484 5:0.00421943 6:0.00364111 
-1.0 1:0.756667 2:0.800068 3:0.0 4:0.147484 5:0.0 6:0.00373708 
-1.0 1:0.761128 2:0.800068 3:0.0 4:0.147484 5:0.00417777 6:0.00369996 
-1.0 1:0.748474 2:0.800068 3:0.0 4:0.147484 5:0.00419288 6:0.00367125 
-1.0 1:0.753686 2:0.800068 3:0.0 4:0.162917 5:0.0 6:0.0 
-1.0 1:0.746258 2:0.800068 3:0.0 4:0.162917 5:0.0 6:0.00399564 
-1.0 1:0.763636 2:0.800068 3:0.0 4:0.162917 5:0.0059258 6:0.0038838 
-1.0 1:0.759576 2:0.800068 3:0.0 4:0.162917 5:0.0 6:0.00392276 
-1.0 1:0.748233 2:0.800068 3:0.0 4:0.162917 5:0.0 6:0.00378862 
-1.0 1:0.758281 2:0.800068 3:0.0 4:0.162917 5:0.0 6:0.00406105 
-1.0 1:0.759193 2:0.800068 3:0.0 4:0.162917 5:0.0 6:0.00385995 
-1.0 1:0.754374 2:0.800068 3:0.0 4:0.137278 5:0.0 6:0.0 
-1.0 1:0.77038 2:0.800068 3:0.0 4:0.137278 5:0.0 6:0.0 
-1.0 1:0.752684 2:0.800068 3:0.0 4:0.137278 5:0.0 6:0.0 
-1.0 1:0.746311 2:0.800068 3:0.0 4:0.137278 5:0.0 6:0.0 
-1.0 1:0.742893 2:0.800068 3:0.0 4:0.137278 5:0.0 6:0.00375349 
-1.0 1:0.755845 2:0.800068 3:0.0 4:0.137278 5:0.0043992 6:0.00374458 
-1.0 1:0.73638 2:0.800068 3:0.0 4:0.137278 5:0.00440186 6:0.00371327 
-1.0 1:0.745964 2:0.800068 3:0.0 4:0.137278 5:0.00438252 6:0.00375911 
-1.0 1:0.763788 2:0.800068 3:0.0 4:0.137278 5:0.0043707 6:0.00371695 
-1.0 1:0.772436 2:0.800068 3:0.0 4:0.137278 5:0.00445911 6:0.00372724 
-0.3009506352293727 1:0.77706 2:0.800068 3:0.0 4:0.137278 5:0.0 6:0.0 
-1.0 1:0.756938 2:0.800068 3:0.0 4:0.152517 5:0.0 6:0.0 
-1.0 1:0.762434 2:0.800068 3:0.0 4:0.152517 5:0.0 6:0.00393744 
-1.0 1:0.766314 2:0.800068 3:0.0 4:0.152517 5:0.0 6:0.00392963 
-1.0 1:0.757633 2:0.800068 3:0.0 4:0.152517 5:0.00506189 6:0.00401941 
-1.0 1:0.742262 2:0.800068 3:0.0 4:0.152517 5:0.0 6:0.0043561 
-1.0 1:0.759729 2:0.800068 3:0.0 4:0.152517 5:0.0 6:0.00429709 
-1.0 1:0.76024 2:0.800068 3:0.0 4:0.161698 5:0.0 6:0.00437468 
-1.0 1:0.755178 2:0.800068 3:0.0 4:0.161698 5:0.0 6:0.00404031 
-1.0 1:0.758136 2:0.800068 3:0.0 4:0.161698 5:0.00438035 6:0.00371123 
-1.0 1:0.753167 2:0.800068 3:0.0 4:0.161698 5:0.00435188 6:0.003725 
-1.0 1:0.762415 2:0.800068 3:0.0 4:0.161698 5:0.00433629 6:0.00371757 
-1.0 1:0.74316 2:0.800068 3:0.0 4:0.161698 5:0.00414688 6:0.00353834 
-1.0 1:0.746574 2:0.800068 3:0.0 4:0.161698 5:0.00410143 6:0.00345046 
-1.0 1:0.744321 2:0.800068 3:0.0 4:0.161698 5:0.00406503 6:0.00345098 
-1.0 1:0.752491 2:0.800068 3:0.0 4:0.161698 5:0.00404562 6:0.0034655 
-1.0 1:0.741401 2:0.800068 3:0.0 4:0.161698 5:0.00411321 6:0.00353217 
-1.0 1:0.743109 2:0.800068 3:0.0 4:0.161698 5:0.00431755 6:0.00361023 
-1.0 1:0.748733 2:0.800068 3:0.0 4:0.161698 5:0.00432736 6:0.00364514 
-1.0 1:0.75456 2:0.800068 3:0.0 4:0.161698 5:0.00428524 6:0.0036428 
-1.0 1:0.762077 2:0.800068 3:0.0 4:0.161698 5:0.00426826 6:0.00365241 
-1.0 1:0.74897 2:0.800068 3:0.0 4:0.161698 5:0.00424681 6:0.00370539 
-1.0 1:0.753599 2:0.800068 3:0.0 4:0.161698 5:0.00426674 6:0.00375087 
-1.0 1:0.749899 2:0.800068 3:0.0 4:0.161698 5:0.0042457 6:0.00372506 
-1.0 1:0.750852 2:0.800068 3:0.0 4:0.161698 5:0.00425882 6:0.00371363 
-1.0 1:0.764716 2:0.800068 3:0.0 4:0.161698 5:0.00422983 6:0.00363482 
-1.0 1:0.753783 2:0.800068 3:0.0 4:0.161698 5:0.00420638 6:0.00374243 
-1.0 1:0.762464 2:0.800068 3:0.0 4:0.161698 5:0.00420184 6:0.00376172 
-1.0 1:0.754685 2:0.800068 3:0.0 4:0.161698 5:0.0043686 6:0.00381894 
-1.0 1:0.745783 2:0.800068 3:0.0 4:0.161698 5:0.00437713 6:0.00387989 
-1.0 1:0.74399 2:0.800068 3:0.0 4:0.161698 5:0.00438986 6:0.00388323 
-1.0 1:0.742621 2:0.800068 3:0.0 4:0.161698 5:0.00439326 6:0.00385476 
-1.0 1:0.745183 2:0.800068 3:0.0 4:0.161698 5:0.00438909 6:0.00386816 
-1.0 1:0.750509 2:0.800068 3:0.0 4:0.161698 5:0.0043991 6:0.00386998 
-1.0 1:0.761873 2:0.800068 3:0.0 4:0.161698 5:0.00440104 6:0.00386742 
-1.0 1:0.751724 2:0.800068 3:0.0 4:0.161698 5:0.00436596 6:0.00392112 
-1.0 1:0.743182 2:0.800068 3:0.0 4:0.161698 5:0.00436334 6:0.00395109 
-1.0 1:0.74271 2:0.800068 3:0.0 4:0.161698 5:0.00436905 6:0.00387767 
-1.0 1:0.746043 2:0.800068 3:0.0 4:0.161698 5:0.00436822 6:0.00383173 
-1.0 1:0.74223 2:0.800068 3:0.0 4:0.161698 5:0.00436727 6:0.00384158 
-1.0 1:0.741523 2:0.800068 3:0.0 4:0.161698 5:0.00438847 6:0.00387546 
-1.0 1:0.763624 2:0.800068 3:0.0 4:0.156322 5:0.0 6:0.0 
-1.0 1:0.746626 2:0.800068 3:0.0 4:0.156322 5:0.0 6:0.0 
-1.0 1:0.75489 2:0.800068 3:0.0 4:0.156322 5:0.00435666 6:0.00373339 
-1.0 1:0.765517 2:0.800068 3:0.0 4:0.156322 5:0.00440388 6:0.00368209 
