<?xml version="1.0" encoding="UTF-8" standalone="yes"?>
<PMML xmlns="http://www.dmg.org/PMML-4_3" xmlns:data="http://jpmml.org/jpmml-model/InlineTable" version="4.3">
	<Header>
		<Application name="JPMML-SkLearn" version="1.5.4"/>
		<Timestamp>2018-07-27T08:20:18Z</Timestamp>
	</Header>
	<MiningBuildTask>
		<Extension>PMMLPipeline(steps=[('classifier', RandomForestClassifier(bootstrap=True, class_weight=None, criterion='gini',
            max_depth=None, max_features='auto', max_leaf_nodes=None,
            min_impurity_decrease=0.0, min_impurity_split=None,
            min_samples_leaf=1, min_samples_split=2,
            min_weight_fraction_leaf=0.0, n_estimators=10, n_jobs=1,
            oob_score=True, random_state=10, verbose=0, warm_start=False))])</Extension>
	</MiningBuildTask>
	<DataDictionary>
		<DataField name="y" optype="categorical" dataType="integer">
			<Value value="0"/>
			<Value value="1"/>
		</DataField>
		<DataField name="temperature" optype="continuous" dataType="float"/>
		<DataField name="heartrate" optype="continuous" dataType="float"/>
		<DataField name="weight" optype="continuous" dataType="float"/>
		<DataField name="D" optype="continuous" dataType="float"/>
		<DataField name="S" optype="continuous" dataType="float"/>
	</DataDictionary>
	<TransformationDictionary>
		<DerivedField name="double(temperature)" optype="continuous" dataType="double">
			<FieldRef field="temperature"/>
		</DerivedField>
		<DerivedField name="double(D)" optype="continuous" dataType="double">
			<FieldRef field="D"/>
		</DerivedField>
		<DerivedField name="double(heartrate)" optype="continuous" dataType="double">
			<FieldRef field="heartrate"/>
		</DerivedField>
		<DerivedField name="double(S)" optype="continuous" dataType="double">
			<FieldRef field="S"/>
		</DerivedField>
		<DerivedField name="double(weight)" optype="continuous" dataType="double">
			<FieldRef field="weight"/>
		</DerivedField>
	</TransformationDictionary>
	<MiningModel functionName="classification">
		<MiningSchema>
			<MiningField name="y" usageType="target"/>
			<MiningField name="temperature"/>
			<MiningField name="weight"/>
			<MiningField name="heartrate"/>
			<MiningField name="D"/>
			<MiningField name="S"/>
		</MiningSchema>
		<Output>
			<OutputField name="probability(0)" optype="continuous" dataType="double" feature="probability" value="0"/>
			<OutputField name="probability(1)" optype="continuous" dataType="double" feature="probability" value="1"/>
		</Output>
		<Segmentation multipleModelMethod="average">
			<Segment id="1">
				<True/>
				<TreeModel functionName="classification" missingValueStrategy="nullPrediction" splitCharacteristic="multiSplit">
					<MiningSchema>
						<MiningField name="temperature"/>
						<MiningField name="D"/>
						<MiningField name="heartrate"/>
						<MiningField name="S"/>
						<MiningField name="weight"/>
					</MiningSchema>
					<Node>
						<True/>
						<Node>
							<SimplePredicate field="double(temperature)" operator="lessOrEqual" value="36.99999237060547"/>
							<Node>
								<SimplePredicate field="double(temperature)" operator="lessOrEqual" value="35.999908447265625"/>
								<Node>
									<SimplePredicate field="double(D)" operator="lessOrEqual" value="139.5"/>
									<Node>
										<SimplePredicate field="double(heartrate)" operator="lessOrEqual" value="100.5"/>
										<Node>
											<SimplePredicate field="double(heartrate)" operator="lessOrEqual" value="59.5"/>
											<Node score="1" recordCount="139.0">
												<SimplePredicate field="double(D)" operator="lessOrEqual" value="89.5"/>
												<ScoreDistribution value="0" recordCount="0.0"/>
												<ScoreDistribution value="1" recordCount="139.0"/>
											</Node>
											<Node>
												<SimplePredicate field="double(temperature)" operator="lessOrEqual" value="35.942752838134766"/>
												<Node>
													<SimplePredicate field="double(D)" operator="lessOrEqual" value="91.5"/>
													<Node score="1" recordCount="5.0">
														<SimplePredicate field="double(S)" operator="lessOrEqual" value="60.0"/>
														<ScoreDistribution value="0" recordCount="0.0"/>
														<ScoreDistribution value="1" recordCount="5.0"/>
													</Node>
													<Node score="0" recordCount="17.0">
														<SimplePredicate field="double(temperature)" operator="lessOrEqual" value="35.76072311401367"/>
														<ScoreDistribution value="0" recordCount="17.0"/>
														<ScoreDistribution value="1" recordCount="0.0"/>
													</Node>
													<Node score="0" recordCount="5.0">
														<SimplePredicate field="double(S)" operator="lessOrEqual" value="86.0"/>
														<ScoreDistribution value="0" recordCount="5.0"/>
														<ScoreDistribution value="1" recordCount="0.0"/>
													</Node>
													<Node score="1" recordCount="2.0">
														<True/>
														<ScoreDistribution value="0" recordCount="0.0"/>
														<ScoreDistribution value="1" recordCount="2.0"/>
													</Node>
												</Node>
												<Node>
													<SimplePredicate field="double(S)" operator="lessOrEqual" value="89.5"/>
													<Node>
														<SimplePredicate field="double(weight)" operator="lessOrEqual" value="56.5"/>
														<Node>
															<SimplePredicate field="double(heartrate)" operator="lessOrEqual" value="55.5"/>
															<Node score="0" recordCount="16.0">
																<SimplePredicate field="double(D)" operator="lessOrEqual" value="122.0"/>
																<ScoreDistribution value="0" recordCount="16.0"/>
																<ScoreDistribution value="1" recordCount="0.0"/>
															</Node>
															<Node score="1" recordCount="11.0">
																<SimplePredicate field="double(S)" operator="lessOrEqual" value="64.5"/>
																<ScoreDistribution value="0" recordCount="0.0"/>
																<ScoreDistribution value="1" recordCount="11.0"/>
															</Node>
															<Node score="0" recordCount="6.0">
																<True/>
																<ScoreDistribution value="0" recordCount="6.0"/>
																<ScoreDistribution value="1" recordCount="0.0"/>
															</Node>
														</Node>
														<Node score="1" recordCount="11.0">
															<SimplePredicate field="double(S)" operator="lessOrEqual" value="59.5"/>
															<ScoreDistribution value="0" recordCount="0.0"/>
															<ScoreDistribution value="1" recordCount="11.0"/>
														</Node>
														<Node score="0" recordCount="97.0">
															<True/>
															<ScoreDistribution value="0" recordCount="97.0"/>
															<ScoreDistribution value="1" recordCount="0.0"/>
														</Node>
													</Node>
													<Node>
														<SimplePredicate field="double(weight)" operator="lessOrEqual" value="77.5"/>
														<Node>
															<SimplePredicate field="double(temperature)" operator="lessOrEqual" value="35.911537170410156"/>
															<Node score="1" recordCount="61.0">
																<SimplePredicate field="double(S)" operator="lessOrEqual" value="59.5"/>
																<ScoreDistribution value="0" recordCount="0.0"/>
																<ScoreDistribution value="1" recordCount="61.0"/>
															</Node>
															<Node score="0" recordCount="129.0">
																<True/>
																<ScoreDistribution value="0" recordCount="129.0"/>
																<ScoreDistribution value="1" recordCount="0.0"/>
															</Node>
														</Node>
														<Node score="0" recordCount="13.0">
															<True/>
															<ScoreDistribution value="0" recordCount="13.0"/>
															<ScoreDistribution value="1" recordCount="0.0"/>
														</Node>
													</Node>
													<Node>
														<SimplePredicate field="double(weight)" operator="lessOrEqual" value="79.5"/>
														<Node score="1" recordCount="1.0">
															<SimplePredicate field="double(S)" operator="lessOrEqual" value="56.5"/>
															<ScoreDistribution value="0" recordCount="0.0"/>
															<ScoreDistribution value="1" recordCount="1.0"/>
														</Node>
														<Node score="0" recordCount="24.0">
															<True/>
															<ScoreDistribution value="0" recordCount="24.0"/>
															<ScoreDistribution value="1" recordCount="0.0"/>
														</Node>
													</Node>
													<Node score="1" recordCount="2.0">
														<SimplePredicate field="double(S)" operator="lessOrEqual" value="59.5"/>
														<ScoreDistribution value="0" recordCount="0.0"/>
														<ScoreDistribution value="1" recordCount="2.0"/>
													</Node>
													<Node score="0" recordCount="5.0">
														<True/>
														<ScoreDistribution value="0" recordCount="5.0"/>
														<ScoreDistribution value="1" recordCount="0.0"/>
													</Node>
												</Node>
												<Node score="1" recordCount="282.0">
													<True/>
													<ScoreDistribution value="0" recordCount="0.0"/>
													<ScoreDistribution value="1" recordCount="282.0"/>
												</Node>
											</Node>
											<Node>
												<SimplePredicate field="double(D)" operator="lessOrEqual" value="128.5"/>
												<Node>
													<SimplePredicate field="double(D)" operator="lessOrEqual" value="116.5"/>
													<Node>
														<SimplePredicate field="double(S)" operator="lessOrEqual" value="88.0"/>
														<Node score="1" recordCount="8.0">
															<SimplePredicate field="double(S)" operator="lessOrEqual" value="58.5"/>
															<ScoreDistribution value="0" recordCount="0.0"/>
															<ScoreDistribution value="1" recordCount="8.0"/>
														</Node>
														<Node score="0" recordCount="10.0">
															<True/>
															<ScoreDistribution value="0" recordCount="10.0"/>
															<ScoreDistribution value="1" recordCount="0.0"/>
														</Node>
													</Node>
													<Node score="1" recordCount="17.0">
														<True/>
														<ScoreDistribution value="0" recordCount="0.0"/>
														<ScoreDistribution value="1" recordCount="17.0"/>
													</Node>
												</Node>
												<Node score="0" recordCount="8.0">
													<SimplePredicate field="double(S)" operator="lessOrEqual" value="87.0"/>
													<ScoreDistribution value="0" recordCount="8.0"/>
													<ScoreDistribution value="1" recordCount="0.0"/>
												</Node>
												<Node score="1" recordCount="5.0">
													<True/>
													<ScoreDistribution value="0" recordCount="0.0"/>
													<ScoreDistribution value="1" recordCount="5.0"/>
												</Node>
											</Node>
											<Node>
												<SimplePredicate field="double(S)" operator="lessOrEqual" value="81.5"/>
												<Node score="1" recordCount="6.0">
													<SimplePredicate field="double(S)" operator="lessOrEqual" value="60.5"/>
													<ScoreDistribution value="0" recordCount="0.0"/>
													<ScoreDistribution value="1" recordCount="6.0"/>
												</Node>
												<Node score="0" recordCount="2.0">
													<True/>
													<ScoreDistribution value="0" recordCount="2.0"/>
													<ScoreDistribution value="1" recordCount="0.0"/>
												</Node>
											</Node>
											<Node score="1" recordCount="28.0">
												<True/>
												<ScoreDistribution value="0" recordCount="0.0"/>
												<ScoreDistribution value="1" recordCount="28.0"/>
											</Node>
										</Node>
										<Node>
											<SimplePredicate field="double(temperature)" operator="lessOrEqual" value="35.560508728027344"/>
											<Node>
												<SimplePredicate field="double(S)" operator="lessOrEqual" value="100.5"/>
												<Node>
													<SimplePredicate field="double(S)" operator="lessOrEqual" value="50.5"/>
													<Node score="0" recordCount="3.0">
														<SimplePredicate field="double(heartrate)" operator="lessOrEqual" value="88.5"/>
														<ScoreDistribution value="0" recordCount="3.0"/>
														<ScoreDistribution value="1" recordCount="0.0"/>
													</Node>
													<Node score="1" recordCount="2.0">
														<True/>
														<ScoreDistribution value="0" recordCount="0.0"/>
														<ScoreDistribution value="1" recordCount="2.0"/>
													</Node>
												</Node>
												<Node>
													<SimplePredicate field="double(S)" operator="lessOrEqual" value="56.5"/>
													<Node>
														<SimplePredicate field="double(temperature)" operator="lessOrEqual" value="35.5031623840332"/>
														<Node score="1" recordCount="3.0">
															<SimplePredicate field="double(D)" operator="lessOrEqual" value="91.0"/>
															<ScoreDistribution value="0" recordCount="0.0"/>
															<ScoreDistribution value="1" recordCount="3.0"/>
														</Node>
														<Node score="0" recordCount="3.0">
															<True/>
															<ScoreDistribution value="0" recordCount="3.0"/>
															<ScoreDistribution value="1" recordCount="0.0"/>
														</Node>
													</Node>
													<Node score="1" recordCount="3.0">
														<SimplePredicate field="double(D)" operator="lessOrEqual" value="86.5"/>
														<ScoreDistribution value="0" recordCount="0.0"/>
														<ScoreDistribution value="1" recordCount="3.0"/>
													</Node>
													<Node score="0" recordCount="53.0">
														<True/>
														<ScoreDistribution value="0" recordCount="53.0"/>
														<ScoreDistribution value="1" recordCount="0.0"/>
													</Node>
												</Node>
												<Node score="0" recordCount="409.0">
													<SimplePredicate field="double(S)" operator="lessOrEqual" value="90.5"/>
													<ScoreDistribution value="0" recordCount="409.0"/>
													<ScoreDistribution value="1" recordCount="0.0"/>
												</Node>
												<Node score="1" recordCount="7.0">
													<SimplePredicate field="double(D)" operator="lessOrEqual" value="89.5"/>
													<ScoreDistribution value="0" recordCount="0.0"/>
													<ScoreDistribution value="1" recordCount="7.0"/>
												</Node>
												<Node score="0" recordCount="118.0">
													<True/>
													<ScoreDistribution value="0" recordCount="118.0"/>
													<ScoreDistribution value="1" recordCount="0.0"/>
												</Node>
											</Node>
											<Node>
												<SimplePredicate field="double(weight)" operator="lessOrEqual" value="79.5"/>
												<Node score="1" recordCount="1.0">
													<SimplePredicate field="double(temperature)" operator="lessOrEqual" value="35.500816345214844"/>
													<ScoreDistribution value="0" recordCount="0.0"/>
													<ScoreDistribution value="1" recordCount="1.0"/>
												</Node>
												<Node>
													<SimplePredicate field="double(heartrate)" operator="lessOrEqual" value="60.5"/>
													<Node score="0" recordCount="1.0">
														<SimplePredicate field="double(temperature)" operator="lessOrEqual" value="35.54228591918945"/>
														<ScoreDistribution value="0" recordCount="1.0"/>
														<ScoreDistribution value="1" recordCount="0.0"/>
													</Node>
													<Node score="1" recordCount="2.0">
														<True/>
														<ScoreDistribution value="0" recordCount="0.0"/>
														<ScoreDistribution value="1" recordCount="2.0"/>
													</Node>
												</Node>
												<Node score="1" recordCount="21.0">
													<SimplePredicate field="double(D)" operator="lessOrEqual" value="89.5"/>
													<ScoreDistribution value="0" recordCount="0.0"/>
													<ScoreDistribution value="1" recordCount="21.0"/>
												</Node>
												<Node score="0" recordCount="188.0">
													<True/>
													<ScoreDistribution value="0" recordCount="188.0"/>
													<ScoreDistribution value="1" recordCount="0.0"/>
												</Node>
											</Node>
											<Node score="1" recordCount="3.0">
												<SimplePredicate field="double(D)" operator="lessOrEqual" value="89.5"/>
												<ScoreDistribution value="0" recordCount="0.0"/>
												<ScoreDistribution value="1" recordCount="3.0"/>
											</Node>
											<Node score="0" recordCount="4.0">
												<True/>
												<ScoreDistribution value="0" recordCount="4.0"/>
												<ScoreDistribution value="1" recordCount="0.0"/>
											</Node>
										</Node>
										<Node>
											<SimplePredicate field="double(D)" operator="lessOrEqual" value="89.5"/>
											<Node>
												<SimplePredicate field="double(temperature)" operator="lessOrEqual" value="35.57671356201172"/>
												<Node score="0" recordCount="1.0">
													<SimplePredicate field="double(weight)" operator="lessOrEqual" value="42.0"/>
													<ScoreDistribution value="0" recordCount="1.0"/>
													<ScoreDistribution value="1" recordCount="0.0"/>
												</Node>
												<Node>
													<SimplePredicate field="double(S)" operator="lessOrEqual" value="88.0"/>
													<Node>
														<SimplePredicate field="double(weight)" operator="lessOrEqual" value="65.5"/>
														<Node score="1" recordCount="2.0">
															<SimplePredicate field="double(D)" operator="lessOrEqual" value="85.0"/>
															<ScoreDistribution value="0" recordCount="0.0"/>
															<ScoreDistribution value="1" recordCount="2.0"/>
														</Node>
														<Node score="0" recordCount="1.0">
															<True/>
															<ScoreDistribution value="0" recordCount="1.0"/>
															<ScoreDistribution value="1" recordCount="0.0"/>
														</Node>
													</Node>
													<Node score="1" recordCount="9.0">
														<True/>
														<ScoreDistribution value="0" recordCount="0.0"/>
														<ScoreDistribution value="1" recordCount="9.0"/>
													</Node>
												</Node>
												<Node score="1" recordCount="18.0">
													<True/>
													<ScoreDistribution value="0" recordCount="0.0"/>
													<ScoreDistribution value="1" recordCount="18.0"/>
												</Node>
											</Node>
											<Node>
												<SimplePredicate field="double(heartrate)" operator="lessOrEqual" value="81.5"/>
												<Node>
													<SimplePredicate field="double(temperature)" operator="lessOrEqual" value="35.97521209716797"/>
													<Node>
														<SimplePredicate field="double(heartrate)" operator="lessOrEqual" value="77.5"/>
														<Node>
															<SimplePredicate field="double(temperature)" operator="lessOrEqual" value="35.60908508300781"/>
															<Node>
																<SimplePredicate field="double(D)" operator="lessOrEqual" value="86.5"/>
																<Node>
																	<SimplePredicate field="double(D)" operator="lessOrEqual" value="83.5"/>
																	<Node>
																		<SimplePredicate field="double(weight)" operator="lessOrEqual" value="65.5"/>
																		<Node>
																			<SimplePredicate field="double(temperature)" operator="lessOrEqual" value="35.5920295715332"/>
																			<Node score="0" recordCount="1.0">
																				<SimplePredicate field="double(heartrate)" operator="lessOrEqual" value="70.5"/>
																				<ScoreDistribution value="0" recordCount="1.0"/>
																				<ScoreDistribution value="1" recordCount="0.0"/>
																			</Node>
																			<Node score="1" recordCount="1.0">
																				<True/>
																				<ScoreDistribution value="0" recordCount="0.0"/>
																				<ScoreDistribution value="1" recordCount="1.0"/>
																			</Node>
																		</Node>
																		<Node score="0" recordCount="9.0">
																			<True/>
																			<ScoreDistribution value="0" recordCount="9.0"/>
																			<ScoreDistribution value="1" recordCount="0.0"/>
																		</Node>
																	</Node>
																	<Node score="1" recordCount="7.0">
																		<SimplePredicate field="double(weight)" operator="lessOrEqual" value="68.5"/>
																		<ScoreDistribution value="0" recordCount="0.0"/>
																		<ScoreDistribution value="1" recordCount="7.0"/>
																	</Node>
																	<Node score="0" recordCount="3.0">
																		<SimplePredicate field="double(weight)" operator="lessOrEqual" value="77.0"/>
																		<ScoreDistribution value="0" recordCount="3.0"/>
																		<ScoreDistribution value="1" recordCount="0.0"/>
																	</Node>
																	<Node score="1" recordCount="1.0">
																		<True/>
																		<ScoreDistribution value="0" recordCount="0.0"/>
																		<ScoreDistribution value="1" recordCount="1.0"/>
																	</Node>
																</Node>
																<Node>
																	<SimplePredicate field="double(D)" operator="lessOrEqual" value="84.5"/>
																	<Node score="1" recordCount="1.0">
																		<SimplePredicate field="double(weight)" operator="lessOrEqual" value="61.0"/>
																		<ScoreDistribution value="0" recordCount="0.0"/>
																		<ScoreDistribution value="1" recordCount="1.0"/>
																	</Node>
																	<Node score="0" recordCount="4.0">
																		<True/>
																		<ScoreDistribution value="0" recordCount="4.0"/>
																		<ScoreDistribution value="1" recordCount="0.0"/>
																	</Node>
																</Node>
																<Node score="0" recordCount="13.0">
																	<True/>
																	<ScoreDistribution value="0" recordCount="13.0"/>
																	<ScoreDistribution value="1" recordCount="0.0"/>
																</Node>
															</Node>
															<Node>
																<SimplePredicate field="double(weight)" operator="lessOrEqual" value="51.5"/>
																<Node score="0" recordCount="3.0">
																	<SimplePredicate field="double(S)" operator="lessOrEqual" value="95.5"/>
																	<ScoreDistribution value="0" recordCount="3.0"/>
																	<ScoreDistribution value="1" recordCount="0.0"/>
																</Node>
																<Node score="1" recordCount="3.0">
																	<True/>
																	<ScoreDistribution value="0" recordCount="0.0"/>
																	<ScoreDistribution value="1" recordCount="3.0"/>
																</Node>
															</Node>
															<Node score="1" recordCount="5.0">
																<True/>
																<ScoreDistribution value="0" recordCount="0.0"/>
																<ScoreDistribution value="1" recordCount="5.0"/>
															</Node>
														</Node>
														<Node>
															<SimplePredicate field="double(temperature)" operator="lessOrEqual" value="35.660850524902344"/>
															<Node>
																<SimplePredicate field="double(heartrate)" operator="lessOrEqual" value="62.5"/>
																<Node>
																	<SimplePredicate field="double(heartrate)" operator="lessOrEqual" value="61.5"/>
																	<Node score="0" recordCount="1.0">
																		<SimplePredicate field="double(weight)" operator="lessOrEqual" value="62.5"/>
																		<ScoreDistribution value="0" recordCount="1.0"/>
																		<ScoreDistribution value="1" recordCount="0.0"/>
																	</Node>
																	<Node score="1" recordCount="6.0">
																		<SimplePredicate field="double(weight)" operator="lessOrEqual" value="78.5"/>
																		<ScoreDistribution value="0" recordCount="0.0"/>
																		<ScoreDistribution value="1" recordCount="6.0"/>
																	</Node>
																	<Node score="0" recordCount="1.0">
																		<True/>
																		<ScoreDistribution value="0" recordCount="1.0"/>
																		<ScoreDistribution value="1" recordCount="0.0"/>
																	</Node>
																</Node>
																<Node score="0" recordCount="3.0">
																	<True/>
																	<ScoreDistribution value="0" recordCount="3.0"/>
																	<ScoreDistribution value="1" recordCount="0.0"/>
																</Node>
															</Node>
															<Node>
																<SimplePredicate field="double(S)" operator="lessOrEqual" value="89.0"/>
																<Node>
																	<SimplePredicate field="double(D)" operator="lessOrEqual" value="86.5"/>
																	<Node score="1" recordCount="6.0">
																		<SimplePredicate field="double(S)" operator="lessOrEqual" value="62.0"/>
																		<ScoreDistribution value="0" recordCount="0.0"/>
																		<ScoreDistribution value="1" recordCount="6.0"/>
																	</Node>
																	<Node score="0" recordCount="1.0">
																		<True/>
																		<ScoreDistribution value="0" recordCount="1.0"/>
																		<ScoreDistribution value="1" recordCount="0.0"/>
																	</Node>
																</Node>
																<Node score="1" recordCount="2.0">
																	<SimplePredicate field="double(S)" operator="lessOrEqual" value="62.0"/>
																	<ScoreDistribution value="0" recordCount="0.0"/>
																	<ScoreDistribution value="1" recordCount="2.0"/>
																</Node>
																<Node score="0" recordCount="8.0">
																	<True/>
																	<ScoreDistribution value="0" recordCount="8.0"/>
																	<ScoreDistribution value="1" recordCount="0.0"/>
																</Node>
															</Node>
															<Node score="1" recordCount="31.0">
																<True/>
																<ScoreDistribution value="0" recordCount="0.0"/>
																<ScoreDistribution value="1" recordCount="31.0"/>
															</Node>
														</Node>
														<Node>
															<SimplePredicate field="double(S)" operator="lessOrEqual" value="89.5"/>
															<Node>
																<SimplePredicate field="double(weight)" operator="lessOrEqual" value="50.5"/>
																<Node score="1" recordCount="4.0">
																	<SimplePredicate field="double(S)" operator="lessOrEqual" value="58.5"/>
																	<ScoreDistribution value="0" recordCount="0.0"/>
																	<ScoreDistribution value="1" recordCount="4.0"/>
																</Node>
																<Node score="0" recordCount="42.0">
																	<True/>
																	<ScoreDistribution value="0" recordCount="42.0"/>
																	<ScoreDistribution value="1" recordCount="0.0"/>
																</Node>
															</Node>
															<Node score="1" recordCount="40.0">
																<SimplePredicate field="double(S)" operator="lessOrEqual" value="59.5"/>
																<ScoreDistribution value="0" recordCount="0.0"/>
																<ScoreDistribution value="1" recordCount="40.0"/>
															</Node>
															<Node score="0" recordCount="106.0">
																<True/>
																<ScoreDistribution value="0" recordCount="106.0"/>
																<ScoreDistribution value="1" recordCount="0.0"/>
															</Node>
														</Node>
														<Node score="1" recordCount="142.0">
															<True/>
															<ScoreDistribution value="0" recordCount="0.0"/>
															<ScoreDistribution value="1" recordCount="142.0"/>
														</Node>
													</Node>
													<Node>
														<SimplePredicate field="double(S)" operator="lessOrEqual" value="91.0"/>
														<Node>
															<SimplePredicate field="double(weight)" operator="lessOrEqual" value="49.5"/>
															<Node>
																<SimplePredicate field="double(D)" operator="lessOrEqual" value="83.5"/>
																<Node>
																	<SimplePredicate field="double(heartrate)" operator="lessOrEqual" value="79.0"/>
																	<Node score="1" recordCount="2.0">
																		<SimplePredicate field="double(S)" operator="lessOrEqual" value="64.5"/>
																		<ScoreDistribution value="0" recordCount="0.0"/>
																		<ScoreDistribution value="1" recordCount="2.0"/>
																	</Node>
																	<Node score="0" recordCount="3.0">
																		<True/>
																		<ScoreDistribution value="0" recordCount="3.0"/>
																		<ScoreDistribution value="1" recordCount="0.0"/>
																	</Node>
																</Node>
																<Node score="1" recordCount="3.0">
																	<True/>
																	<ScoreDistribution value="0" recordCount="0.0"/>
																	<ScoreDistribution value="1" recordCount="3.0"/>
																</Node>
															</Node>
															<Node score="0" recordCount="8.0">
																<SimplePredicate field="double(D)" operator="lessOrEqual" value="88.0"/>
																<ScoreDistribution value="0" recordCount="8.0"/>
																<ScoreDistribution value="1" recordCount="0.0"/>
															</Node>
															<Node score="1" recordCount="1.0">
																<True/>
																<ScoreDistribution value="0" recordCount="0.0"/>
																<ScoreDistribution value="1" recordCount="1.0"/>
															</Node>
														</Node>
														<Node>
															<SimplePredicate field="double(heartrate)" operator="lessOrEqual" value="80.5"/>
															<Node score="0" recordCount="21.0">
																<SimplePredicate field="double(D)" operator="lessOrEqual" value="87.5"/>
																<ScoreDistribution value="0" recordCount="21.0"/>
																<ScoreDistribution value="1" recordCount="0.0"/>
															</Node>
															<Node score="1" recordCount="1.0">
																<SimplePredicate field="double(S)" operator="lessOrEqual" value="58.0"/>
																<ScoreDistribution value="0" recordCount="0.0"/>
																<ScoreDistribution value="1" recordCount="1.0"/>
															</Node>
															<Node score="0" recordCount="6.0">
																<True/>
																<ScoreDistribution value="0" recordCount="6.0"/>
																<ScoreDistribution value="1" recordCount="0.0"/>
															</Node>
														</Node>
														<Node score="0" recordCount="4.0">
															<SimplePredicate field="double(D)" operator="lessOrEqual" value="82.5"/>
															<ScoreDistribution value="0" recordCount="4.0"/>
															<ScoreDistribution value="1" recordCount="0.0"/>
														</Node>
														<Node>
															<SimplePredicate field="double(D)" operator="lessOrEqual" value="84.5"/>
															<Node>
																<SimplePredicate field="double(weight)" operator="lessOrEqual" value="64.5"/>
																<Node score="1" recordCount="4.0">
																	<SimplePredicate field="double(S)" operator="lessOrEqual" value="66.0"/>
																	<ScoreDistribution value="0" recordCount="0.0"/>
																	<ScoreDistribution value="1" recordCount="4.0"/>
																</Node>
																<Node score="0" recordCount="1.0">
																	<True/>
																	<ScoreDistribution value="0" recordCount="1.0"/>
																	<ScoreDistribution value="1" recordCount="0.0"/>
																</Node>
															</Node>
															<Node score="0" recordCount="3.0">
																<True/>
																<ScoreDistribution value="0" recordCount="3.0"/>
																<ScoreDistribution value="1" recordCount="0.0"/>
															</Node>
														</Node>
														<Node score="0" recordCount="4.0">
															<True/>
															<ScoreDistribution value="0" recordCount="4.0"/>
															<ScoreDistribution value="1" recordCount="0.0"/>
														</Node>
													</Node>
													<Node score="1" recordCount="21.0">
														<True/>
														<ScoreDistribution value="0" recordCount="0.0"/>
														<ScoreDistribution value="1" recordCount="21.0"/>
													</Node>
												</Node>
												<Node>
													<SimplePredicate field="double(heartrate)" operator="lessOrEqual" value="70.5"/>
													<Node score="0" recordCount="17.0">
														<SimplePredicate field="double(S)" operator="lessOrEqual" value="104.5"/>
														<ScoreDistribution value="0" recordCount="17.0"/>
														<ScoreDistribution value="1" recordCount="0.0"/>
													</Node>
													<Node score="1" recordCount="1.0">
														<True/>
														<ScoreDistribution value="0" recordCount="0.0"/>
														<ScoreDistribution value="1" recordCount="1.0"/>
													</Node>
												</Node>
												<Node>
													<SimplePredicate field="double(D)" operator="lessOrEqual" value="87.5"/>
													<Node score="0" recordCount="7.0">
														<SimplePredicate field="double(temperature)" operator="lessOrEqual" value="35.98960876464844"/>
														<ScoreDistribution value="0" recordCount="7.0"/>
														<ScoreDistribution value="1" recordCount="0.0"/>
													</Node>
													<Node score="0" recordCount="3.0">
														<SimplePredicate field="double(D)" operator="lessOrEqual" value="83.5"/>
														<ScoreDistribution value="0" recordCount="3.0"/>
														<ScoreDistribution value="1" recordCount="0.0"/>
													</Node>
													<Node score="1" recordCount="2.0">
														<True/>
														<ScoreDistribution value="0" recordCount="0.0"/>
														<ScoreDistribution value="1" recordCount="2.0"/>
													</Node>
												</Node>
												<Node>
													<SimplePredicate field="double(heartrate)" operator="lessOrEqual" value="76.0"/>
													<Node score="1" recordCount="2.0">
														<SimplePredicate field="double(weight)" operator="lessOrEqual" value="59.0"/>
														<ScoreDistribution value="0" recordCount="0.0"/>
														<ScoreDistribution value="1" recordCount="2.0"/>
													</Node>
													<Node score="0" recordCount="3.0">
														<True/>
														<ScoreDistribution value="0" recordCount="3.0"/>
														<ScoreDistribution value="1" recordCount="0.0"/>
													</Node>
												</Node>
												<Node score="1" recordCount="3.0">
													<True/>
													<ScoreDistribution value="0" recordCount="0.0"/>
													<ScoreDistribution value="1" recordCount="3.0"/>
												</Node>
											</Node>
											<Node>
												<SimplePredicate field="double(S)" operator="lessOrEqual" value="89.5"/>
												<Node score="1" recordCount="70.0">
													<SimplePredicate field="double(S)" operator="lessOrEqual" value="59.5"/>
													<ScoreDistribution value="0" recordCount="0.0"/>
													<ScoreDistribution value="1" recordCount="70.0"/>
												</Node>
												<Node score="0" recordCount="172.0">
													<True/>
													<ScoreDistribution value="0" recordCount="172.0"/>
													<ScoreDistribution value="1" recordCount="0.0"/>
												</Node>
											</Node>
											<Node score="1" recordCount="185.0">
												<True/>
												<ScoreDistribution value="0" recordCount="0.0"/>
												<ScoreDistribution value="1" recordCount="185.0"/>
											</Node>
										</Node>
										<Node score="0" recordCount="5239.0">
											<True/>
											<ScoreDistribution value="0" recordCount="5239.0"/>
											<ScoreDistribution value="1" recordCount="0.0"/>
										</Node>
									</Node>
									<Node>
										<SimplePredicate field="double(S)" operator="lessOrEqual" value="89.5"/>
										<Node score="1" recordCount="273.0">
											<SimplePredicate field="double(S)" operator="lessOrEqual" value="59.5"/>
											<ScoreDistribution value="0" recordCount="0.0"/>
											<ScoreDistribution value="1" recordCount="273.0"/>
										</Node>
										<Node score="1" recordCount="121.0">
											<SimplePredicate field="double(D)" operator="lessOrEqual" value="89.5"/>
											<ScoreDistribution value="0" recordCount="0.0"/>
											<ScoreDistribution value="1" recordCount="121.0"/>
										</Node>
										<Node score="0" recordCount="638.0">
											<True/>
											<ScoreDistribution value="0" recordCount="638.0"/>
											<ScoreDistribution value="1" recordCount="0.0"/>
										</Node>
									</Node>
									<Node score="1" recordCount="775.0">
										<True/>
										<ScoreDistribution value="0" recordCount="0.0"/>
										<ScoreDistribution value="1" recordCount="775.0"/>
									</Node>
								</Node>
								<Node>
									<SimplePredicate field="double(temperature)" operator="lessOrEqual" value="35.785457611083984"/>
									<Node>
										<SimplePredicate field="double(heartrate)" operator="lessOrEqual" value="100.5"/>
										<Node>
											<SimplePredicate field="double(weight)" operator="lessOrEqual" value="51.5"/>
											<Node score="1" recordCount="20.0">
												<SimplePredicate field="double(heartrate)" operator="lessOrEqual" value="59.5"/>
												<ScoreDistribution value="0" recordCount="0.0"/>
												<ScoreDistribution value="1" recordCount="20.0"/>
											</Node>
											<Node>
												<SimplePredicate field="double(S)" operator="lessOrEqual" value="89.5"/>
												<Node>
													<SimplePredicate field="double(temperature)" operator="lessOrEqual" value="35.6064567565918"/>
													<Node score="1" recordCount="15.0">
														<SimplePredicate field="double(S)" operator="lessOrEqual" value="59.5"/>
														<ScoreDistribution value="0" recordCount="0.0"/>
														<ScoreDistribution value="1" recordCount="15.0"/>
													</Node>
													<Node score="0" recordCount="25.0">
														<True/>
														<ScoreDistribution value="0" recordCount="25.0"/>
														<ScoreDistribution value="1" recordCount="0.0"/>
													</Node>
												</Node>
												<Node score="0" recordCount="36.0">
													<SimplePredicate field="double(temperature)" operator="lessOrEqual" value="35.68058395385742"/>
													<ScoreDistribution value="0" recordCount="36.0"/>
													<ScoreDistribution value="1" recordCount="0.0"/>
												</Node>
												<Node>
													<SimplePredicate field="double(weight)" operator="lessOrEqual" value="45.5"/>
													<Node score="1" recordCount="2.0">
														<SimplePredicate field="double(temperature)" operator="lessOrEqual" value="35.696075439453125"/>
														<ScoreDistribution value="0" recordCount="0.0"/>
														<ScoreDistribution value="1" recordCount="2.0"/>
													</Node>
													<Node score="1" recordCount="1.0">
														<SimplePredicate field="double(S)" operator="lessOrEqual" value="60.0"/>
														<ScoreDistribution value="0" recordCount="0.0"/>
														<ScoreDistribution value="1" recordCount="1.0"/>
													</Node>
													<Node score="0" recordCount="13.0">
														<True/>
														<ScoreDistribution value="0" recordCount="13.0"/>
														<ScoreDistribution value="1" recordCount="0.0"/>
													</Node>
												</Node>
												<Node>
													<SimplePredicate field="double(temperature)" operator="lessOrEqual" value="35.70166778564453"/>
													<Node score="0" recordCount="8.0">
														<SimplePredicate field="double(temperature)" operator="lessOrEqual" value="35.69829177856445"/>
														<ScoreDistribution value="0" recordCount="8.0"/>
														<ScoreDistribution value="1" recordCount="0.0"/>
													</Node>
													<Node score="1" recordCount="2.0">
														<True/>
														<ScoreDistribution value="0" recordCount="0.0"/>
														<ScoreDistribution value="1" recordCount="2.0"/>
													</Node>
												</Node>
												<Node score="0" recordCount="33.0">
													<True/>
													<ScoreDistribution value="0" recordCount="33.0"/>
													<ScoreDistribution value="1" recordCount="0.0"/>
												</Node>
											</Node>
											<Node score="1" recordCount="81.0">
												<True/>
												<ScoreDistribution value="0" recordCount="0.0"/>
												<ScoreDistribution value="1" recordCount="81.0"/>
											</Node>
										</Node>
										<Node>
											<SimplePredicate field="double(S)" operator="lessOrEqual" value="89.5"/>
											<Node>
												<SimplePredicate field="double(temperature)" operator="lessOrEqual" value="35.70481872558594"/>
												<Node score="1" recordCount="28.0">
													<SimplePredicate field="double(heartrate)" operator="lessOrEqual" value="59.5"/>
													<ScoreDistribution value="0" recordCount="0.0"/>
													<ScoreDistribution value="1" recordCount="28.0"/>
												</Node>
												<Node>
													<SimplePredicate field="double(heartrate)" operator="lessOrEqual" value="87.5"/>
													<Node>
														<SimplePredicate field="double(temperature)" operator="lessOrEqual" value="35.568660736083984"/>
														<Node score="1" recordCount="14.0">
															<SimplePredicate field="double(S)" operator="lessOrEqual" value="59.5"/>
															<ScoreDistribution value="0" recordCount="0.0"/>
															<ScoreDistribution value="1" recordCount="14.0"/>
														</Node>
														<Node score="0" recordCount="18.0">
															<True/>
															<ScoreDistribution value="0" recordCount="18.0"/>
															<ScoreDistribution value="1" recordCount="0.0"/>
														</Node>
													</Node>
													<Node score="1" recordCount="20.0">
														<SimplePredicate field="double(S)" operator="lessOrEqual" value="60.5"/>
														<ScoreDistribution value="0" recordCount="0.0"/>
														<ScoreDistribution value="1" recordCount="20.0"/>
													</Node>
													<Node score="0" recordCount="94.0">
														<True/>
														<ScoreDistribution value="0" recordCount="94.0"/>
														<ScoreDistribution value="1" recordCount="0.0"/>
													</Node>
												</Node>
												<Node score="1" recordCount="41.0">
													<SimplePredicate field="double(S)" operator="lessOrEqual" value="59.5"/>
													<ScoreDistribution value="0" recordCount="0.0"/>
													<ScoreDistribution value="1" recordCount="41.0"/>
												</Node>
												<Node score="0" recordCount="49.0">
													<True/>
													<ScoreDistribution value="0" recordCount="49.0"/>
													<ScoreDistribution value="1" recordCount="0.0"/>
												</Node>
											</Node>
											<Node score="1" recordCount="7.0">
												<SimplePredicate field="double(heartrate)" operator="lessOrEqual" value="59.5"/>
												<ScoreDistribution value="0" recordCount="0.0"/>
												<ScoreDistribution value="1" recordCount="7.0"/>
											</Node>
											<Node score="1" recordCount="9.0">
												<SimplePredicate field="double(S)" operator="lessOrEqual" value="60.0"/>
												<ScoreDistribution value="0" recordCount="0.0"/>
												<ScoreDistribution value="1" recordCount="9.0"/>
											</Node>
											<Node score="0" recordCount="77.0">
												<True/>
												<ScoreDistribution value="0" recordCount="77.0"/>
												<ScoreDistribution value="1" recordCount="0.0"/>
											</Node>
										</Node>
										<Node score="1" recordCount="274.0">
											<True/>
											<ScoreDistribution value="0" recordCount="0.0"/>
											<ScoreDistribution value="1" recordCount="274.0"/>
										</Node>
									</Node>
									<Node score="1" recordCount="180.0">
										<True/>
										<ScoreDistribution value="0" recordCount="0.0"/>
										<ScoreDistribution value="1" recordCount="180.0"/>
									</Node>
								</Node>
								<Node>
									<SimplePredicate field="double(S)" operator="lessOrEqual" value="88.5"/>
									<Node score="1" recordCount="111.0">
										<SimplePredicate field="double(S)" operator="lessOrEqual" value="59.5"/>
										<ScoreDistribution value="0" recordCount="0.0"/>
										<ScoreDistribution value="1" recordCount="111.0"/>
									</Node>
									<Node>
										<SimplePredicate field="double(temperature)" operator="lessOrEqual" value="35.79588317871094"/>
										<Node>
											<SimplePredicate field="double(heartrate)" operator="lessOrEqual" value="96.0"/>
											<Node>
												<SimplePredicate field="double(S)" operator="lessOrEqual" value="71.0"/>
												<Node score="1" recordCount="1.0">
													<SimplePredicate field="double(temperature)" operator="lessOrEqual" value="35.78744125366211"/>
													<ScoreDistribution value="0" recordCount="0.0"/>
													<ScoreDistribution value="1" recordCount="1.0"/>
												</Node>
												<Node score="0" recordCount="5.0">
													<True/>
													<ScoreDistribution value="0" recordCount="5.0"/>
													<ScoreDistribution value="1" recordCount="0.0"/>
												</Node>
											</Node>
											<Node score="0" recordCount="2.0">
												<SimplePredicate field="double(D)" operator="lessOrEqual" value="144.0"/>
												<ScoreDistribution value="0" recordCount="2.0"/>
												<ScoreDistribution value="1" recordCount="0.0"/>
											</Node>
											<Node score="1" recordCount="4.0">
												<True/>
												<ScoreDistribution value="0" recordCount="0.0"/>
												<ScoreDistribution value="1" recordCount="4.0"/>
											</Node>
										</Node>
										<Node score="1" recordCount="9.0">
											<True/>
											<ScoreDistribution value="0" recordCount="0.0"/>
											<ScoreDistribution value="1" recordCount="9.0"/>
										</Node>
									</Node>
									<Node>
										<SimplePredicate field="double(weight)" operator="lessOrEqual" value="72.5"/>
										<Node>
											<SimplePredicate field="double(heartrate)" operator="lessOrEqual" value="100.5"/>
											<Node>
												<SimplePredicate field="double(temperature)" operator="lessOrEqual" value="35.99940490722656"/>
												<Node score="1" recordCount="11.0">
													<SimplePredicate field="double(heartrate)" operator="lessOrEqual" value="59.5"/>
													<ScoreDistribution value="0" recordCount="0.0"/>
													<ScoreDistribution value="1" recordCount="11.0"/>
												</Node>
												<Node score="0" recordCount="164.0">
													<True/>
													<ScoreDistribution value="0" recordCount="164.0"/>
													<ScoreDistribution value="1" recordCount="0.0"/>
												</Node>
											</Node>
											<Node score="1" recordCount="3.0">
												<True/>
												<ScoreDistribution value="0" recordCount="0.0"/>
												<ScoreDistribution value="1" recordCount="3.0"/>
											</Node>
										</Node>
										<Node score="1" recordCount="34.0">
											<True/>
											<ScoreDistribution value="0" recordCount="0.0"/>
											<ScoreDistribution value="1" recordCount="34.0"/>
										</Node>
									</Node>
									<Node>
										<SimplePredicate field="double(heartrate)" operator="lessOrEqual" value="100.5"/>
										<Node score="1" recordCount="14.0">
											<SimplePredicate field="double(heartrate)" operator="lessOrEqual" value="60.0"/>
											<ScoreDistribution value="0" recordCount="0.0"/>
											<ScoreDistribution value="1" recordCount="14.0"/>
										</Node>
										<Node score="0" recordCount="20.0">
											<True/>
											<ScoreDistribution value="0" recordCount="20.0"/>
											<ScoreDistribution value="1" recordCount="0.0"/>
										</Node>
									</Node>
									<Node score="1" recordCount="15.0">
										<True/>
										<ScoreDistribution value="0" recordCount="0.0"/>
										<ScoreDistribution value="1" recordCount="15.0"/>
									</Node>
								</Node>
								<Node score="1" recordCount="237.0">
									<SimplePredicate field="double(weight)" operator="lessOrEqual" value="68.5"/>
									<ScoreDistribution value="0" recordCount="0.0"/>
									<ScoreDistribution value="1" recordCount="237.0"/>
								</Node>
								<Node>
									<SimplePredicate field="double(weight)" operator="lessOrEqual" value="69.5"/>
									<Node>
										<SimplePredicate field="double(D)" operator="lessOrEqual" value="143.5"/>
										<Node score="1" recordCount="4.0">
											<SimplePredicate field="double(D)" operator="lessOrEqual" value="142.0"/>
											<ScoreDistribution value="0" recordCount="0.0"/>
											<ScoreDistribution value="1" recordCount="4.0"/>
										</Node>
										<Node score="0" recordCount="1.0">
											<True/>
											<ScoreDistribution value="0" recordCount="1.0"/>
											<ScoreDistribution value="1" recordCount="0.0"/>
										</Node>
									</Node>
									<Node score="1" recordCount="6.0">
										<True/>
										<ScoreDistribution value="0" recordCount="0.0"/>
										<ScoreDistribution value="1" recordCount="6.0"/>
									</Node>
								</Node>
								<Node score="1" recordCount="108.0">
									<True/>
									<ScoreDistribution value="0" recordCount="0.0"/>
									<ScoreDistribution value="1" recordCount="108.0"/>
								</Node>
							</Node>
							<Node>
								<SimplePredicate field="double(heartrate)" operator="lessOrEqual" value="100.5"/>
								<Node>
									<SimplePredicate field="double(S)" operator="lessOrEqual" value="97.5"/>
									<Node>
										<SimplePredicate field="double(D)" operator="lessOrEqual" value="89.5"/>
										<Node>
											<SimplePredicate field="double(heartrate)" operator="lessOrEqual" value="59.5"/>
											<Node score="1" recordCount="49.0">
												<SimplePredicate field="double(S)" operator="lessOrEqual" value="59.5"/>
												<ScoreDistribution value="0" recordCount="0.0"/>
												<ScoreDistribution value="1" recordCount="49.0"/>
											</Node>
											<Node>
												<SimplePredicate field="double(weight)" operator="lessOrEqual" value="59.5"/>
												<Node score="0" recordCount="55.0">
													<SimplePredicate field="double(S)" operator="lessOrEqual" value="89.5"/>
													<ScoreDistribution value="0" recordCount="55.0"/>
													<ScoreDistribution value="1" recordCount="0.0"/>
												</Node>
												<Node score="1" recordCount="4.0">
													<True/>
													<ScoreDistribution value="0" recordCount="0.0"/>
													<ScoreDistribution value="1" recordCount="4.0"/>
												</Node>
											</Node>
											<Node>
												<SimplePredicate field="double(heartrate)" operator="lessOrEqual" value="58.5"/>
												<Node>
													<SimplePredicate field="double(weight)" operator="lessOrEqual" value="61.0"/>
													<Node score="0" recordCount="1.0">
														<SimplePredicate field="double(S)" operator="lessOrEqual" value="79.0"/>
														<ScoreDistribution value="0" recordCount="1.0"/>
														<ScoreDistribution value="1" recordCount="0.0"/>
													</Node>
													<Node score="1" recordCount="5.0">
														<True/>
														<ScoreDistribution value="0" recordCount="0.0"/>
														<ScoreDistribution value="1" recordCount="5.0"/>
													</Node>
												</Node>
												<Node>
													<SimplePredicate field="double(heartrate)" operator="lessOrEqual" value="57.5"/>
													<Node score="0" recordCount="45.0">
														<SimplePredicate field="double(S)" operator="lessOrEqual" value="89.5"/>
														<ScoreDistribution value="0" recordCount="45.0"/>
														<ScoreDistribution value="1" recordCount="0.0"/>
													</Node>
													<Node score="1" recordCount="6.0">
														<True/>
														<ScoreDistribution value="0" recordCount="0.0"/>
														<ScoreDistribution value="1" recordCount="6.0"/>
													</Node>
												</Node>
												<Node score="1" recordCount="2.0">
													<SimplePredicate field="double(D)" operator="lessOrEqual" value="81.0"/>
													<ScoreDistribution value="0" recordCount="0.0"/>
													<ScoreDistribution value="1" recordCount="2.0"/>
												</Node>
												<Node score="0" recordCount="10.0">
													<SimplePredicate field="double(S)" operator="lessOrEqual" value="87.0"/>
													<ScoreDistribution value="0" recordCount="10.0"/>
													<ScoreDistribution value="1" recordCount="0.0"/>
												</Node>
												<Node score="1" recordCount="2.0">
													<True/>
													<ScoreDistribution value="0" recordCount="0.0"/>
													<ScoreDistribution value="1" recordCount="2.0"/>
												</Node>
											</Node>
											<Node score="0" recordCount="8.0">
												<True/>
												<ScoreDistribution value="0" recordCount="8.0"/>
												<ScoreDistribution value="1" recordCount="0.0"/>
											</Node>
										</Node>
										<Node score="0" recordCount="1628.0">
											<True/>
											<ScoreDistribution value="0" recordCount="1628.0"/>
											<ScoreDistribution value="1" recordCount="0.0"/>
										</Node>
									</Node>
									<Node>
										<SimplePredicate field="double(heartrate)" operator="lessOrEqual" value="59.5"/>
										<Node>
											<SimplePredicate field="double(weight)" operator="lessOrEqual" value="47.5"/>
											<Node score="0" recordCount="175.0">
												<SimplePredicate field="double(D)" operator="lessOrEqual" value="140.5"/>
												<ScoreDistribution value="0" recordCount="175.0"/>
												<ScoreDistribution value="1" recordCount="0.0"/>
											</Node>
											<Node score="1" recordCount="18.0">
												<SimplePredicate field="double(S)" operator="lessOrEqual" value="59.0"/>
												<ScoreDistribution value="0" recordCount="0.0"/>
												<ScoreDistribution value="1" recordCount="18.0"/>
											</Node>
											<Node score="0" recordCount="17.0">
												<SimplePredicate field="double(S)" operator="lessOrEqual" value="92.5"/>
												<ScoreDistribution value="0" recordCount="17.0"/>
												<ScoreDistribution value="1" recordCount="0.0"/>
											</Node>
											<Node score="1" recordCount="1.0">
												<True/>
												<ScoreDistribution value="0" recordCount="0.0"/>
												<ScoreDistribution value="1" recordCount="1.0"/>
											</Node>
										</Node>
										<Node>
											<SimplePredicate field="double(S)" operator="lessOrEqual" value="58.5"/>
											<Node>
												<SimplePredicate field="double(weight)" operator="lessOrEqual" value="75.5"/>
												<Node>
													<SimplePredicate field="double(S)" operator="lessOrEqual" value="56.5"/>
													<Node>
														<SimplePredicate field="double(weight)" operator="lessOrEqual" value="51.5"/>
														<Node score="0" recordCount="10.0">
															<SimplePredicate field="double(heartrate)" operator="lessOrEqual" value="57.5"/>
															<ScoreDistribution value="0" recordCount="10.0"/>
															<ScoreDistribution value="1" recordCount="0.0"/>
														</Node>
														<Node score="0" recordCount="1.0">
															<SimplePredicate field="double(D)" operator="lessOrEqual" value="119.0"/>
															<ScoreDistribution value="0" recordCount="1.0"/>
															<ScoreDistribution value="1" recordCount="0.0"/>
														</Node>
														<Node score="1" recordCount="6.0">
															<True/>
															<ScoreDistribution value="0" recordCount="0.0"/>
															<ScoreDistribution value="1" recordCount="6.0"/>
														</Node>
													</Node>
													<Node score="0" recordCount="111.0">
														<SimplePredicate field="double(D)" operator="lessOrEqual" value="140.0"/>
														<ScoreDistribution value="0" recordCount="111.0"/>
														<ScoreDistribution value="1" recordCount="0.0"/>
													</Node>
													<Node score="1" recordCount="11.0">
														<True/>
														<ScoreDistribution value="0" recordCount="0.0"/>
														<ScoreDistribution value="1" recordCount="11.0"/>
													</Node>
												</Node>
												<Node score="0" recordCount="31.0">
													<SimplePredicate field="double(D)" operator="lessOrEqual" value="141.5"/>
													<ScoreDistribution value="0" recordCount="31.0"/>
													<ScoreDistribution value="1" recordCount="0.0"/>
												</Node>
												<Node score="1" recordCount="8.0">
													<True/>
													<ScoreDistribution value="0" recordCount="0.0"/>
													<ScoreDistribution value="1" recordCount="8.0"/>
												</Node>
											</Node>
											<Node score="0" recordCount="37.0">
												<True/>
												<ScoreDistribution value="0" recordCount="37.0"/>
												<ScoreDistribution value="1" recordCount="0.0"/>
											</Node>
										</Node>
										<Node>
											<SimplePredicate field="double(S)" operator="lessOrEqual" value="89.5"/>
											<Node>
												<SimplePredicate field="double(S)" operator="lessOrEqual" value="59.5"/>
												<Node>
													<SimplePredicate field="double(heartrate)" operator="lessOrEqual" value="56.5"/>
													<Node score="0" recordCount="4.0">
														<SimplePredicate field="double(heartrate)" operator="lessOrEqual" value="55.5"/>
														<ScoreDistribution value="0" recordCount="4.0"/>
														<ScoreDistribution value="1" recordCount="0.0"/>
													</Node>
													<Node score="0" recordCount="1.0">
														<SimplePredicate field="double(D)" operator="lessOrEqual" value="122.5"/>
														<ScoreDistribution value="0" recordCount="1.0"/>
														<ScoreDistribution value="1" recordCount="0.0"/>
													</Node>
													<Node score="1" recordCount="1.0">
														<True/>
														<ScoreDistribution value="0" recordCount="0.0"/>
														<ScoreDistribution value="1" recordCount="1.0"/>
													</Node>
												</Node>
												<Node score="0" recordCount="16.0">
													<True/>
													<ScoreDistribution value="0" recordCount="16.0"/>
													<ScoreDistribution value="1" recordCount="0.0"/>
												</Node>
											</Node>
											<Node score="0" recordCount="521.0">
												<True/>
												<ScoreDistribution value="0" recordCount="521.0"/>
												<ScoreDistribution value="1" recordCount="0.0"/>
											</Node>
										</Node>
										<Node score="0" recordCount="155.0">
											<SimplePredicate field="double(D)" operator="lessOrEqual" value="139.5"/>
											<ScoreDistribution value="0" recordCount="155.0"/>
											<ScoreDistribution value="1" recordCount="0.0"/>
										</Node>
										<Node score="1" recordCount="11.0">
											<True/>
											<ScoreDistribution value="0" recordCount="0.0"/>
											<ScoreDistribution value="1" recordCount="11.0"/>
										</Node>
									</Node>
									<Node score="0" recordCount="9601.0">
										<True/>
										<ScoreDistribution value="0" recordCount="9601.0"/>
										<ScoreDistribution value="1" recordCount="0.0"/>
									</Node>
								</Node>
								<Node>
									<SimplePredicate field="double(D)" operator="lessOrEqual" value="89.5"/>
									<Node>
										<SimplePredicate field="double(weight)" operator="lessOrEqual" value="50.5"/>
										<Node>
											<SimplePredicate field="double(temperature)" operator="lessOrEqual" value="36.11737823486328"/>
											<Node score="0" recordCount="11.0">
												<SimplePredicate field="double(temperature)" operator="lessOrEqual" value="36.10214614868164"/>
												<ScoreDistribution value="0" recordCount="11.0"/>
												<ScoreDistribution value="1" recordCount="0.0"/>
											</Node>
											<Node score="0" recordCount="4.0">
												<SimplePredicate field="double(weight)" operator="lessOrEqual" value="46.0"/>
												<ScoreDistribution value="0" recordCount="4.0"/>
												<ScoreDistribution value="1" recordCount="0.0"/>
											</Node>
											<Node score="1" recordCount="4.0">
												<True/>
												<ScoreDistribution value="0" recordCount="0.0"/>
												<ScoreDistribution value="1" recordCount="4.0"/>
											</Node>
										</Node>
										<Node>
											<SimplePredicate field="double(D)" operator="lessOrEqual" value="83.5"/>
											<Node score="1" recordCount="11.0">
												<SimplePredicate field="double(heartrate)" operator="lessOrEqual" value="59.5"/>
												<ScoreDistribution value="0" recordCount="0.0"/>
												<ScoreDistribution value="1" recordCount="11.0"/>
											</Node>
											<Node score="0" recordCount="90.0">
												<True/>
												<ScoreDistribution value="0" recordCount="90.0"/>
												<ScoreDistribution value="1" recordCount="0.0"/>
											</Node>
										</Node>
										<Node>
											<SimplePredicate field="double(temperature)" operator="lessOrEqual" value="36.28556442260742"/>
											<Node score="0" recordCount="11.0">
												<SimplePredicate field="double(weight)" operator="lessOrEqual" value="42.5"/>
												<ScoreDistribution value="0" recordCount="11.0"/>
												<ScoreDistribution value="1" recordCount="0.0"/>
											</Node>
											<Node score="1" recordCount="1.0">
												<SimplePredicate field="double(heartrate)" operator="lessOrEqual" value="61.0"/>
												<ScoreDistribution value="0" recordCount="0.0"/>
												<ScoreDistribution value="1" recordCount="1.0"/>
											</Node>
											<Node score="0" recordCount="7.0">
												<True/>
												<ScoreDistribution value="0" recordCount="7.0"/>
												<ScoreDistribution value="1" recordCount="0.0"/>
											</Node>
										</Node>
										<Node score="0" recordCount="79.0">
											<True/>
											<ScoreDistribution value="0" recordCount="79.0"/>
											<ScoreDistribution value="1" recordCount="0.0"/>
										</Node>
									</Node>
									<Node score="1" recordCount="90.0">
										<SimplePredicate field="double(heartrate)" operator="lessOrEqual" value="59.5"/>
										<ScoreDistribution value="0" recordCount="0.0"/>
										<ScoreDistribution value="1" recordCount="90.0"/>
									</Node>
									<Node score="0" recordCount="573.0">
										<True/>
										<ScoreDistribution value="0" recordCount="573.0"/>
										<ScoreDistribution value="1" recordCount="0.0"/>
									</Node>
								</Node>
								<Node score="0" recordCount="4174.0">
									<SimplePredicate field="double(D)" operator="lessOrEqual" value="139.5"/>
									<ScoreDistribution value="0" recordCount="4174.0"/>
									<ScoreDistribution value="1" recordCount="0.0"/>
								</Node>
								<Node>
									<SimplePredicate field="double(temperature)" operator="lessOrEqual" value="36.03656768798828"/>
									<Node score="1" recordCount="13.0">
										<SimplePredicate field="double(heartrate)" operator="lessOrEqual" value="59.5"/>
										<ScoreDistribution value="0" recordCount="0.0"/>
										<ScoreDistribution value="1" recordCount="13.0"/>
									</Node>
									<Node score="0" recordCount="20.0">
										<True/>
										<ScoreDistribution value="0" recordCount="20.0"/>
										<ScoreDistribution value="1" recordCount="0.0"/>
									</Node>
								</Node>
								<Node>
									<SimplePredicate field="double(D)" operator="lessOrEqual" value="141.5"/>
									<Node>
										<SimplePredicate field="double(S)" operator="lessOrEqual" value="98.5"/>
										<Node score="1" recordCount="4.0">
											<SimplePredicate field="double(temperature)" operator="lessOrEqual" value="36.26506805419922"/>
											<ScoreDistribution value="0" recordCount="0.0"/>
											<ScoreDistribution value="1" recordCount="4.0"/>
										</Node>
										<Node score="0" recordCount="2.0">
											<True/>
											<ScoreDistribution value="0" recordCount="2.0"/>
											<ScoreDistribution value="1" recordCount="0.0"/>
										</Node>
									</Node>
									<Node score="1" recordCount="19.0">
										<SimplePredicate field="double(heartrate)" operator="lessOrEqual" value="59.5"/>
										<ScoreDistribution value="0" recordCount="0.0"/>
										<ScoreDistribution value="1" recordCount="19.0"/>
									</Node>
									<Node score="0" recordCount="158.0">
										<True/>
										<ScoreDistribution value="0" recordCount="158.0"/>
										<ScoreDistribution value="1" recordCount="0.0"/>
									</Node>
								</Node>
								<Node>
									<SimplePredicate field="double(weight)" operator="lessOrEqual" value="79.5"/>
									<Node>
										<SimplePredicate field="double(weight)" operator="lessOrEqual" value="47.5"/>
										<Node score="0" recordCount="123.0">
											<SimplePredicate field="double(temperature)" operator="lessOrEqual" value="36.85255432128906"/>
											<ScoreDistribution value="0" recordCount="123.0"/>
											<ScoreDistribution value="1" recordCount="0.0"/>
										</Node>
										<Node score="1" recordCount="2.0">
											<SimplePredicate field="double(temperature)" operator="lessOrEqual" value="36.87022399902344"/>
											<ScoreDistribution value="0" recordCount="0.0"/>
											<ScoreDistribution value="1" recordCount="2.0"/>
										</Node>
										<Node score="0" recordCount="26.0">
											<True/>
											<ScoreDistribution value="0" recordCount="26.0"/>
											<ScoreDistribution value="1" recordCount="0.0"/>
										</Node>
									</Node>
									<Node>
										<SimplePredicate field="double(temperature)" operator="lessOrEqual" value="36.959617614746094"/>
										<Node score="1" recordCount="36.0">
											<SimplePredicate field="double(heartrate)" operator="lessOrEqual" value="59.5"/>
											<ScoreDistribution value="0" recordCount="0.0"/>
											<ScoreDistribution value="1" recordCount="36.0"/>
										</Node>
										<Node score="0" recordCount="520.0">
											<True/>
											<ScoreDistribution value="0" recordCount="520.0"/>
											<ScoreDistribution value="1" recordCount="0.0"/>
										</Node>
									</Node>
									<Node>
										<SimplePredicate field="double(S)" operator="lessOrEqual" value="99.5"/>
										<Node score="1" recordCount="3.0">
											<SimplePredicate field="double(heartrate)" operator="lessOrEqual" value="65.0"/>
											<ScoreDistribution value="0" recordCount="0.0"/>
											<ScoreDistribution value="1" recordCount="3.0"/>
										</Node>
										<Node score="0" recordCount="4.0">
											<True/>
											<ScoreDistribution value="0" recordCount="4.0"/>
											<ScoreDistribution value="1" recordCount="0.0"/>
										</Node>
									</Node>
									<Node score="1" recordCount="1.0">
										<SimplePredicate field="double(heartrate)" operator="lessOrEqual" value="60.0"/>
										<ScoreDistribution value="0" recordCount="0.0"/>
										<ScoreDistribution value="1" recordCount="1.0"/>
									</Node>
									<Node score="0" recordCount="11.0">
										<True/>
										<ScoreDistribution value="0" recordCount="11.0"/>
										<ScoreDistribution value="1" recordCount="0.0"/>
									</Node>
								</Node>
								<Node score="1" recordCount="5.0">
									<SimplePredicate field="double(heartrate)" operator="lessOrEqual" value="59.5"/>
									<ScoreDistribution value="0" recordCount="0.0"/>
									<ScoreDistribution value="1" recordCount="5.0"/>
								</Node>
								<Node score="0" recordCount="6.0">
									<True/>
									<ScoreDistribution value="0" recordCount="6.0"/>
									<ScoreDistribution value="1" recordCount="0.0"/>
								</Node>
							</Node>
							<Node>
								<SimplePredicate field="double(weight)" operator="lessOrEqual" value="45.5"/>
								<Node>
									<SimplePredicate field="double(D)" operator="lessOrEqual" value="139.5"/>
									<Node>
										<SimplePredicate field="double(temperature)" operator="lessOrEqual" value="36.066917419433594"/>
										<Node>
											<SimplePredicate field="double(temperature)" operator="lessOrEqual" value="36.057655334472656"/>
											<Node score="0" recordCount="9.0">
												<SimplePredicate field="double(heartrate)" operator="lessOrEqual" value="106.5"/>
												<ScoreDistribution value="0" recordCount="9.0"/>
												<ScoreDistribution value="1" recordCount="0.0"/>
											</Node>
											<Node>
												<SimplePredicate field="double(temperature)" operator="lessOrEqual" value="36.034427642822266"/>
												<Node>
													<SimplePredicate field="double(D)" operator="lessOrEqual" value="90.5"/>
													<Node score="1" recordCount="5.0">
														<SimplePredicate field="double(heartrate)" operator="lessOrEqual" value="109.5"/>
														<ScoreDistribution value="0" recordCount="0.0"/>
														<ScoreDistribution value="1" recordCount="5.0"/>
													</Node>
													<Node score="0" recordCount="1.0">
														<True/>
														<ScoreDistribution value="0" recordCount="1.0"/>
														<ScoreDistribution value="1" recordCount="0.0"/>
													</Node>
												</Node>
												<Node score="0" recordCount="5.0">
													<True/>
													<ScoreDistribution value="0" recordCount="5.0"/>
													<ScoreDistribution value="1" recordCount="0.0"/>
												</Node>
											</Node>
											<Node score="0" recordCount="6.0">
												<True/>
												<ScoreDistribution value="0" recordCount="6.0"/>
												<ScoreDistribution value="1" recordCount="0.0"/>
											</Node>
										</Node>
										<Node score="1" recordCount="6.0">
											<True/>
											<ScoreDistribution value="0" recordCount="0.0"/>
											<ScoreDistribution value="1" recordCount="6.0"/>
										</Node>
									</Node>
									<Node>
										<SimplePredicate field="double(heartrate)" operator="lessOrEqual" value="102.5"/>
										<Node>
											<SimplePredicate field="double(D)" operator="lessOrEqual" value="87.0"/>
											<Node score="0" recordCount="1.0">
												<SimplePredicate field="double(temperature)" operator="lessOrEqual" value="36.526676177978516"/>
												<ScoreDistribution value="0" recordCount="1.0"/>
												<ScoreDistribution value="1" recordCount="0.0"/>
											</Node>
											<Node score="1" recordCount="2.0">
												<True/>
												<ScoreDistribution value="0" recordCount="0.0"/>
												<ScoreDistribution value="1" recordCount="2.0"/>
											</Node>
										</Node>
										<Node score="0" recordCount="72.0">
											<True/>
											<ScoreDistribution value="0" recordCount="72.0"/>
											<ScoreDistribution value="1" recordCount="0.0"/>
										</Node>
									</Node>
									<Node>
										<SimplePredicate field="double(D)" operator="lessOrEqual" value="89.5"/>
										<Node score="1" recordCount="15.0">
											<SimplePredicate field="double(heartrate)" operator="lessOrEqual" value="104.5"/>
											<ScoreDistribution value="0" recordCount="0.0"/>
											<ScoreDistribution value="1" recordCount="15.0"/>
										</Node>
										<Node>
											<SimplePredicate field="double(heartrate)" operator="lessOrEqual" value="108.5"/>
											<Node>
												<SimplePredicate field="double(weight)" operator="lessOrEqual" value="41.5"/>
												<Node score="0" recordCount="10.0">
													<SimplePredicate field="double(temperature)" operator="lessOrEqual" value="36.44502258300781"/>
													<ScoreDistribution value="0" recordCount="10.0"/>
													<ScoreDistribution value="1" recordCount="0.0"/>
												</Node>
												<Node score="1" recordCount="2.0">
													<True/>
													<ScoreDistribution value="0" recordCount="0.0"/>
													<ScoreDistribution value="1" recordCount="2.0"/>
												</Node>
											</Node>
											<Node>
												<SimplePredicate field="double(S)" operator="lessOrEqual" value="90.5"/>
												<Node>
													<SimplePredicate field="double(D)" operator="lessOrEqual" value="80.5"/>
													<Node score="1" recordCount="3.0">
														<SimplePredicate field="double(weight)" operator="lessOrEqual" value="43.5"/>
														<ScoreDistribution value="0" recordCount="0.0"/>
														<ScoreDistribution value="1" recordCount="3.0"/>
													</Node>
													<Node score="0" recordCount="1.0">
														<True/>
														<ScoreDistribution value="0" recordCount="1.0"/>
														<ScoreDistribution value="1" recordCount="0.0"/>
													</Node>
												</Node>
												<Node score="0" recordCount="12.0">
													<True/>
													<ScoreDistribution value="0" recordCount="12.0"/>
													<ScoreDistribution value="1" recordCount="0.0"/>
												</Node>
											</Node>
											<Node score="1" recordCount="11.0">
												<True/>
												<ScoreDistribution value="0" recordCount="0.0"/>
												<ScoreDistribution value="1" recordCount="11.0"/>
											</Node>
										</Node>
										<Node score="1" recordCount="4.0">
											<SimplePredicate field="double(temperature)" operator="lessOrEqual" value="36.29890441894531"/>
											<ScoreDistribution value="0" recordCount="0.0"/>
											<ScoreDistribution value="1" recordCount="4.0"/>
										</Node>
										<Node score="0" recordCount="3.0">
											<SimplePredicate field="double(S)" operator="lessOrEqual" value="86.0"/>
											<ScoreDistribution value="0" recordCount="3.0"/>
											<ScoreDistribution value="1" recordCount="0.0"/>
										</Node>
										<Node score="1" recordCount="3.0">
											<True/>
											<ScoreDistribution value="0" recordCount="0.0"/>
											<ScoreDistribution value="1" recordCount="3.0"/>
										</Node>
									</Node>
									<Node score="0" recordCount="296.0">
										<True/>
										<ScoreDistribution value="0" recordCount="296.0"/>
										<ScoreDistribution value="1" recordCount="0.0"/>
									</Node>
								</Node>
								<Node>
									<SimplePredicate field="double(D)" operator="lessOrEqual" value="142.5"/>
									<Node>
										<SimplePredicate field="double(S)" operator="lessOrEqual" value="85.0"/>
										<Node score="0" recordCount="10.0">
											<SimplePredicate field="double(D)" operator="lessOrEqual" value="140.5"/>
											<ScoreDistribution value="0" recordCount="10.0"/>
											<ScoreDistribution value="1" recordCount="0.0"/>
										</Node>
										<Node score="1" recordCount="12.0">
											<SimplePredicate field="double(S)" operator="lessOrEqual" value="62.5"/>
											<ScoreDistribution value="0" recordCount="0.0"/>
											<ScoreDistribution value="1" recordCount="12.0"/>
										</Node>
										<Node score="0" recordCount="6.0">
											<True/>
											<ScoreDistribution value="0" recordCount="6.0"/>
											<ScoreDistribution value="1" recordCount="0.0"/>
										</Node>
									</Node>
									<Node score="1" recordCount="28.0">
										<True/>
										<ScoreDistribution value="0" recordCount="0.0"/>
										<ScoreDistribution value="1" recordCount="28.0"/>
									</Node>
								</Node>
								<Node>
									<SimplePredicate field="double(S)" operator="lessOrEqual" value="93.0"/>
									<Node score="1" recordCount="7.0">
										<SimplePredicate field="double(S)" operator="lessOrEqual" value="61.5"/>
										<ScoreDistribution value="0" recordCount="0.0"/>
										<ScoreDistribution value="1" recordCount="7.0"/>
									</Node>
									<Node score="0" recordCount="32.0">
										<True/>
										<ScoreDistribution value="0" recordCount="32.0"/>
										<ScoreDistribution value="1" recordCount="0.0"/>
									</Node>
								</Node>
								<Node score="1" recordCount="18.0">
									<True/>
									<ScoreDistribution value="0" recordCount="0.0"/>
									<ScoreDistribution value="1" recordCount="18.0"/>
								</Node>
							</Node>
							<Node>
								<SimplePredicate field="double(D)" operator="lessOrEqual" value="139.5"/>
								<Node>
									<SimplePredicate field="double(D)" operator="lessOrEqual" value="89.5"/>
									<Node>
										<SimplePredicate field="double(S)" operator="lessOrEqual" value="89.5"/>
										<Node>
											<SimplePredicate field="double(temperature)" operator="lessOrEqual" value="36.65967559814453"/>
											<Node>
												<SimplePredicate field="double(heartrate)" operator="lessOrEqual" value="108.5"/>
												<Node score="1" recordCount="7.0">
													<SimplePredicate field="double(weight)" operator="lessOrEqual" value="46.5"/>
													<ScoreDistribution value="0" recordCount="0.0"/>
													<ScoreDistribution value="1" recordCount="7.0"/>
												</Node>
												<Node score="1" recordCount="48.0">
													<SimplePredicate field="double(S)" operator="lessOrEqual" value="59.5"/>
													<ScoreDistribution value="0" recordCount="0.0"/>
													<ScoreDistribution value="1" recordCount="48.0"/>
												</Node>
												<Node score="0" recordCount="107.0">
													<True/>
													<ScoreDistribution value="0" recordCount="107.0"/>
													<ScoreDistribution value="1" recordCount="0.0"/>
												</Node>
											</Node>
											<Node score="0" recordCount="14.0">
												<SimplePredicate field="double(weight)" operator="lessOrEqual" value="57.0"/>
												<ScoreDistribution value="0" recordCount="14.0"/>
												<ScoreDistribution value="1" recordCount="0.0"/>
											</Node>
											<Node>
												<SimplePredicate field="double(weight)" operator="lessOrEqual" value="66.5"/>
												<Node score="0" recordCount="3.0">
													<SimplePredicate field="double(temperature)" operator="lessOrEqual" value="36.07579040527344"/>
													<ScoreDistribution value="0" recordCount="3.0"/>
													<ScoreDistribution value="1" recordCount="0.0"/>
												</Node>
												<Node>
													<SimplePredicate field="double(weight)" operator="lessOrEqual" value="62.5"/>
													<Node score="1" recordCount="2.0">
														<SimplePredicate field="double(S)" operator="lessOrEqual" value="68.5"/>
														<ScoreDistribution value="0" recordCount="0.0"/>
														<ScoreDistribution value="1" recordCount="2.0"/>
													</Node>
													<Node score="0" recordCount="1.0">
														<True/>
														<ScoreDistribution value="0" recordCount="1.0"/>
														<ScoreDistribution value="1" recordCount="0.0"/>
													</Node>
												</Node>
												<Node score="1" recordCount="4.0">
													<True/>
													<ScoreDistribution value="0" recordCount="0.0"/>
													<ScoreDistribution value="1" recordCount="4.0"/>
												</Node>
											</Node>
											<Node score="1" recordCount="3.0">
												<SimplePredicate field="double(S)" operator="lessOrEqual" value="57.5"/>
												<ScoreDistribution value="0" recordCount="0.0"/>
												<ScoreDistribution value="1" recordCount="3.0"/>
											</Node>
											<Node score="0" recordCount="18.0">
												<True/>
												<ScoreDistribution value="0" recordCount="18.0"/>
												<ScoreDistribution value="1" recordCount="0.0"/>
											</Node>
										</Node>
										<Node>
											<SimplePredicate field="double(weight)" operator="lessOrEqual" value="73.5"/>
											<Node score="1" recordCount="11.0">
												<SimplePredicate field="double(S)" operator="lessOrEqual" value="59.5"/>
												<ScoreDistribution value="0" recordCount="0.0"/>
												<ScoreDistribution value="1" recordCount="11.0"/>
											</Node>
											<Node score="0" recordCount="84.0">
												<True/>
												<ScoreDistribution value="0" recordCount="84.0"/>
												<ScoreDistribution value="1" recordCount="0.0"/>
											</Node>
										</Node>
										<Node score="1" recordCount="10.0">
											<SimplePredicate field="double(S)" operator="lessOrEqual" value="58.0"/>
											<ScoreDistribution value="0" recordCount="0.0"/>
											<ScoreDistribution value="1" recordCount="10.0"/>
										</Node>
										<Node score="0" recordCount="16.0">
											<True/>
											<ScoreDistribution value="0" recordCount="16.0"/>
											<ScoreDistribution value="1" recordCount="0.0"/>
										</Node>
									</Node>
									<Node score="1" recordCount="187.0">
										<True/>
										<ScoreDistribution value="0" recordCount="0.0"/>
										<ScoreDistribution value="1" recordCount="187.0"/>
									</Node>
								</Node>
								<Node score="0" recordCount="2606.0">
									<True/>
									<ScoreDistribution value="0" recordCount="2606.0"/>
									<ScoreDistribution value="1" recordCount="0.0"/>
								</Node>
							</Node>
							<Node>
								<SimplePredicate field="double(heartrate)" operator="lessOrEqual" value="104.5"/>
								<Node>
									<SimplePredicate field="double(weight)" operator="lessOrEqual" value="79.5"/>
									<Node>
										<SimplePredicate field="double(S)" operator="lessOrEqual" value="89.5"/>
										<Node>
											<SimplePredicate field="double(weight)" operator="lessOrEqual" value="68.5"/>
											<Node score="1" recordCount="23.0">
												<SimplePredicate field="double(S)" operator="lessOrEqual" value="59.5"/>
												<ScoreDistribution value="0" recordCount="0.0"/>
												<ScoreDistribution value="1" recordCount="23.0"/>
											</Node>
											<Node score="0" recordCount="71.0">
												<True/>
												<ScoreDistribution value="0" recordCount="71.0"/>
												<ScoreDistribution value="1" recordCount="0.0"/>
											</Node>
										</Node>
										<Node score="0" recordCount="26.0">
											<True/>
											<ScoreDistribution value="0" recordCount="26.0"/>
											<ScoreDistribution value="1" recordCount="0.0"/>
										</Node>
									</Node>
									<Node score="1" recordCount="85.0">
										<True/>
										<ScoreDistribution value="0" recordCount="0.0"/>
										<ScoreDistribution value="1" recordCount="85.0"/>
									</Node>
								</Node>
								<Node>
									<SimplePredicate field="double(S)" operator="lessOrEqual" value="89.5"/>
									<Node score="0" recordCount="2.0">
										<SimplePredicate field="double(D)" operator="lessOrEqual" value="144.5"/>
										<ScoreDistribution value="0" recordCount="2.0"/>
										<ScoreDistribution value="1" recordCount="0.0"/>
									</Node>
									<Node score="1" recordCount="1.0">
										<SimplePredicate field="double(S)" operator="lessOrEqual" value="68.0"/>
										<ScoreDistribution value="0" recordCount="0.0"/>
										<ScoreDistribution value="1" recordCount="1.0"/>
									</Node>
									<Node score="0" recordCount="1.0">
										<True/>
										<ScoreDistribution value="0" recordCount="1.0"/>
										<ScoreDistribution value="1" recordCount="0.0"/>
									</Node>
								</Node>
								<Node score="1" recordCount="8.0">
									<True/>
									<ScoreDistribution value="0" recordCount="0.0"/>
									<ScoreDistribution value="1" recordCount="8.0"/>
								</Node>
							</Node>
							<Node>
								<SimplePredicate field="double(S)" operator="lessOrEqual" value="89.5"/>
								<Node>
									<SimplePredicate field="double(D)" operator="lessOrEqual" value="141.5"/>
									<Node>
										<SimplePredicate field="double(weight)" operator="lessOrEqual" value="75.5"/>
										<Node score="0" recordCount="28.0">
											<SimplePredicate field="double(temperature)" operator="lessOrEqual" value="36.94285583496094"/>
											<ScoreDistribution value="0" recordCount="28.0"/>
											<ScoreDistribution value="1" recordCount="0.0"/>
										</Node>
										<Node score="1" recordCount="1.0">
											<SimplePredicate field="double(D)" operator="lessOrEqual" value="140.5"/>
											<ScoreDistribution value="0" recordCount="0.0"/>
											<ScoreDistribution value="1" recordCount="1.0"/>
										</Node>
										<Node score="0" recordCount="1.0">
											<True/>
											<ScoreDistribution value="0" recordCount="1.0"/>
											<ScoreDistribution value="1" recordCount="0.0"/>
										</Node>
									</Node>
									<Node>
										<SimplePredicate field="double(weight)" operator="lessOrEqual" value="76.5"/>
										<Node score="0" recordCount="1.0">
											<SimplePredicate field="double(temperature)" operator="lessOrEqual" value="36.076446533203125"/>
											<ScoreDistribution value="0" recordCount="1.0"/>
											<ScoreDistribution value="1" recordCount="0.0"/>
										</Node>
										<Node score="1" recordCount="2.0">
											<True/>
											<ScoreDistribution value="0" recordCount="0.0"/>
											<ScoreDistribution value="1" recordCount="2.0"/>
										</Node>
									</Node>
									<Node score="0" recordCount="5.0">
										<True/>
										<ScoreDistribution value="0" recordCount="5.0"/>
										<ScoreDistribution value="1" recordCount="0.0"/>
									</Node>
								</Node>
								<Node>
									<SimplePredicate field="double(heartrate)" operator="lessOrEqual" value="105.5"/>
									<Node score="1" recordCount="4.0">
										<SimplePredicate field="double(temperature)" operator="lessOrEqual" value="36.189945220947266"/>
										<ScoreDistribution value="0" recordCount="0.0"/>
										<ScoreDistribution value="1" recordCount="4.0"/>
									</Node>
									<Node score="1" recordCount="1.0">
										<SimplePredicate field="double(D)" operator="lessOrEqual" value="142.5"/>
										<ScoreDistribution value="0" recordCount="0.0"/>
										<ScoreDistribution value="1" recordCount="1.0"/>
									</Node>
									<Node score="0" recordCount="5.0">
										<SimplePredicate field="double(D)" operator="lessOrEqual" value="146.0"/>
										<ScoreDistribution value="0" recordCount="5.0"/>
										<ScoreDistribution value="1" recordCount="0.0"/>
									</Node>
									<Node score="1" recordCount="3.0">
										<SimplePredicate field="double(S)" operator="lessOrEqual" value="60.0"/>
										<ScoreDistribution value="0" recordCount="0.0"/>
										<ScoreDistribution value="1" recordCount="3.0"/>
									</Node>
									<Node score="0" recordCount="3.0">
										<True/>
										<ScoreDistribution value="0" recordCount="3.0"/>
										<ScoreDistribution value="1" recordCount="0.0"/>
									</Node>
								</Node>
								<Node>
									<SimplePredicate field="double(D)" operator="lessOrEqual" value="143.5"/>
									<Node score="1" recordCount="9.0">
										<SimplePredicate field="double(S)" operator="lessOrEqual" value="59.5"/>
										<ScoreDistribution value="0" recordCount="0.0"/>
										<ScoreDistribution value="1" recordCount="9.0"/>
									</Node>
									<Node score="0" recordCount="27.0">
										<True/>
										<ScoreDistribution value="0" recordCount="27.0"/>
										<ScoreDistribution value="1" recordCount="0.0"/>
									</Node>
								</Node>
								<Node>
									<SimplePredicate field="double(D)" operator="lessOrEqual" value="144.5"/>
									<Node>
										<SimplePredicate field="double(weight)" operator="lessOrEqual" value="71.0"/>
										<Node score="1" recordCount="3.0">
											<SimplePredicate field="double(S)" operator="lessOrEqual" value="58.0"/>
											<ScoreDistribution value="0" recordCount="0.0"/>
											<ScoreDistribution value="1" recordCount="3.0"/>
										</Node>
										<Node score="0" recordCount="8.0">
											<True/>
											<ScoreDistribution value="0" recordCount="8.0"/>
											<ScoreDistribution value="1" recordCount="0.0"/>
										</Node>
									</Node>
									<Node score="1" recordCount="3.0">
										<SimplePredicate field="double(weight)" operator="lessOrEqual" value="78.0"/>
										<ScoreDistribution value="0" recordCount="0.0"/>
										<ScoreDistribution value="1" recordCount="3.0"/>
									</Node>
									<Node score="1" recordCount="3.0">
										<SimplePredicate field="double(S)" operator="lessOrEqual" value="63.0"/>
										<ScoreDistribution value="0" recordCount="0.0"/>
										<ScoreDistribution value="1" recordCount="3.0"/>
									</Node>
									<Node score="0" recordCount="1.0">
										<True/>
										<ScoreDistribution value="0" recordCount="1.0"/>
										<ScoreDistribution value="1" recordCount="0.0"/>
									</Node>
								</Node>
								<Node score="1" recordCount="22.0">
									<SimplePredicate field="double(S)" operator="lessOrEqual" value="59.5"/>
									<ScoreDistribution value="0" recordCount="0.0"/>
									<ScoreDistribution value="1" recordCount="22.0"/>
								</Node>
								<Node score="0" recordCount="48.0">
									<True/>
									<ScoreDistribution value="0" recordCount="48.0"/>
									<ScoreDistribution value="1" recordCount="0.0"/>
								</Node>
							</Node>
							<Node score="1" recordCount="158.0">
								<True/>
								<ScoreDistribution value="0" recordCount="0.0"/>
								<ScoreDistribution value="1" recordCount="158.0"/>
							</Node>
						</Node>
						<Node>
							<SimplePredicate field="double(heartrate)" operator="lessOrEqual" value="100.5"/>
							<Node>
								<SimplePredicate field="double(D)" operator="lessOrEqual" value="139.5"/>
								<Node>
									<SimplePredicate field="double(D)" operator="lessOrEqual" value="89.5"/>
									<Node score="1" recordCount="531.0">
										<SimplePredicate field="double(heartrate)" operator="lessOrEqual" value="59.5"/>
										<ScoreDistribution value="0" recordCount="0.0"/>
										<ScoreDistribution value="1" recordCount="531.0"/>
									</Node>
									<Node>
										<SimplePredicate field="double(temperature)" operator="lessOrEqual" value="38.716514587402344"/>
										<Node>
											<SimplePredicate field="double(D)" operator="lessOrEqual" value="88.5"/>
											<Node>
												<SimplePredicate field="double(temperature)" operator="lessOrEqual" value="38.66374969482422"/>
												<Node>
													<SimplePredicate field="double(weight)" operator="lessOrEqual" value="76.5"/>
													<Node>
														<SimplePredicate field="double(S)" operator="lessOrEqual" value="89.5"/>
														<Node score="1" recordCount="439.0">
															<SimplePredicate field="double(S)" operator="lessOrEqual" value="59.5"/>
															<ScoreDistribution value="0" recordCount="0.0"/>
															<ScoreDistribution value="1" recordCount="439.0"/>
														</Node>
														<Node score="0" recordCount="1391.0">
															<True/>
															<ScoreDistribution value="0" recordCount="1391.0"/>
															<ScoreDistribution value="1" recordCount="0.0"/>
														</Node>
													</Node>
													<Node score="1" recordCount="1307.0">
														<True/>
														<ScoreDistribution value="0" recordCount="0.0"/>
														<ScoreDistribution value="1" recordCount="1307.0"/>
													</Node>
												</Node>
												<Node>
													<SimplePredicate field="double(temperature)" operator="lessOrEqual" value="37.67707443237305"/>
													<Node>
														<SimplePredicate field="double(D)" operator="lessOrEqual" value="80.5"/>
														<Node score="0" recordCount="5.0">
															<SimplePredicate field="double(temperature)" operator="lessOrEqual" value="37.239524841308594"/>
															<ScoreDistribution value="0" recordCount="5.0"/>
															<ScoreDistribution value="1" recordCount="0.0"/>
														</Node>
														<Node>
															<SimplePredicate field="double(weight)" operator="lessOrEqual" value="78.5"/>
															<Node score="0" recordCount="2.0">
																<SimplePredicate field="double(S)" operator="lessOrEqual" value="90.5"/>
																<ScoreDistribution value="0" recordCount="2.0"/>
																<ScoreDistribution value="1" recordCount="0.0"/>
															</Node>
															<Node score="1" recordCount="8.0">
																<True/>
																<ScoreDistribution value="0" recordCount="0.0"/>
																<ScoreDistribution value="1" recordCount="8.0"/>
															</Node>
														</Node>
														<Node score="1" recordCount="4.0">
															<True/>
															<ScoreDistribution value="0" recordCount="0.0"/>
															<ScoreDistribution value="1" recordCount="4.0"/>
														</Node>
													</Node>
													<Node>
														<SimplePredicate field="double(temperature)" operator="lessOrEqual" value="37.583038330078125"/>
														<Node>
															<SimplePredicate field="double(temperature)" operator="lessOrEqual" value="37.55751037597656"/>
															<Node>
																<SimplePredicate field="double(temperature)" operator="lessOrEqual" value="37.204017639160156"/>
																<Node>
																	<SimplePredicate field="double(temperature)" operator="lessOrEqual" value="37.19470977783203"/>
																	<Node>
																		<SimplePredicate field="double(weight)" operator="lessOrEqual" value="78.5"/>
																		<Node score="1" recordCount="10.0">
																			<SimplePredicate field="double(D)" operator="lessOrEqual" value="85.5"/>
																			<ScoreDistribution value="0" recordCount="0.0"/>
																			<ScoreDistribution value="1" recordCount="10.0"/>
																		</Node>
																		<Node score="0" recordCount="1.0">
																			<SimplePredicate field="double(temperature)" operator="lessOrEqual" value="37.052513122558594"/>
																			<ScoreDistribution value="0" recordCount="1.0"/>
																			<ScoreDistribution value="1" recordCount="0.0"/>
																		</Node>
																		<Node score="1" recordCount="4.0">
																			<True/>
																			<ScoreDistribution value="0" recordCount="0.0"/>
																			<ScoreDistribution value="1" recordCount="4.0"/>
																		</Node>
																	</Node>
																	<Node>
																		<SimplePredicate field="double(D)" operator="lessOrEqual" value="87.0"/>
																		<Node score="0" recordCount="3.0">
																			<SimplePredicate field="double(heartrate)" operator="lessOrEqual" value="83.5"/>
																			<ScoreDistribution value="0" recordCount="3.0"/>
																			<ScoreDistribution value="1" recordCount="0.0"/>
																		</Node>
																		<Node score="0" recordCount="1.0">
																			<SimplePredicate field="double(S)" operator="lessOrEqual" value="90.0"/>
																			<ScoreDistribution value="0" recordCount="1.0"/>
																			<ScoreDistribution value="1" recordCount="0.0"/>
																		</Node>
																		<Node score="1" recordCount="2.0">
																			<True/>
																			<ScoreDistribution value="0" recordCount="0.0"/>
																			<ScoreDistribution value="1" recordCount="2.0"/>
																		</Node>
																	</Node>
																	<Node score="1" recordCount="2.0">
																		<True/>
																		<ScoreDistribution value="0" recordCount="0.0"/>
																		<ScoreDistribution value="1" recordCount="2.0"/>
																	</Node>
																</Node>
																<Node score="0" recordCount="3.0">
																	<True/>
																	<ScoreDistribution value="0" recordCount="3.0"/>
																	<ScoreDistribution value="1" recordCount="0.0"/>
																</Node>
															</Node>
															<Node>
																<SimplePredicate field="double(S)" operator="lessOrEqual" value="89.5"/>
																<Node score="1" recordCount="13.0">
																	<SimplePredicate field="double(S)" operator="lessOrEqual" value="59.0"/>
																	<ScoreDistribution value="0" recordCount="0.0"/>
																	<ScoreDistribution value="1" recordCount="13.0"/>
																</Node>
																<Node score="0" recordCount="11.0">
																	<True/>
																	<ScoreDistribution value="0" recordCount="11.0"/>
																	<ScoreDistribution value="1" recordCount="0.0"/>
																</Node>
															</Node>
															<Node score="1" recordCount="46.0">
																<True/>
																<ScoreDistribution value="0" recordCount="0.0"/>
																<ScoreDistribution value="1" recordCount="46.0"/>
															</Node>
														</Node>
														<Node score="0" recordCount="5.0">
															<True/>
															<ScoreDistribution value="0" recordCount="5.0"/>
															<ScoreDistribution value="1" recordCount="0.0"/>
														</Node>
													</Node>
													<Node>
														<SimplePredicate field="double(heartrate)" operator="lessOrEqual" value="62.5"/>
														<Node score="0" recordCount="1.0">
															<SimplePredicate field="double(S)" operator="lessOrEqual" value="89.0"/>
															<ScoreDistribution value="0" recordCount="1.0"/>
															<ScoreDistribution value="1" recordCount="0.0"/>
														</Node>
														<Node score="1" recordCount="2.0">
															<True/>
															<ScoreDistribution value="0" recordCount="0.0"/>
															<ScoreDistribution value="1" recordCount="2.0"/>
														</Node>
													</Node>
													<Node score="1" recordCount="25.0">
														<True/>
														<ScoreDistribution value="0" recordCount="0.0"/>
														<ScoreDistribution value="1" recordCount="25.0"/>
													</Node>
												</Node>
												<Node score="1" recordCount="7.0">
													<SimplePredicate field="double(heartrate)" operator="lessOrEqual" value="60.5"/>
													<ScoreDistribution value="0" recordCount="0.0"/>
													<ScoreDistribution value="1" recordCount="7.0"/>
												</Node>
												<Node>
													<SimplePredicate field="double(D)" operator="lessOrEqual" value="80.5"/>
													<Node>
														<SimplePredicate field="double(weight)" operator="lessOrEqual" value="78.5"/>
														<Node score="1" recordCount="2.0">
															<SimplePredicate field="double(temperature)" operator="lessOrEqual" value="37.862640380859375"/>
															<ScoreDistribution value="0" recordCount="0.0"/>
															<ScoreDistribution value="1" recordCount="2.0"/>
														</Node>
														<Node score="0" recordCount="4.0">
															<SimplePredicate field="double(S)" operator="lessOrEqual" value="99.0"/>
															<ScoreDistribution value="0" recordCount="4.0"/>
															<ScoreDistribution value="1" recordCount="0.0"/>
														</Node>
														<Node score="1" recordCount="2.0">
															<True/>
															<ScoreDistribution value="0" recordCount="0.0"/>
															<ScoreDistribution value="1" recordCount="2.0"/>
														</Node>
													</Node>
													<Node score="1" recordCount="16.0">
														<True/>
														<ScoreDistribution value="0" recordCount="0.0"/>
														<ScoreDistribution value="1" recordCount="16.0"/>
													</Node>
												</Node>
												<Node>
													<SimplePredicate field="double(S)" operator="lessOrEqual" value="89.5"/>
													<Node score="1" recordCount="21.0">
